4.202737782930334592e-02,2.940614804189185978e-03,8.769388007462354528e-02,2.733994453140501171e-02,-1.566012719049927546e-02,-1.930435679598343363e-02,-5.687820202106662337e-02,1.824005506698499549e-02,2.268883426448136537e-02,1.497827134888444784e-03,7.425572689847555891e-03,-5.228151074497976170e-02,-1.246831291065889817e-03,4.633021899140894045e-02,3.959280727508161096e-02,-1.236324296391935230e-02,-3.508863505983933484e-02,-6.302865586656656791e-03,-5.755953247395146494e-02,4.670398816181545870e-02,-5.042456164644353337e-04,5.548380804307782160e-02,-3.362736165631356744e-02,-5.605413076243380421e-02,-3.778124991467711469e-02,4.423410218744192740e-02,-2.094336292901788354e-03,-1.382528621488243042e-02,3.288463837123161565e-02,4.971717090840783310e-02,4.871680343691297405e-02,9.958932677632051367e-03,-2.750696831121198296e-03,-3.541167668677411631e-03,-3.188300697365928924e-04,3.223022771928450714e-02,4.742649250605057709e-02,3.137916697097001967e-02,1.446846606450206268e-02,-1.440698955000297397e-02,-9.509177898561309294e-02,6.037025553975814557e-02,7.504943710274180647e-03,-8.356624052759156762e-02,2.160642431708842404e-02,2.566608502368345878e-03,-8.085822444300195047e-03,7.045448472595970332e-03,-1.225754917028133370e-02,1.226308943337676288e-02,-1.415443436643435901e-02,1.083378279482511038e-02,-5.917842864487901644e-02,-6.178733249894723806e-02,-5.139579752463879422e-03,1.654331597545198942e-02,-2.655977466096219944e-02,3.772830621933948719e-02,7.960799584884631352e-02,7.037804759619809003e-02,6.214917553251984514e-03,1.372510850743119230e-02,-1.928748622281174427e-02,5.791501524938291040e-02,-1.097897930499470813e-02,3.358441094102276522e-03,-5.604883579886823369e-02,6.088840955296827284e-02,4.511033431208406018e-03,1.537897798220941997e-02,2.125214321459368508e-03,-2.363130715516625208e-02,1.308997224824219943e-02,-3.205046502966481248e-02,7.468290630057605739e-03,2.551845244761355089e-02,2.308281352438047718e-02,1.271708384106050478e-02,-4.761501055993198200e-02,-2.248100724553222379e-02,-2.437111051283960897e-02,-8.834559862434120114e-02,4.800241325154858130e-03,5.951340441804294640e-02,2.810725874743342373e-02,-1.705988205987247347e-02,6.722819458987500107e-02,-3.137284569958642948e-03,-7.161167825415079569e-03,-2.829628098143900997e-02,-1.372072575076555175e-02,-2.784027312593299192e-02,5.550673856889047630e-02,4.227590735076330181e-02,-4.298805247417256115e-03,7.700196235497727693e-02,1.960923125204702341e-02,1.457669281885476398e-02,-1.437759074324262282e-02,7.667537448769825431e-03,3.353497202935508403e-02,8.347288732589237814e-02,-3.638767518187497468e-02,-7.302589316358897020e-02,-3.593389870294724786e-02,-1.390090679688789181e-02,3.647753923077525634e-02,3.445124407503123189e-03,-4.769736350766501376e-02,-1.391689813813641076e-02,4.494691731526587880e-03,-4.088010000347413499e-03,3.357828604487031465e-02,4.309817824510191187e-02,-3.381086188165843137e-02,3.502849502899518797e-02,-2.700860558270064965e-02,7.155516957499336028e-02,2.446460693234432313e-02,3.877894931765661635e-02,3.420401131521756677e-02,7.746972850014750833e-02,9.277770958236739030e-02,4.581962022392431499e-02,3.531448152621711675e-03,2.438881519146904667e-02,-1.270789975204858740e-03,1.015555525930671027e-01,1.455429502205579304e-02,8.823248361390471917e-02,6.745155713871893444e-02,-4.269605338968946763e-03,-7.819170449306746262e-02,-3.469593786110564820e-02,-5.525320806073452662e-02,-5.050479140597695371e-02,1.000382324527543387e-01,-5.325900512372374294e-03,-1.201896315489953820e-02,2.065156772278716260e-02,2.680256534893364975e-02,-2.566488945826921400e-02,4.780230634413503571e-02,5.563130249259582577e-02,7.096616341794498295e-02,2.311778298747215604e-02,3.895781826569757328e-02,3.584192214936635090e-02,6.184469205015972332e-02,3.927056383790458044e-02,7.690044926513893431e-02,9.343635991271914687e-02,1.556887218875237788e-01,1.151550888802179706e-01,-1.426470869596156536e-02,3.948975135291858674e-02,-1.120678331132093225e-02,1.025705811758999414e-01,8.864169799702810437e-02,5.822081876064571365e-03,7.742910470902931649e-03,-2.284067108789636369e-02,-3.782517004930238680e-02,-4.086325614517533067e-02,-9.500646744252086787e-03,1.412062047399861332e-02,-1.108155803827513657e-02,-3.234154202631966263e-02,4.011871038145569529e-02,3.945893810803595414e-02,-2.115783992787267573e-02,5.127271411113288463e-03,-5.660857201042546194e-02,5.436471069621175850e-02,8.773682831908691249e-02,9.977819256809655757e-02,1.026560878757251383e-01,1.547009535084647447e-01,8.464941554912978894e-02,8.088332368109595050e-02,1.202279293388610337e-01,5.273477160176907874e-02,6.403117017550076897e-04,1.084751416520993161e-01,6.414779540356924104e-02,9.323031115398593138e-02,4.441152517833781010e-02,5.795916543134332910e-02,4.222710382879673566e-04,4.348129821980541154e-02,-1.131842040771546265e-01,-3.332533598839136635e-02,-6.441724223993916532e-03,2.237751405932523335e-03,-5.570259272185568156e-02,3.114573471468679022e-02,2.480091729034089240e-02,-5.039086590630009049e-02,-4.466920689435969344e-03,-1.684065397902903549e-02,-9.692141003895846790e-03,2.485622981667745188e-03,7.694556633663360290e-02,1.314126096249830511e-01,1.168099723228466919e-01,1.138240696151722325e-01,1.354408379044585997e-01,8.914560343514993379e-02,9.303660925880399835e-02,8.565427083716679879e-02,9.821853977326497342e-02,1.322513886878390610e-01,9.860701088122497682e-02,9.256679687332158499e-03,3.862990943598820781e-02,-1.867115475761594451e-02,-6.429998069010375676e-03,-9.698757701014618093e-02,-4.166522306356079371e-04,-5.482683135636448601e-02,-4.902373207004827316e-02,2.894796161790045078e-02,3.635488541344798069e-02,-1.985759583164281583e-02,-2.866103920437628599e-02,8.127086960627390513e-03,1.543897978361267239e-03,1.935533144276323572e-02,-2.063324635373381746e-02,-1.534402826343680623e-02,2.199349366014641260e-02,8.304298832096757010e-02,1.088752200005737719e-01,1.419922599719248002e-01,1.151781685366250613e-01,1.027195764172623427e-01,1.003669657653674385e-01,1.199120103563748457e-01,1.071087517203462847e-01,1.061210200028002010e-01,1.842855197601215578e-01,1.856303829622138468e-01,1.118671425638989858e-01,1.015012840413345996e-01,6.035770775363197456e-03,1.677207260967178426e-02,-3.004277955099351333e-02,-8.822165004976499636e-02,-5.411476370330435548e-02,-6.290125380319150361e-02,-4.058009412379603997e-02,4.038908869018906916e-02,-8.982060882720491191e-02,-2.501497118495288330e-02,-9.556807642585035678e-02,-4.697276683676678000e-02,-3.161676331362878178e-02,-2.633538767752368996e-03,5.338194065074798600e-02,6.673914020393902080e-02,9.875719560571268041e-02,1.611694766258417455e-01,1.548649392321968243e-01,1.077496356530022598e-01,1.170836310828396037e-01,8.283189304904481354e-02,2.024072592235370283e-01,2.267085832895217312e-01,2.291135074483964251e-01,2.143963537226408478e-01,1.739076514823734709e-01,1.596679180927303987e-01,1.964736463775805797e-01,2.682825373982677605e-02,2.573930732501722093e-02,4.820612153787787353e-03,-5.037618809321713076e-02,4.261467317624652307e-02,1.527931093903563131e-02,4.118598125690675626e-02,3.914533009619985265e-02,-4.265313900650338774e-02,-4.358661022469632711e-03,-3.078448338048664704e-02,3.430162612404968892e-02,2.076856634934358403e-02,7.331069139303487969e-03,7.493827465235815277e-02,4.645888060161866562e-02,1.316250913439505343e-01,1.566010767884255250e-01,1.412478277791587300e-01,1.317828163278740861e-01,1.755900615719845348e-01,2.167613924619696819e-01,2.101675861471460072e-01,2.136649187166801689e-01,2.926417915567329775e-01,2.207525522826483677e-01,2.274428770936489375e-01,1.750193343945809499e-01,2.014586920240383217e-01,7.859731711997662573e-02,-1.568170170057155838e-02,-1.195237266285621887e-02,-1.832307881713159115e-02,-6.261971772418871429e-02,5.285432835794139257e-03,7.194076589839857282e-03,1.097349170152055013e-02,-3.903276001886074598e-02,-1.912355659264185475e-03,1.395396039510829293e-02,5.297948077093238978e-02,1.405902232355208011e-02,5.038759566399281242e-02,5.444235865958546583e-02,1.488872872586955165e-01,2.138959417655179329e-01,1.619640165819697664e-01,1.640685071819568408e-01,1.469318112362012485e-01,1.518995740611301382e-01,2.051194290196853842e-01,1.787819114235599249e-01,2.560664045889818330e-01,2.720785772600528007e-01,2.126848376388267015e-01,2.930311685525338050e-01,2.255477777978561749e-01,1.312073902383872337e-01,7.517006554919633543e-02,2.897463321025866775e-02,3.031736588878693184e-02,8.124459250166608457e-03,5.686238459393101741e-02,-2.913642406907993726e-02,1.368030668327837110e-02,2.593335989168376546e-03,-5.146869037623728188e-02,6.772062058851431587e-02,1.429012294460154653e-01,3.745850702578631258e-02,8.594600349694406227e-02,2.469234097578640319e-02,1.760518339309371516e-01,1.463750160038675696e-01,1.307332013505651813e-01,1.361461206501820009e-01,9.385959528720159983e-02,1.546307076538617764e-01,1.200748213482202426e-01,9.779656964678321018e-02,1.130237850695906404e-01,1.472707186269588686e-01,1.405998243067065889e-01,6.343537530657503143e-02,1.970491374573234422e-01,2.158553753852566759e-01,7.629735118295015439e-02,7.336023435065250342e-02,7.393212516994342176e-02,1.165982548738268842e-02,2.299719882420593955e-02,4.516190632099630758e-02,2.847130751200588686e-02,-2.231555096351086481e-03,4.502012009987670788e-02,1.410062411141675687e-01,1.674602035794713895e-01,2.095990704394651294e-01,4.318328760560490726e-02,3.680069715938850961e-02,6.598521752440621169e-02,5.628365619158624822e-02,1.177357733959223524e-01,6.376800771944658719e-02,4.140622473333570308e-02,4.322923705043338338e-02,-3.413537561659014258e-02,3.820917040905340983e-02,1.286926691625537092e-02,4.387031395343738566e-02,-2.487778025349311750e-02,5.148231747818452636e-02,7.750137983019964039e-02,1.120250709205917322e-01,1.022308637489459243e-01,3.451568621639138079e-02,-6.481383235808909141e-03,7.599949627294695295e-03,-1.761412691675681014e-02,-5.341521165213633515e-02,1.436634778431840516e-02,2.060219161122359491e-02,-2.452573671600205910e-02,2.166446571880760175e-01,2.292605284280098965e-01,1.497380379753843194e-01,1.119289310611406157e-01,6.905864957831221729e-02,1.021068541337706442e-01,1.240856371770061167e-01,1.485419219662957244e-02,5.042140662213172309e-02,4.101437423591085263e-02,9.995755796725856734e-02,7.176077781485902529e-02,5.815588871077647520e-02,7.867711448782135908e-03,1.512553186622514131e-03,2.104460263330760680e-02,-3.522231636745686706e-02,8.761697384249562959e-02,6.314388012274449458e-02,9.951953400407403949e-02,-5.066152294062374606e-02,-2.566750327021610333e-03,-1.468483120695205681e-02,-5.724371852348809388e-03,2.075331358542542928e-02,1.364581999798461509e-02,-2.477657346210361891e-02,-6.258184595036732356e-02,1.833250831767792854e-01,2.256584676529233280e-01,1.522980739441215370e-01,1.635473223884083838e-01,1.378979526537337796e-01,4.829730087450635756e-02,5.631871159997351578e-02,-3.498295358566728963e-02,4.987899681874594093e-02,1.508086709578824458e-01,5.928436117178877141e-02,5.136525607722079723e-02,8.295386968015443924e-03,-2.395334883765781308e-03,1.049947867742834565e-02,2.470632328800114255e-02,4.171633605588880717e-02,1.811808292138387608e-02,4.563122691144518017e-02,7.203998063953671871e-02,-4.381467728442400844e-02,-1.798574971589097637e-03,4.716503906624399528e-02,3.214852879546966323e-03,7.038036774502049418e-03,6.615010697447062937e-02,-2.315792009441315982e-02,1.662919242109401827e-02,9.550969135465861570e-02,1.655742108244205590e-01,1.476981141323616409e-01,1.414127058749274357e-01,1.708675201019807521e-01,1.842537554219801366e-01,1.713702006113552168e-01,1.652553878336848747e-01,1.633878469364732910e-01,2.049403637619136298e-01,1.282148790985179754e-01,6.884511437637977349e-02,6.430188666902120209e-02,2.841313405942778869e-02,2.494989826680695313e-02,-2.686249840072253356e-02,-1.272767994428375231e-02,3.235212934733321111e-02,-1.174045587151017122e-03,4.139197327395376103e-02,2.669881924962297110e-03,-5.822921032849906475e-02,-4.952081785735523017e-02,4.574898291139258694e-02,-3.631786350522141910e-02,-2.516627806404540466e-02,2.443987964934495397e-02,-2.690981490245062530e-02,2.039207758450747518e-02,1.115907038014805203e-01,1.094332812315403497e-01,2.225593702783896788e-01,1.280041996408924354e-01,1.979062378236214892e-01,1.561817997460031304e-01,1.290894302867785781e-01,1.949202675454125566e-01,2.682799634845876025e-01,1.315743183711292896e-01,7.708738847484949974e-02,3.302389255770001725e-02,5.514533932737693961e-02,1.217774203372156382e-02,1.346228623468242666e-02,3.757779313811251271e-02,-4.335242536000852645e-03,9.271694601654283108e-02,1.260056647560374096e-02,1.741915251213285373e-02,6.916383607688616781e-04,5.046933951668181734e-02,7.842896835924033361e-03,3.289687674556204117e-02,1.714497519606372061e-02,-1.399461665078723278e-02,-5.820055395477353316e-02,-3.336782107408711728e-02,8.150644220052070954e-02,7.220523435734105266e-02,1.275410058628101695e-01,1.018240485241222737e-01,1.207867738856099049e-01,9.668209895296073220e-02,1.764835925656259019e-01,1.394696748811841136e-01,1.814624955138148255e-01,1.282205091448752887e-01,9.527795720642875943e-02,9.645902132543056340e-02,3.811328152858883128e-02,5.883975710712728568e-02,2.594636213422038540e-02,1.288302683792256608e-03,1.665243984436456937e-02,-1.269842675564816607e-02,3.520091788336440763e-02,-4.966737048550230824e-04,-1.215353623602180707e-03,3.275181540334858726e-02,6.047791517627267716e-02,-1.528803912996221613e-02,7.297901731158257070e-03,-4.947323805701158567e-02,-9.937857040658355789e-02,6.806462253927118844e-02,9.324386821149353854e-03,4.853037738473040680e-02,8.818094023343474308e-02,5.115607084617302541e-02,9.931660618911436478e-02,9.075992321626627501e-02,8.252418832980755459e-02,8.626033313253525514e-02,1.420408646850893908e-01,1.540692074271404477e-01,2.219972530090913790e-02,2.098113798526764565e-02,5.925341665380647917e-03,8.803532492993827382e-03,-2.195684773685299684e-02,-8.046823194330535861e-03,1.094870948961255280e-02,2.486494095609277991e-03,3.249925534349054883e-03,-4.675533596521697435e-03,2.967241670243015925e-02,-2.950423958724256515e-02,-7.050032523650028027e-02,3.780505915270405883e-03,-4.400609666642190526e-02,3.430230535292027455e-02,4.808763346506037678e-02,5.984430512365618293e-02,8.361599597891099245e-02,4.181843160570506562e-02,1.871463244051349006e-01,1.069533162017734934e-01,7.332482589529321082e-02,7.515031343449311840e-02,3.360938004733554640e-02,1.144950988862206004e-01,9.060034639768817233e-02,8.913943588739470236e-02,2.811244570713325799e-02,1.719632148378738568e-02,-1.493563265923150739e-03,-1.606677856782616487e-02,1.743728638420798116e-02,3.078235642261209146e-02,-8.083665017184839263e-02,-2.900706882158037708e-02,-7.069330514431430845e-02,1.618704037331815046e-02,1.121865040747086970e-02,-7.156160280904734494e-02,2.273178125409789849e-02,7.732516880565293467e-03,1.083458824982661863e-03,2.058750702123681928e-02,7.699026493760799394e-02,8.003723757776935732e-02,1.154840651155912556e-01,6.439404902676051923e-02,1.075921805904758166e-01,1.200667874032250171e-01,1.164962998765978336e-01,1.727424333696185865e-01,1.257363475002626907e-01,8.720288985963109418e-02,7.388122467141414185e-02,-3.332249598712114843e-03,5.125879799261229969e-02,9.732333947933748119e-02,4.465711231637554263e-02,2.849776888704167940e-02,5.963258428099478536e-02,-2.380238449261176670e-02,-1.635769246206446662e-02,-2.019282171971733403e-02,-1.308224779807566976e-02,-1.410838558089578566e-02,2.547650991210042085e-02,4.087505349063738636e-02,-5.599409466981197271e-04,7.153137269772726070e-02,7.766767401993640574e-02,-1.473809088865959439e-02,-3.976769595685659270e-02,-1.750886000139011481e-02,5.625379830982625562e-02,9.768791821289357635e-02,1.560914671363968498e-01,1.783681742628067113e-01,1.039750002439161491e-01,1.827456978180572178e-01,1.921276314960489173e-01,1.571497758978613601e-01,5.738414865083672073e-02,1.529280148062955591e-01,1.224037186126478716e-01,4.086876761097007343e-02,5.597399962159491787e-02,2.471360045947689973e-02,6.353323195337445828e-02,8.018686759995093116e-02,5.183140365088078488e-02,-5.319936457241782046e-02,-9.838579109257486813e-03,4.965650264551119131e-02,6.767943849309167315e-02,-6.196400286052900636e-02,-6.568968722156837484e-03,-4.461039141173325784e-02,4.154016318595208507e-02,2.836174508735543956e-02,-4.019888412688676915e-02,3.517435034641952507e-02,-2.400403223233204663e-03,6.172654388132679804e-02,3.273045355743855328e-02,6.535256353698916387e-02,1.040076604901014057e-01,1.101480223362917149e-01,1.465956094161569578e-01,1.977205700395163745e-01,1.270618505831512257e-01,7.676181555400345136e-02,8.187288646380640189e-02,5.758072092356790461e-02,9.015235326860029930e-02,3.120656594533233880e-02,-2.713635124546080399e-02,1.127106754562423770e-02,-3.591056035939389074e-02,-1.310045641801675306e-02,-4.604960289268547613e-02,-5.754713908021140412e-02,4.397178552095390956e-03,-4.909270712478588927e-02,-1.805576679341940050e-02,4.875464196289319013e-02,-1.440187238041382677e-02,-2.280858029582160870e-02,-1.237841920999074516e-02,6.783487119725507830e-02,4.180612336680253663e-04,-1.744139167698503454e-02,-1.050110107236541974e-02,-2.715059219788166014e-02,1.869386652486177726e-03,1.437039745169233773e-01,6.726776575576153862e-03,7.606237081442648873e-02,3.609665550711918525e-02,3.649124392879143832e-03,-4.071168026871907486e-02,-1.178153286940923118e-02,-4.421505981570012650e-02,-6.929814648850771142e-02,1.316529887139095308e-02,-3.844773724357613935e-03,1.172469685627659623e-02,-4.820879602820678927e-02,-1.492444200165261858e-02,1.751662072972998835e-02,-2.061706878624855813e-02,2.750838849070763245e-02,1.290433953992915165e-03,-4.935082467967173703e-02,-4.077216668652891671e-04,-4.497241219020631231e-02,-2.709438818296656948e-02,-1.721864595204770920e-02,4.749624430160200722e-02,4.322047300714958878e-03,-1.439942274975468221e-02,-2.758558399479271381e-02,-2.879455911287126177e-02,8.549860462444176801e-02,2.272435023066980350e-03,-1.864564413795149686e-02,1.449172996552594225e-02,-5.368737970292640493e-02,-5.208029695060687608e-02,-3.035002953720843805e-03,4.538771575910010431e-02,2.609622169976746897e-02,1.326652711690562078e-02,-7.129993283117807244e-03,-3.775543724181035232e-02,2.543366669243840236e-02,5.670469430603051727e-04,5.745675265202686982e-02,-5.188859830882984470e-02,2.891711289682967478e-02,-3.003150317178408454e-02,-2.680442031088496602e-02,1.921441504596553204e-02,1.216272267218681744e-02,-1.718817359724665594e-02,-1.199172079771789780e-02,-5.203387740780963944e-02,-2.043610110579581474e-02,-3.945616510449227732e-02,-6.121237377089407822e-02,-8.067896961798364658e-03,-7.548868073789792230e-03,-5.148965515480865424e-02,-2.147712286490371936e-02,8.904669751918341258e-02,-3.537882918649815078e-02,3.164323157480864596e-02,8.860182177691458202e-03,8.698716610458083823e-03,3.339328723410144029e-02,-2.247764870203872167e-02,-3.874815559251067881e-02,2.877085404140183184e-02,2.938906217984249211e-02,-2.494869079125198660e-02,6.511209148538887881e-02,-4.892057157098470693e-02,-3.029309621846056066e-02,3.482187806428016508e-02,-4.240023596236167092e-03,-1.277408396993676663e-02,-3.736782438996236189e-02,-2.263643119933695519e-02,2.312455036360096597e-02,3.914998231791681077e-02,-3.290822934792366622e-02,-2.665908937236878204e-02,-2.320663366271617095e-02,5.728980537787677768e-02,2.680510935002116193e-02,8.163761581347925289e-02,-4.338511029305761740e-02,2.863599332701904226e-02,2.523933121586353912e-02,5.752213906734075788e-02,-4.799291888055701172e-02,1.502122192087629489e-03,1.707044460876799841e-02,1.831670348023371406e-02,-1.309161489124002764e-02,-2.342664954341322492e-02,4.715482787781614948e-02,2.055397960689635262e-02,7.555913718470258153e-03,5.521481650092088106e-02,5.008212589172980622e-02,-1.169359845961191963e-03,-1.308633343097408488e-02,2.045193928742150904e-02,3.236756224002204294e-03,1.938512824251564098e-02,-1.513665275732153882e-03,-1.958523828470845954e-02,3.238512150530623024e-02,-3.129460843828339028e-02,-3.278311048635514091e-02,1.950858818221008761e-02,-4.113244214653007103e-02,-1.513924365717364898e-02,3.046425704281911437e-02,-1.173835470138959343e-02,-3.628223233304279927e-02,6.334042912317133789e-02,2.542672918411682109e-02,1.822652299750854993e-02,-2.516154883564750058e-03,4.256210119135402092e-02,-2.905245507434317531e-03,5.238134760407496537e-02,4.621446346175150932e-02,-2.251709870483381906e-02,1.207883665917865515e-02,-3.043050631313989549e-02,-2.554433325151157785e-02,1.824540216793260139e-03,4.123317422872428695e-02,4.801809795777239875e-02,-1.208957149644765763e-02,-8.434459376475116760e-03,-3.964213051829607731e-02,-2.230979059208220219e-02,-8.316594259061180217e-02,4.051440449464679960e-02,2.154782034766267867e-02,4.600493423443799412e-02,1.708006437616922495e-03,-1.735201880585736725e-02,-2.418236718641091770e-02,-3.621110592911903035e-03,-2.220105613020791242e-03,-3.980900395655566359e-02,1.997405738656644197e-02,3.486741353675112867e-03,-4.579849353726175160e-02,-4.708484275338772201e-02,2.227174642861076692e-02,2.566615123841848797e-02,2.170174451291952827e-02,1.502738220807098637e-02,-2.760003269174044274e-02,3.954475766320252050e-02,-1.489573838086678348e-04,3.745157927034489798e-02,3.304667855085138828e-03,3.015409004845092528e-02,1.325518200240189369e-03,-1.525875958282683215e-02,-1.476702705245227978e-03,-3.720285905785789687e-02,1.390560077932227051e-02,-4.480494280701542709e-02,-8.229186093470060998e-03,-3.683042120935901831e-02,2.166026233247275376e-02,3.996360191529898381e-02,-4.241694212064654745e-02,-9.366354474046059697e-02,5.259319586103940874e-02,-3.766097759836361386e-02,9.751977262545530670e-03,2.872428113457651047e-02,2.091001403829401487e-02,8.916236175648781237e-02,-1.374478661686838465e-02,2.927488961994005254e-02,-4.306275962690783721e-02,3.471524233522291919e-02,1.926856811597341818e-02,-2.879150547767492935e-02,9.727361823181339406e-03,1.037194862843354159e-01,-6.074875924556306928e-03,8.786533993064228609e-02,-3.671357301281737151e-02,4.857562920489667813e-02,-3.420434164829903867e-02,1.014425458665030831e-02,1.060068718443121366e-01,2.033324720354876339e-02,1.182249739512733142e-02,-1.272329777555182388e-02,1.534524180198449869e-02,-3.376362783906963760e-02,-2.864609899769794341e-02,-5.387215717989982458e-03,6.454104255694791126e-02,-4.502898444274737629e-03,1.197005401902920436e-02,1.521531198186479826e-02,4.860285654738723954e-02,4.733109314746072188e-02,1.734984882874405776e-01,5.622461099790496131e-02,5.341249874748577736e-02,5.882776097921771363e-02,-4.133450095193270252e-02,-3.668980949953827564e-02,-3.455823293017131620e-02,2.508342531965375780e-02,-3.059268230456800575e-02,-5.008195840799654908e-02,1.615660475094788176e-02,-2.272415030007062312e-02,3.471176370075266301e-03,6.372846671045552178e-03,-2.032445704507040984e-02,3.034858104111445853e-02,1.676452854685045804e-02,2.116669626703870238e-02,4.891794322358775614e-03,8.502010741078926126e-02,9.715893165756192551e-02,1.101747744604157919e-01,8.274271646925665524e-02,1.251141830308398484e-01,3.505040309350339334e-02,6.285661821936044946e-02,1.247063844551036041e-02,-2.187718669955510727e-03,1.210760189487151972e-01,1.558700695237643929e-01,1.539717278396992572e-01,5.871682499630767604e-02,3.105703889532091238e-03,1.996623792487318277e-02,-1.488619071863216299e-02,-3.108930229895509254e-02,-1.820813018041177829e-03,-1.655033076015017049e-02,-6.571636027725326346e-02,-1.258534388094042014e-02,4.593774100140375627e-02,5.590312205238651133e-02,3.925333029464501966e-02,1.606677320377760537e-02,4.822352731539462228e-02,3.956124030896009114e-02,3.541326409677226367e-02,1.090375832979921938e-01,9.047671813816599018e-02,1.600141830202307103e-01,1.326118467928761591e-01,1.403093473687273274e-01,3.808569502872691942e-02,6.668809095523793584e-02,5.917112183547043602e-02,-9.092742863341071388e-03,7.271141095714750424e-02,1.914059103931585112e-02,5.603404581700292819e-02,1.226151205795153465e-01,4.917163370574270664e-02,-1.556743044824515990e-02,4.000567065225429236e-02,-3.823350880861627055e-02,-1.317169748619779861e-02,4.283064949197452204e-02,1.526150206947643993e-02,2.645504648785730606e-02,4.817171929751111470e-02,7.226938832152314529e-02,4.515441681631610776e-02,1.415130562831368698e-02,2.563024496700003554e-02,-5.573087145643672476e-03,1.228135920534002834e-01,6.995165263963015745e-02,1.979388196025212154e-01,1.530777254891589056e-01,1.213922839396085751e-01,1.998046579586778004e-01,1.263152081093555368e-01,1.375329463573569111e-01,8.342459444810065849e-02,8.425981716883353123e-02,4.874344816965908017e-02,3.741711811216307665e-02,1.131326262825038675e-01,6.375301384468702592e-02,1.344476344207822527e-01,5.275454957812245743e-02,7.026299631390817146e-02,-1.269806212583226603e-02,-1.769580078040240007e-02,7.094879521521320342e-02,6.971150382991292069e-03,4.629308577356138626e-02,8.289920212021655022e-02,1.827421529545988216e-02,4.586828394291727999e-03,3.720511827221547468e-03,1.241888210984337937e-01,1.582549253292110381e-01,1.213687119805792053e-01,1.959081817105639833e-01,2.343426565315562260e-01,2.740940316707178859e-01,1.762131718355894328e-01,1.461557879032476526e-01,1.824772492296684590e-01,1.510569950732495448e-01,1.477893650477196674e-01,7.414211613258095412e-02,1.211088425378013672e-01,-1.822773657652789273e-02,-3.867380376077885623e-02,9.518431755068121336e-02,3.892647716340277841e-02,-4.774893788246507842e-02,5.327780111590836587e-02,8.971166292050115898e-02,-8.742215929586919171e-04,-1.052039507070325064e-02,-9.250542439160965025e-03,5.877473652733290060e-02,-1.673316624142904066e-02,-2.054869301788860708e-02,4.196079924446731446e-02,1.225450960923503835e-01,1.090133802403370905e-01,1.394039545135465352e-01,1.783982768700216326e-01,1.739062288272331391e-01,1.873499931313675482e-01,1.739479972489037518e-01,2.112501124748123182e-01,1.378978804897309507e-01,1.195807012286262822e-01,2.207968480292894498e-01,1.393175756457880332e-01,4.243079893296122090e-02,2.120405615622986475e-02,2.497052336400427518e-03,-1.146305959943512559e-01,-2.536906441404926035e-02,3.655866164979052618e-02,-5.259833101956049722e-02,-1.316409894734404951e-02,1.311491502328720506e-02,4.794305325770084093e-03,5.959470020215073410e-02,-6.427993925426402078e-02,4.597553486755192459e-03,1.399206139647083715e-02,3.760795860707182026e-02,7.239931119324227726e-02,1.431836848070855150e-01,1.445979293924851972e-01,1.229349457979942023e-01,1.714654723072531195e-01,1.742411879463500179e-01,1.723922437142304809e-01,2.204811778630466346e-01,1.914591792364253309e-01,1.105711725351083974e-01,1.625993567526284322e-01,1.590421226180087910e-01,1.629619545127098668e-01,3.788627082601277868e-02,7.209644226170033865e-02,1.266381741346123656e-02,-1.462081930207332139e-02,-1.290010293450096213e-01,-3.673066766846285608e-02,4.013752850135495626e-02,-2.273002013556051429e-02,4.404901345205135266e-02,1.305638093969930906e-02,3.222850089609970159e-02,-2.615167648309296711e-02,-1.470065186177414197e-02,1.456871400714183917e-02,8.070455740727024152e-02,1.306439710669537180e-01,1.824281670492073348e-01,1.349657649503131218e-01,1.965780596368459088e-01,1.429176078022466323e-01,1.839345984207690909e-01,8.946588688711315518e-02,1.507072164949194715e-01,5.218786020341961707e-02,1.111090122729589263e-01,5.279375406979826962e-02,1.813794396263973818e-01,1.645922707497861348e-01,2.159069895445558385e-01,1.462306878041750857e-01,1.349948616361548170e-01,1.228904238171028424e-01,-3.703570470515385547e-03,-9.383050123000571952e-02,-2.166713843380941446e-02,-8.251050816025498266e-03,-2.798355173122012585e-03,3.907374885664690461e-02,3.153544851689737971e-02,-2.190280953640840259e-02,1.029390576483398380e-03,2.376848216628570966e-03,1.795061639431111411e-01,1.107768931410025304e-01,2.228678192537359715e-01,1.675614552086964193e-01,1.710293613261534285e-01,1.627481337227216773e-01,1.520117804715406251e-01,1.122990670449666162e-01,2.401336195527633763e-02,9.566994954387565697e-02,5.673108768644279792e-03,7.209431127843324294e-02,5.814939010753121529e-02,1.402441728971165202e-01,2.349334899798057597e-01,1.378035582823199656e-01,2.147213065394606435e-01,3.338371985383138951e-01,3.056730540003427948e-02,2.702056251808796286e-02,1.969828161763122545e-02,1.582920945176228764e-02,9.254574940081090884e-03,1.367549197495199252e-03,-2.288967606963676973e-02,6.830261305879680757e-03,-7.697794317027181754e-02,1.291875763154744748e-02,9.109219843316281040e-02,1.472954160685935598e-01,2.236651911167645279e-01,1.283246355512469850e-01,1.178692644726349326e-01,1.061709010024705080e-01,1.268115881332864125e-01,1.072351133590869476e-01,1.076419070722606508e-01,6.977448879591828523e-02,-5.390735050303253201e-02,-6.127257614694950859e-03,1.829748442038399772e-02,1.003300719992571005e-01,1.382856641654625351e-01,1.887631741463340063e-01,1.878251925535569800e-01,3.343844372332085979e-01,2.535017098210458619e-01,8.360261298111944239e-02,6.839524703676703316e-03,2.718545082305242819e-02,2.851727012380764897e-02,-5.008200381291463138e-02,3.709411890439623643e-03,-1.422662300435648813e-02,-3.072393635637984607e-02,2.771517969791827130e-02,1.348313825607024286e-01,1.428014607831683547e-01,1.056136552604688000e-01,1.274439162212112897e-01,8.797504544231882911e-03,7.254048062569624922e-02,1.042279514603216550e-01,7.158913505506132868e-02,1.660210817031379515e-01,1.050232060123251487e-01,2.588288092259772785e-02,2.635543455660277826e-02,3.547077097981545662e-03,1.159209414144371786e-01,1.062919941503623067e-01,1.698684190880062339e-01,2.311985715448336143e-01,3.089356720704403148e-01,1.745636866122634578e-01,-3.868038816860678436e-02,2.096411381411640573e-02,7.389175709165171461e-03,8.757183756252371470e-03,2.792794417009220737e-02,-1.158388256649725209e-02,2.110772338414227886e-02,-1.434033217278456434e-03,8.426433354135279274e-02,1.728355131499413888e-01,1.291389814544680048e-01,1.333674470088318798e-01,7.410092585834558709e-02,9.301714136155499191e-02,2.489367976880729055e-02,8.213391486816468134e-02,1.628765300768464652e-01,1.481737883412380941e-01,6.304332891483779844e-02,9.150802794385373695e-02,-1.332652684147753175e-02,1.354771060545479078e-01,1.418946921674744954e-01,1.691984089152443194e-01,1.861707758142404079e-01,2.137697803239312633e-01,2.193578875964388997e-01,1.619212112185638708e-01,1.472188633129377540e-02,3.880154723585264431e-03,-1.749597842344578422e-02,6.044998397035187404e-02,-2.061892186355978804e-02,2.316532919100523086e-02,7.285372041537631869e-03,-4.673901254124269988e-02,1.702809241085574410e-01,1.340230175763758858e-01,1.974355884986474796e-01,1.605262228783988498e-01,1.736619662185396873e-01,6.583105957874095526e-02,3.610016150945258295e-02,1.275908723318059934e-01,1.097520103870201907e-01,1.252665567035438354e-01,4.311689668400955910e-02,3.796089177292789191e-02,5.934668719503548989e-02,1.587755443329713356e-01,2.146025776697296217e-01,1.756044712544660713e-01,1.722012819331100175e-01,1.375076643222817863e-01,9.760590470419532039e-02,2.029644851423946517e-02,-1.992074756387708992e-02,2.947641075673681360e-02,-1.048790250011773749e-02,-2.997103249163244471e-02,-3.187546091735372900e-02,2.498612067249701349e-02,-2.949735599300866776e-02,-6.994199081284525887e-02,1.105783812307645358e-01,2.150495869977665786e-01,1.406531142575439819e-01,9.837245660884938459e-02,9.776248142915952566e-02,1.491453245949663220e-01,1.470620271981157579e-01,1.229588550649674678e-01,1.835715799549667571e-01,1.633452313693941060e-01,7.580200310205530145e-02,4.762040866651859328e-02,4.518087828995308308e-02,9.847240109755039938e-02,9.023174000240818948e-02,-3.873525698210790024e-03,6.390495038463618604e-02,4.458394424203231815e-02,-6.768986778623153899e-02,-7.404038857759752401e-02,-7.715996248149925574e-02,2.388568045678316279e-02,2.744531402022112182e-02,-8.272173166184443316e-02,-3.160500904879352119e-02,2.400562397401908091e-02,-1.479489786028138042e-02,-5.108104166069024621e-02,3.285821858966411768e-02,1.098016972361010035e-01,1.508843871669609815e-01,5.722738627406821071e-02,1.296184286803937213e-01,1.044909723739340796e-01,1.786910083008443340e-01,1.783050133568167828e-01,1.664451459734689331e-01,1.158270260791602613e-01,4.715373795586611655e-02,2.242335424433982566e-02,-8.161942585873173048e-03,-3.702736533504505378e-02,-7.619662968614417109e-02,-6.643915229430091829e-02,-1.267842308180749666e-01,-6.369829265685879316e-02,-9.318055271068792500e-02,-9.944792668911443811e-02,-9.294771800349521662e-02,6.256996280565293783e-04,1.632519680401018844e-02,3.973680056468867176e-03,5.696759551385487813e-02,-1.802384816704794002e-02,-7.044269266673569563e-02,-2.025682268112990667e-02,3.348104940394255186e-02,1.602561714892780376e-01,8.329544467908590877e-02,5.532090601826821635e-02,1.003089171019544146e-01,5.593877095627115131e-02,1.454001911128556535e-01,5.602684752835571796e-02,8.571268985462919543e-02,6.894374465071644031e-02,4.617763731863451515e-02,3.977645554637849329e-02,3.172541151168494639e-02,-3.225873641945039422e-02,-5.546338343013277467e-02,-8.480806090572465261e-02,-7.722191290341338943e-02,-1.443316266702073802e-01,-1.184375291429780319e-01,-9.302510724681041510e-02,-3.410682839920703424e-02,-6.281008583691976947e-03,3.305169349366809256e-02,8.190860621398792993e-03,1.164542969914421494e-01,2.583058192174419315e-02,5.335301076873043974e-02,3.993988106351586791e-03,4.860049394040511644e-02,1.465439645269119018e-01,1.368392364087266666e-01,1.000236967122846016e-01,5.610855161953519354e-02,8.707604840431393267e-02,1.366698285765138854e-01,1.772549724440554975e-01,1.253898109459327948e-01,1.791393432149758101e-03,-2.347352856690415254e-02,8.634213156560083258e-02,-3.271893991663644974e-02,-3.634364909730242871e-02,-4.871070267043983194e-03,-3.498520275686129583e-02,-4.137894152766818240e-02,-3.726280967238861791e-02,-9.513528740764073954e-02,-5.378430338837594110e-02,-7.036943199656414683e-02,-8.321717183644945781e-03,9.002527293224845198e-03,-2.880613668916775713e-02,-3.752730195059676699e-02,-1.981611146644718380e-02,7.393236146140707253e-03,3.454557028986778022e-02,1.268193056828979537e-01,5.345932582004270239e-02,1.161542152431889602e-01,8.082523901730589988e-02,1.608907957636536712e-01,1.655529622858710470e-01,1.688696785175832493e-01,1.225270329985614914e-01,9.201504917842530384e-02,1.375741473083684496e-01,5.494997314092261997e-02,9.039013306456306074e-02,1.199955776793529827e-01,1.226485287127753454e-01,7.083256785868104199e-02,5.925290488151131740e-02,6.788520470563413900e-02,2.533016638663872916e-02,-1.325416222747169137e-01,-4.708023721775081438e-02,-2.875081458813434285e-02,2.243979888313970758e-02,-2.769027468818667861e-02,8.591921115246510879e-03,-5.558627179894748416e-03,-1.992145447882011020e-02,2.715891161760725786e-02,2.718245496842631309e-02,8.278996107084103662e-02,1.061503295118700479e-01,8.702439067935638373e-02,1.282246629802013815e-01,1.717705393596085095e-01,9.650130337877708964e-02,1.775973046507822450e-01,1.283272253950663022e-01,2.105186668875526357e-01,8.717634025964096645e-02,8.437404180902263739e-02,1.425135909772316245e-01,1.012776576903028081e-01,1.327050894747513754e-01,1.497322463828699990e-01,1.038487961244358160e-01,3.476110083474812096e-02,6.232092927098372738e-03,2.927946324624232724e-02,-2.493312437075603794e-02,7.170911397209318860e-02,1.020782060113539953e-02,-3.995782021513225729e-02,2.450879526173239606e-02,-5.259085293677668443e-02,-1.373023502655574407e-02,-3.743659301374297789e-03,4.633103306397474974e-02,8.336030879186187570e-02,8.311113456990674997e-02,4.590813176427656350e-02,7.359254562070963179e-02,9.465537498886872347e-02,1.300325143146836282e-01,1.075396663588087803e-01,7.821660744684741373e-02,1.033899970256449974e-01,1.508005322686627458e-01,1.433977810333514902e-01,1.363057876707566007e-01,9.869582345163085968e-02,1.371665334994213170e-01,8.902629888129495739e-02,1.170870960598643096e-01,1.686399575790033592e-02,-1.939059187149227634e-02,7.263134079950228270e-05,-2.225297447316952962e-02,-4.513944937851907535e-02,8.569411387932475074e-03,7.536087170405608715e-02,2.514165082418089170e-02,7.564871754718944380e-03,4.242213533209569787e-02,-2.311729374311886562e-02,1.906838752134162179e-02,4.270003996259635198e-02,2.699063350232295405e-02,7.746066152687997031e-02,-2.962762353577251193e-02,1.896746500138880853e-02,7.363510187894865833e-02,3.607569019106181968e-02,7.800501287461839017e-02,7.789785351207116626e-02,1.418818917458312678e-01,1.046659999233324895e-01,1.488849310391961167e-01,1.324472950547400385e-01,5.955575110672733236e-02,7.603132257080686025e-03,-6.024867639977508210e-02,-6.253003495196392605e-03,1.389511098513705571e-02,-2.320648819807437022e-02,-6.379554749524219553e-03,-2.654241955166620689e-02,-5.300512658773090177e-03,2.375496541558484373e-02,-5.653850275388976748e-02,1.862629921529113455e-02,-5.473494710242719774e-02,-1.956234871999890795e-02,5.250457072280939608e-02,1.624502914715712787e-02,4.112429397954376481e-02,-2.197010713027065798e-02,-1.077283658127747498e-02,6.944645906359095400e-02,-8.234482375447124691e-02,5.426119737401908713e-03,-5.921363867725319002e-02,2.239508392696388378e-02,-2.060574201191407717e-02,-3.377784929468074376e-02,3.958769085305997165e-02,-3.884706668299178073e-02,-3.597241089234089889e-02,1.028950791052378325e-04,-3.367294479129267354e-02,1.519201274596811840e-02,6.443555663713512738e-02,5.486597245541311417e-03,3.316937972169308607e-02,-8.954287120293008204e-03,-2.549195356463330314e-02,-3.030269000681256805e-02,-1.640629944297365131e-03,3.366385300309627376e-02,-4.580259115907972522e-02,-4.550233814581165423e-03,-8.971855266286386105e-03,-3.173799995151331543e-02,-2.784969227632858729e-02,2.512070017464973493e-02,5.536897246298880942e-02,7.290899865015577387e-03,-3.029766925555246737e-02,-2.569664944606195062e-03,1.213661471357826462e-02,1.603556834406092910e-02,-1.515723447538558540e-02,-2.433720020246796581e-02,-2.014349490983515650e-02,9.390982601200235924e-02,4.322504615143257789e-02,-5.378206500499568832e-02,-5.502613759640949398e-02,-3.285662651983401600e-02,1.754504261259432971e-02,-2.627950495956433638e-02,1.809063354708231527e-02,1.742477959393161704e-02,-2.862661044917956532e-02,-1.257079919823042395e-02,5.024349410190632331e-03,4.730816745065358903e-02,-2.433955321525532040e-02,-8.095417057008541528e-02,7.752953009913646221e-03,-4.161587747235340196e-02,2.839896679554246295e-02,-3.872230422925398985e-02,2.716793951470684865e-02,-2.046873048989643340e-02,2.676952389977368604e-02,-1.754468418342572736e-02,1.391204020909714463e-02,1.346429195570612684e-02,5.658465495549290514e-02,2.454657831083429526e-02,-2.054241898492309079e-02,4.720597085231757750e-02,-1.891624822442670648e-02,2.658885524411260231e-03,-6.469715103065291125e-04,-6.202065536410359542e-02,4.165103805773673340e-03,3.568725346461491463e-03,3.666469790170182041e-02,5.230869134038881180e-02,2.999859888556518847e-02,-2.618150189759251012e-02,6.230104212630840910e-02,-3.187979328824145503e-02,-5.999394421152094009e-02,6.826667177430867373e-02,-3.708107790091700467e-02,-2.051836235300917577e-02,5.018414491183128406e-02,9.675443973756986393e-02,1.924334385482447379e-03,5.210453798473634046e-02,7.107582776577089922e-02,3.306050471929370543e-02,2.192521816467766366e-02,2.863517033792137637e-02,3.495603699216174448e-02,3.098555832254630896e-02,-1.339769361747147631e-03,-1.168767003367836635e-02,-8.396622754610585243e-03,-3.361467706510726933e-02,5.191919046249341557e-02,2.324573427218612140e-02,4.751563366264491273e-03,9.202043612602273407e-04,2.269501814924770183e-02,2.605038158270649509e-02,4.181092142675417456e-02,3.304420234796963396e-02,1.604751998693698320e-02,-7.858903353198656502e-03,6.090446957446661591e-02,4.432944839856355068e-02,-9.869190644636456969e-03,2.663039934534451592e-02,4.148720380900569604e-02,7.269769674489708587e-03,2.958004553324604380e-02,5.905591465679257968e-02,-2.411167726657770238e-02,4.291084680357777625e-02,7.034961953172291782e-02,7.373708965505291186e-06,-7.749806561358024704e-02,-9.676866011314599891e-02,-2.892182339439341998e-02,-1.085668785933745044e-02,6.529482908542788393e-03,5.374477631167060010e-02,3.093212553431042011e-02,4.340695900621677206e-02,5.046641931623616073e-02,1.353577451456708944e-03,-4.843032613389287866e-02,1.733448092249026407e-02,2.689463419473819839e-02,7.922272497854647433e-02,1.878756946724411542e-02,-4.052305177915428713e-02,2.851722774733365245e-02,3.901741990719431643e-03,5.602486032615745792e-02,4.522394246021582687e-02,4.244679985288592194e-02,3.909328898835606747e-02,6.355300123387923501e-03,4.962585704313403345e-02,1.625191215829475955e-02,4.857282309256929186e-03,-2.238855870971176096e-02,5.559538558853719531e-02,-2.999623039196788743e-02,2.417255734323644351e-02,5.636742528013895248e-02,4.576719821807804373e-02,4.280475860608382033e-02,-3.462234729137314559e-02,1.258304206148673499e-02,4.853279477604486442e-02,7.183132793713609653e-03,-2.565492108159880130e-02,-6.831848135854785842e-02,-4.694106760303199712e-03,4.182014382194883251e-02,4.659859194645231406e-02,6.646693114058309371e-02,1.076539289631680135e-01,-3.926609337018873054e-03,2.211642351468181417e-02,1.841357996804715222e-03,1.792154754142013390e-02,4.614342838211218240e-02,4.544783757545233296e-03,-1.798538433137359662e-03,5.435472721024311310e-02,1.370135801329373099e-02,-2.669633884523224879e-02,-3.753375135826545611e-02,9.580434954058083055e-03,-1.392517594440257885e-03,-5.323533063202192522e-02,6.280184374098451289e-03,-2.040011660056053472e-02,-3.612681968522694909e-02,-4.778517665134821707e-02,-2.957657500644455748e-02,2.163074346912721366e-02,2.214118422539991873e-02,1.751300250289148860e-02,5.501006046284633716e-02,1.682391292289708807e-03,-1.088713576893738343e-02,6.819413972500790178e-02,4.600228690913681084e-02,9.231535193395990976e-03,-4.708031286563224560e-02,-2.643625973336597226e-02,2.811835465257011765e-02,5.201592455645093205e-02,-2.432290445133562969e-03,3.300648760070826193e-02,-3.914004921486896604e-02,-1.300963400172535367e-01,-1.856102940816994618e-01,-2.678011676684539100e-01,-1.603973484734782518e-01,-1.416343491941580435e-01,-1.213848548051082998e-01,5.742367361885549609e-02,6.450198908556434296e-02,1.005368317302617609e-01,-1.288229174192200488e-03,4.477781848861021527e-03,-2.701197449273730344e-02,-3.771928430404047905e-02,-1.289287269859595159e-02,-1.904482333397749041e-02,-6.796280096677875804e-02,3.328382293153725469e-02,-4.195892941742857679e-02,1.462283464136942580e-02,9.628994551606434235e-03,6.104884671596216839e-02,-1.139667768321528905e-02,1.194669992403981328e-02,-2.995672589014618248e-02,9.024340195897551098e-02,-5.787233490626034725e-03,1.329617998263695963e-02,-9.893559859087371067e-02,-2.842898107569123978e-01,-2.374657995201213401e-01,-9.340041619240571635e-02,-4.361198825440949084e-02,2.457868263083332894e-01,3.821452105848351932e-01,4.965336602637734353e-01,4.275636719786810036e-01,3.858274796002021390e-01,1.795657937326989584e-01,6.859930539809283578e-02,8.306754174796739110e-02,8.382678130035661757e-02,3.913668249335094246e-02,4.406876315768324531e-02,3.639410297305856884e-02,4.793277491290673376e-02,-2.247129560674131915e-02,4.133619387268373108e-02,5.048539939148512755e-03,1.171373823761348403e-02,1.732747300601201459e-03,-8.500501963324781640e-02,-2.437283893572606691e-02,8.463199534689931636e-02,-2.578218644048248590e-02,5.184049762988884869e-02,-1.125798901473544777e-01,-1.238238666953623973e-01,-4.716468606562741056e-02,1.185954710833428266e-01,2.883130161973275762e-01,3.746807357996340127e-01,4.493679483591451196e-01,5.222436441976615606e-01,4.287192181159312221e-01,3.113347526694133505e-01,1.825920882294245762e-01,1.332462060789252889e-01,9.458641333872867818e-02,9.357465486597485449e-02,9.207278201736961154e-02,9.133666364641181146e-02,1.454925914816312116e-01,8.721222646491401387e-02,-8.585210019150623165e-03,1.832921680343287119e-02,6.076372072727475454e-02,-1.940205178024118071e-02,1.313992807282500551e-03,4.055515326132589499e-02,1.008547655668105003e-01,7.208805089675204836e-02,9.019233603593912463e-02,4.105790311207656307e-02,2.298836793873865192e-02,-6.779701283769444531e-02,-6.854668139028452511e-02,7.489824403472465641e-02,9.916062209931442162e-02,1.129220862546833071e-01,2.696225869432914979e-01,2.802093622406214291e-01,3.797184295485245276e-01,2.882801053826244964e-01,1.704674233323246191e-01,3.043328306061339819e-02,2.146658494104135284e-02,2.081927089792185714e-01,1.319082996996600865e-01,1.811611342441914740e-01,2.687771291715330135e-01,2.544242960466162606e-01,1.149586411298407218e-01,4.010631941795623351e-02,3.927516666941727186e-02,-2.425589452304879184e-02,1.658937808280441795e-02,-1.794225581792548152e-02,1.250557881201897203e-01,7.907988374969107670e-02,1.030103718290375087e-01,7.839806485409311909e-02,-6.479541785973240431e-02,-1.315976228668394310e-01,-2.523345962452185759e-02,1.028773658739920299e-01,-3.640367386620421697e-03,2.222442016727130959e-02,7.261416289212979658e-02,3.099030923389178849e-01,3.570353802844772328e-01,1.634217301564374059e-01,7.265190373678749591e-02,-8.233001617924147475e-02,-4.693460939730027814e-02,1.039561408676395321e-01,2.149347304236316203e-01,2.425086111117375209e-01,3.166723727818854250e-01,2.807118303817268679e-01,9.868588598807422063e-02,-6.203903913328648149e-03,1.618786406884561990e-02,-3.457832109768781137e-02,6.042162350726686636e-03,-2.391711925125429919e-02,9.853284541285753373e-02,4.641019135875570911e-02,7.401760833293857811e-02,6.483970105780541282e-02,-3.051445736140264570e-02,-3.062293784158897844e-02,4.427690338437740430e-02,2.003167705212131888e-01,2.214925495199235872e-01,1.247572395751656849e-01,3.221439644297803273e-01,4.637746071882735133e-01,4.068949635148109700e-01,1.896938059856250192e-01,-1.319635220457124163e-02,-1.914065719572612956e-01,-1.770668989454782793e-01,-3.810371676544165032e-02,2.546178667500715864e-01,2.534413127149612310e-01,1.356489231189882960e-01,9.286774242226998599e-02,-1.865967980958958827e-02,7.641694571964219133e-03,7.788245379384704792e-02,-4.669306818850845441e-03,5.378852411736687739e-02,2.702738470772119220e-02,7.870778936364583589e-02,1.327536841252184227e-02,1.158593329307138209e-01,1.228224361632412054e-01,1.782528072233733607e-01,1.698746913251907575e-01,1.492848165943274075e-01,1.182613733522119986e-01,6.650500109503074131e-02,2.163522878036879538e-01,4.338903317260190962e-01,6.442991261222608124e-01,6.356266277949225163e-01,3.919905474267246781e-01,1.868320966415775997e-01,1.003517233159309241e-01,4.731892020023674428e-02,9.766113165226020243e-02,1.352751687894140353e-01,-6.974615382560035715e-02,-2.159465755334436798e-01,-2.526666361736308319e-01,3.557889162417241652e-02,7.882970775118888773e-02,4.828007082644993064e-02,-2.849864032896218258e-02,5.697818149720913772e-02,-1.721401005337613518e-02,-4.682857597239221958e-02,-1.999752317551105676e-02,6.720287242188144328e-02,2.994258226093070019e-01,3.403193099470545602e-01,2.835594604888081460e-01,1.937936191251088403e-01,1.095043636476129012e-01,6.329475766718344054e-02,2.683025794312811629e-01,3.884823598851025461e-01,6.856399860093523868e-01,7.544424636031930032e-01,7.840786845373962644e-01,6.379457128092835827e-01,6.065137620198542967e-01,5.043567378455244832e-01,2.974382020595722209e-01,-5.464812861195739863e-02,-4.071462703545514761e-01,-5.801792833195839050e-01,-5.025240823274090829e-01,1.130533101571526769e-02,3.364040069106153958e-03,4.343307730247103482e-02,-4.785875080462453912e-02,-4.345532977690640293e-03,3.054575187950951676e-02,-6.629683902244128124e-02,8.425786842978633118e-02,8.428963770283900980e-02,1.996792364069103765e-01,2.775928496064245521e-01,2.297978480728961048e-01,1.048722449089226766e-01,-7.734534122861919103e-02,1.521001555976067392e-02,1.381900696438612686e-01,1.673999711966789594e-01,4.352147659976331462e-01,8.752165428922000778e-01,1.048162277620670935e+00,9.929730387021931115e-01,5.422112176657564175e-01,2.748448131578373754e-01,4.970294612127852674e-02,-3.209293390490488007e-01,-4.876071436810592852e-01,-5.528570643369585813e-01,-5.146984290978698917e-01,-1.030877834588417724e-01,-1.156437218871492201e-02,3.162067667418760625e-03,-1.719033011646661736e-03,-3.183308331188422491e-02,-2.354671652233009810e-02,-7.552021313417964232e-02,4.503675305575303295e-02,2.141928265238669526e-01,1.969048697406384496e-01,1.938152442869261471e-01,1.176010425639266721e-01,2.590204626053786360e-02,-8.254617656525999048e-03,8.348000136804013815e-03,5.717223088103812190e-02,-1.338219162096181969e-01,1.809202176130771944e-01,6.674203142992836124e-01,7.984048153379931234e-01,3.608828096703902699e-01,-6.567920990134880344e-02,-3.422244403793170409e-01,-3.208133744393543152e-01,-4.157736194507913319e-01,-3.541471569382219076e-01,-2.527985170630832612e-01,-2.964918254426843758e-01,-2.504116045811917782e-02,-5.338285853940952924e-02,2.195109311207224263e-03,1.391069749496289670e-02,1.914642331760209315e-02,1.210243919060473641e-02,6.922085158703283891e-02,2.206134775426433492e-01,2.037488320656015151e-01,8.583947478285183785e-02,4.825652118110559247e-02,-6.570806295657845297e-02,-4.840382225584541342e-02,1.633857651430934560e-02,-5.089128575922161751e-02,-8.031858301716160442e-02,-2.538524393284236069e-01,-3.338829422352553034e-02,4.140980654769096381e-01,2.090876961253514132e-01,-4.487327023607625698e-01,-6.127519257990660106e-01,-4.728658290046381940e-01,-3.787902365757159773e-01,-3.592587876779608780e-01,-2.296140791130974190e-01,3.424731193612311209e-02,-1.347781159776633708e-01,3.078006546728579568e-02,5.564149637589351632e-02,-7.803796778646638482e-03,-3.937276459069391846e-03,1.029543908195564711e-02,-2.238171376687791286e-02,-2.942677730108551534e-02,2.313864728510386382e-01,2.514838248976542512e-01,8.957441545445610220e-02,-3.214730082225977087e-02,-1.870944058481180741e-02,-6.331162431498804644e-02,1.736195785080217255e-02,-9.870637138747084816e-02,-5.643742911217266428e-02,-4.896120424726589085e-04,9.361642487551218028e-02,8.044388788052411754e-02,-1.614792380740031064e-01,-4.890540014694361726e-01,-5.008443484424648373e-01,-3.617425212737445661e-01,-2.708654527875017926e-01,-1.892348553017883239e-01,8.046568359953802652e-02,3.515819728429195878e-01,1.905914931229042361e-02,1.006813176721391284e-01,-1.607407659044686812e-02,2.545714986893491891e-02,4.177724860332934081e-02,-2.813897795461374474e-02,-1.604275542615593922e-02,-3.356686141604368206e-02,1.665475460331418411e-01,1.929477350771669764e-01,1.301078765273100679e-01,9.473979840214621917e-02,9.852369144438576087e-02,-3.335485697039702879e-02,4.115103689144935942e-04,-1.110033293357409467e-01,-9.154564967538619119e-03,2.020890503370204039e-02,-3.472161636031965981e-02,-3.252519813152564554e-01,-3.959577508690969028e-01,-3.579854068737616801e-01,-3.076666600503029647e-01,-1.676151594620172713e-01,-6.768235222024145126e-02,7.213344846351188444e-02,3.591142925902130467e-01,3.951152276679412156e-01,2.100198302825308921e-02,-2.581043849737679058e-02,-1.948175162397981081e-02,1.841780549074435031e-02,1.076037891019759052e-01,-5.411490177281977343e-02,-1.743960629227330958e-02,-1.539114994698895234e-01,9.730057828416621701e-02,1.320972389310531014e-01,6.203091851721984767e-02,8.339794304055785090e-02,1.290578855805176173e-01,7.971287116727658606e-02,-1.059404461836566252e-01,-1.936670950149112225e-01,-3.777501471295404700e-01,-5.361359523998625587e-01,-5.648597679407472150e-01,-5.268331670212512696e-01,-4.482595377998012109e-01,-1.246802490921230799e-01,1.252893855176527294e-01,1.949873846306778569e-01,3.701120755256542827e-01,3.912309012047262002e-01,3.919518922413721129e-01,2.512850955436765066e-01,-5.221127309277256989e-02,-4.070187288210546511e-02,-1.160021472685789923e-01,1.603487535459677260e-02,4.380414113148382166e-02,-5.219112416269310398e-03,-2.076529988720753409e-02,-2.666112731188163276e-01,-7.576832378900645593e-02,1.382967771841425025e-02,-8.317742945209717631e-02,-1.501056471337757214e-01,1.209412524671265310e-01,1.082630229433292068e-01,-2.801354079317941448e-02,-2.861396351613447187e-01,-4.232439795648693659e-01,-3.727630110935230001e-01,-3.058312230442358781e-01,-1.146371684592401713e-01,8.075219708948797037e-02,3.862680143867739946e-01,2.779548110936981287e-01,2.883976458956966082e-01,2.232639435514469084e-01,2.417352859158825862e-01,1.869160413241245933e-01,1.421546462704942337e-01,1.438989327685848401e-03,-2.663199492356643078e-03,-8.643710876157029502e-03,2.147715585460967106e-04,1.118574259238843197e-02,2.995549828925426344e-02,-1.122361915087184085e-03,-2.804819812721454642e-01,-7.273425349952104824e-02,7.349222509608124843e-02,-4.072626900354594029e-03,-1.395542819160076053e-01,-4.183313830675551570e-02,1.306461304789280076e-01,7.717007283942979579e-02,-1.730995291402956104e-01,-1.594995827307408021e-01,-1.724701310380047370e-02,9.567056003892143723e-02,2.105592751904926674e-01,2.864616419968474270e-01,2.551896886947169207e-01,1.014674655678959869e-01,8.244641362701216059e-02,-4.369729885141421938e-02,1.142381854204584969e-02,4.935944517386420261e-02,5.331176436534997010e-02,-5.569929496056871820e-02,-3.031080022626761808e-02,-1.488778378763087017e-02,1.676954366442465205e-02,4.291242730926068949e-02,4.893495442814228824e-02,-1.123172996875694031e-02,-2.633064493869235467e-01,-2.258023216043832937e-01,3.762523340676317274e-02,8.426522019259966023e-02,-4.749779101531428904e-02,-3.453830478275522059e-02,6.468596341865009980e-02,6.049423317672000117e-02,1.188755837201966731e-01,6.987289969207609308e-02,7.637541049074920985e-02,3.940868153939093566e-02,-3.500563389703010425e-02,-1.554573404129420133e-01,-1.552989128697628840e-01,-1.709916217322646759e-01,-9.593193431073890332e-02,-1.302796580789294112e-01,-1.495010395907768741e-01,-2.927758374469845506e-02,2.059675040389943954e-03,-1.734124816107269346e-02,1.252959865171690730e-02,-4.755069556742749781e-02,-2.685846278106766849e-02,1.102682701721433428e-01,6.440095906391871995e-03,-4.580153458837966929e-02,-1.993767510895417538e-01,-2.250371690401504754e-01,-7.952517729039763894e-02,9.291706042808069166e-02,-5.697509117780031468e-02,-2.913246966041192765e-02,-2.287703688813794156e-02,7.564357963820631664e-03,7.073304688211125291e-02,1.191766787559427748e-01,4.911512931885472777e-02,-3.928714360360890251e-02,-2.211772739969797841e-01,-2.482832392496906182e-01,-1.173189654674609700e-01,-1.318655142502555000e-01,-1.596006351361433928e-01,-9.263729618117416686e-02,-1.219660513381698175e-01,-1.424610580955405215e-01,-5.601177654909329090e-02,-1.591632642795950958e-02,-8.981682648386750054e-03,-1.581787340320162756e-03,3.807605156931836987e-02,-3.353861272617228440e-02,-7.516955842444472333e-04,7.723576703371155816e-02,-1.029665302473272842e-01,-2.724201779250193245e-01,-1.733739580882047715e-01,-1.072688668353873331e-01,-9.803227089450675114e-02,-3.121588113832338141e-02,-1.079742433717609668e-01,5.354698055496692061e-02,5.352603513843745553e-02,1.410140651817267110e-01,8.911835912438073604e-02,2.108859998468746305e-02,-6.012301621639055266e-02,-1.325719618555500079e-01,-1.331020258036270110e-01,-1.112655112785463224e-01,-1.662654725723033411e-01,-1.372241599171558635e-01,-1.269487475901782403e-01,-7.510299486221010123e-02,-1.585899820739826785e-02,6.604692199122781313e-03,-2.426097582401563063e-02,-1.998555675498434048e-02,4.643250461112800875e-02,9.482742290670015395e-02,2.861850841956660625e-03,1.224803153956783436e-02,-8.363834345208236154e-02,-1.792379620243800542e-01,-1.507868806458430022e-01,-1.706500384810257509e-01,-8.379646041235971898e-02,-9.773063596599190772e-02,-2.380619094600508120e-02,2.439521481359548105e-02,1.033841441307074560e-01,1.017778455139015381e-01,7.707161819673041814e-02,-1.389829103317859194e-02,-5.519920576501382431e-02,-1.484996229776054943e-01,-1.074625627244835679e-01,-2.391231191225370034e-01,-1.202998222541216272e-01,-1.334115092926739243e-01,-2.604819646230885355e-01,-1.483538476118359262e-01,-3.378056362455393591e-02,2.283999053518991854e-03,-4.346641329795992992e-02,-3.854954294241588753e-02,3.338861069127151138e-02,6.407690002862657941e-02,2.773050447410152497e-02,-1.994682045248623997e-02,3.381527426948298821e-03,-5.273352460839109135e-02,-6.057171377838791587e-02,-5.265202979213871176e-02,-1.626764935002184345e-02,-5.129371092184575182e-02,5.811096692394751573e-02,5.341252731500673034e-02,1.971129553420232772e-01,1.164257440542784128e-01,5.159093954896079581e-02,5.231714256130282070e-02,-1.458368566955933754e-01,-1.569062469322637932e-01,-1.519675349852633861e-01,-2.178083166623083766e-01,-2.633912764383610217e-01,-2.020330407286148044e-01,-1.593698787832512620e-01,-1.224089114824690738e-01,-6.013701848855988741e-03,-2.912059954796140937e-02,-1.737038358806618221e-02,-1.766079972723224450e-02,-2.545916845509695048e-02,5.542831425988678506e-02,4.735988120864063206e-02,1.444147474047263388e-02,6.617967087824797034e-02,-3.656601760021530034e-02,-3.788476897246187414e-02,-9.637589092101689348e-02,-1.168138119350118076e-01,-5.744133359098459873e-02,5.642520513793379544e-02,1.627227971857409250e-01,2.791033080056503080e-01,2.264425527028318119e-01,1.044799686419217305e-01,-4.081589157090004250e-02,-1.677376079925013974e-01,-1.090425297626831103e-01,-1.909061515423280952e-01,-1.788313843207276765e-01,-1.449924974914476583e-01,-1.940546074255183051e-01,-8.666514545450283713e-02,-8.274430479167527164e-02,6.610636313839367284e-02,9.106287925642131409e-02,1.719023413310051844e-03,-5.625086554808663049e-03,-5.165893292008791327e-02,8.238173901481561645e-02,1.964181384195394162e-02,3.148490202490631523e-02,6.547390835994815195e-02,-3.461627063752072131e-02,-1.523585893054804109e-02,-6.736330836578073578e-02,2.933352206784214586e-02,-8.123513405126120412e-02,-5.999362329390690862e-02,-5.016452408789433097e-03,1.493027501407040783e-02,-3.057039940056223946e-03,2.733040724822537529e-02,2.374281346217780794e-02,9.948073157517318618e-03,3.521220432694359415e-02,-1.738128225530455664e-02,4.589696470707123332e-02,1.391220718490747237e-02,-3.346424490249019085e-02,2.248008304438352603e-02,-4.184877182805888524e-02,7.897115627689335615e-02,-6.860614903937936604e-02,2.242700983734732811e-02,-1.431399079613567861e-02,1.737758595973605547e-02,3.449853910649434974e-02,5.257563602711397971e-02,-6.856570062137129495e-02,-6.422307081999892482e-03,1.643969664177914042e-02,-1.851016682088263291e-03,-3.759543353978329026e-03,-8.870770201385979117e-03,-1.895960782434274322e-02,-6.771872484595923246e-03,9.020820679911558185e-03,2.621009792120410076e-02,-6.526071000766182906e-02,-5.698410199606990245e-02,-3.593105355554720298e-02,-4.891552743341133838e-03,-4.816109336157613913e-02,8.743195112431916688e-03,-9.458060617974274956e-03,3.229450503063068662e-02,4.348569878043759968e-02,-9.931091579892669871e-03,1.264025238383264908e-02,4.974163937481004827e-02,4.453764919558998725e-02,6.640946199453134913e-02,1.029977496126812803e-01,5.720334005458595217e-02,3.676887595460157088e-02,6.772308212521128967e-02,1.079847179556435357e-03,-1.064119424469326183e-02,-1.888650008705542241e-02,-1.924439165101464455e-02,-1.246921470895587768e-02,-1.696109666774979138e-02,2.517748239912780475e-02,-9.263446918698946611e-03,-5.000546658408337210e-03,2.831292118144784070e-02,-3.025136195210230416e-02,-7.716135838510444767e-02,4.396567649393750415e-02,5.186747691838859003e-02,7.697096655452841801e-03,4.864912270847133319e-02,3.950471248984518957e-02,-6.917510734033793796e-02,2.618501953115513758e-02,-6.411923143021850367e-03,1.118690022024850829e-02,9.104831301251635478e-02,5.298258538273022122e-02,4.526850764218869061e-02,9.148208538904024911e-02,-2.655802111829717177e-02,2.378003808456517505e-03,4.184804170512426702e-02,5.939401561578661753e-02,-2.433843459816222715e-02,2.339096483400302136e-03,-8.214268675912005449e-03,-2.066074213667996873e-02,-2.028279168011361266e-02,2.085144198733237392e-02,7.222037296413001684e-02,-1.244490124385038386e-02,-1.169535232855156530e-02,3.220044869745895821e-02,-2.394222729623716149e-03,-7.774199075594652800e-03,2.625203416393658354e-02,-1.211624133830353084e-02,2.580738939725974943e-02,-1.169783225089659345e-02,3.298733314086693680e-02,4.438343319678594336e-03,1.980586227996234197e-02,5.956163899930310389e-03,6.462621707712666586e-02,1.933649443877978255e-02,3.743170156081869742e-03,-8.222667558543015134e-03,-2.011068598637071048e-02,1.753706000687077493e-02,2.581040344340043702e-02,-3.160075155487288880e-03,2.368098690209476803e-02,1.432244305102457933e-02,1.367526246882878362e-02,-3.841983368253721470e-02,3.740604317318477201e-02,-1.793445660913222869e-02,4.302146799045570430e-02,-6.304853399670372338e-02,9.887623124814058639e-02,2.057979667926113088e-02,4.467618875417884994e-02,-1.267772266093037010e-02,3.175243766142024637e-02,2.164787246306054333e-02,-4.148543113957479933e-02,1.687272931962282771e-02,-1.980529564722485758e-02,4.972614008993681001e-03,1.855977122539581928e-02,1.947221539991941114e-02,-3.082804461064038784e-02,1.853320131727235684e-02,-8.662249089193861662e-02,1.060096964228764323e-02,-7.190616341799985602e-04,-2.813357241429079864e-02,-5.300206008274879060e-02,-4.353932504661651298e-02,6.805865445412529260e-03,-6.668555957062029249e-02,9.742230199467914742e-02,-3.884654627548858596e-02,3.042472449997586648e-02,6.780631245385779216e-02,-1.722028526591102768e-02,-8.120939428039633881e-03,7.029599350410404776e-03,3.287543359652368713e-02,1.887916142090220045e-02,2.381851431804682655e-03,-3.766684390320214348e-02,2.466310275326678847e-02,3.449041524478296122e-02,2.395410667043398976e-03,-1.748873336811027426e-02,-4.357416003354890391e-03,-1.903758279493437261e-02,-2.412811772732881624e-02,2.181152564357951087e-02,7.337858687340186557e-03,9.242095026253661222e-03,7.305730947938230378e-03,3.071430380255831330e-02,-2.075942041224540860e-02,2.190274869414749262e-02,-2.241536723372844833e-02,2.976268194693905064e-02,-4.519181873229202034e-02,3.180234898228668367e-02,4.171961207710499914e-02,-5.342501402216493639e-02,5.669401931893951196e-02,-2.753158105146423160e-02,5.794065303847784759e-03,-3.985036652990466000e-02,-5.472275923106187379e-03,-4.046449908850435588e-03,-7.213024720634315934e-02,-6.552330748168455621e-02,9.628162116759002645e-03,2.644411937871561993e-02,-4.010832566292799051e-02,5.024480439459687309e-02,-3.482287922675777504e-03,7.129430288931639867e-03,-5.886511696984320606e-03,-1.611724463270609170e-02,4.168289842786596089e-03,7.432549573592243941e-02,-2.370767795824085464e-02,-4.001838056507522889e-02,-4.451412765503857949e-02,3.824680638364530427e-02,3.512821772363596690e-02,-3.319495419064093233e-02,1.249425390759193177e-01,-6.153459169881051079e-03,2.127940863673578528e-02,2.289554685033711595e-02,-1.551875014187143256e-02,-1.982942339079071109e-02,-2.264496836505992469e-02,-1.222057451438940401e-02,5.693522159488570433e-02,-1.202598624701450977e-03,-6.343476204602861712e-02,-2.935294204324640985e-02,-1.174203019672770583e-02,-5.033775108350101992e-04,-5.409772825404935565e-02,-4.377590041728901538e-02,5.170056218598732996e-03,-3.099516350796941225e-02,6.511038351183709091e-03,4.028436591325216393e-02,-2.217836589535739783e-02,-9.404384352161873628e-02,1.288080422267250287e-02,6.395077884671006296e-02,-2.446163892173142465e-02,2.319487906483768975e-03,-5.327257115618862920e-02,6.202446028623846697e-02,4.120722679287641688e-02,2.021053606759800128e-02,-5.248039567619211532e-02,-1.544214715985756103e-02,-5.510971470280220941e-02,4.223879955799077733e-03,-5.088399587474357749e-02,-2.054799337713393917e-02,-4.764569583057538804e-02,-1.787825169539318179e-02,-2.458968076223729329e-02,-3.438279575222634443e-02,1.885388919859063220e-02,-3.230507046146031264e-02,1.142216497462628794e-02,-2.163839970780940397e-02,5.573888853331591953e-03,5.596934473227124091e-02,5.274468240618711973e-02,3.147608570337751942e-03,4.670953512851544476e-02,1.254896676550791221e-02,-3.633356411572919581e-02,-6.007913082515571601e-02,3.109963021979933462e-02,-6.121357513836015417e-03,6.643917116531400380e-02,-2.186556363956089835e-02,-1.508230054596920201e-02,3.940828191248619411e-02,1.015024729213455379e-02,4.783461700121804244e-02,-9.114736623572233798e-03,-2.600337958248964340e-02,3.524588094244720908e-03,-6.728670207600696840e-02,-5.101170709446269796e-02,-3.693590577230260880e-02,-6.700914738497654177e-02,-4.293663066419039359e-02,-2.376167696319066505e-02,-7.075115961861271063e-02,-4.683653466200218135e-02,-4.579245155908649029e-02,-1.068160711167480664e-03,1.520700502292165329e-02,2.387802135761458305e-02,3.516502770850949561e-02,2.353697963261621243e-02,4.078553198772413846e-02,7.647370089479872679e-02,-1.173608721681065718e-02,-1.554626047782750251e-02,-7.779508722330084934e-04,-6.995876956256375998e-03,5.079859324984941499e-02,9.227306683123964737e-03,-3.972228547459571448e-04,-3.322416702812459877e-02,9.477325413044874330e-03,3.186750079851347062e-02,-5.730889416093525729e-02,-8.323970248554654616e-02,-3.121072184546543060e-02,-5.306247747343141585e-02,-7.976144322654876717e-02,-1.367886103259905578e-04,-4.573653515864961605e-02,-5.181713687140346997e-02,-6.019208813162612443e-02,-5.385398489576884856e-02,-3.329963802723796135e-02,4.273584873663411991e-03,6.940321402260706679e-03,-4.336643376317707299e-02,8.318936193451163807e-03,-3.181131107847664369e-02,-1.815900879889665448e-02,4.036626137048562879e-02,1.387533828749222369e-02,7.636725300664989023e-03,-4.958779152821187614e-02,-2.046068877333129168e-03,3.473475664071551394e-02,2.515375083199335171e-02,-9.399287672533946161e-03,-7.196173427206126183e-02,-3.264632649095568911e-02,-1.836422798836571599e-02,-7.601006128617181223e-02,-3.588195079623389405e-02,-1.033912907208497101e-01,-3.923934419211636687e-02,-3.568542203223409176e-02,-6.987417246054249131e-02,-4.973745788203797619e-02,-1.120331421973263901e-02,-1.393382577444301704e-02,-4.179971643343011883e-02,-5.383914410202331365e-03,-8.631160237911153499e-02,7.130228172476998569e-03,1.586716530501501229e-02,1.107360518706507896e-02,-4.873071493081092102e-03,-5.343930657443302784e-02,-7.246380100901390724e-03,1.078798481773956403e-01,-1.122865920650175514e-02,-4.594499823746836520e-02,1.854631118554984567e-02,1.537327110846070481e-02,-5.003528035061256124e-02,1.138708778741464971e-02,-3.334664360168414221e-02,1.437058303649290346e-03,-4.498874086244930570e-02,-4.016734742846001655e-02,-4.796852181813381077e-02,-2.156739191514692525e-02,-1.424298929172900831e-02,5.191508101954483284e-02,-2.131700157598431528e-03,8.929129655518752706e-02,8.643949802621909984e-02,4.452738540825353173e-05,-2.932536042791832748e-02,-3.918989543926985897e-02,-2.595076651088983055e-02,4.718073623218993484e-03,-5.630881179049851415e-02,3.754853338930437805e-03,5.037634308710618042e-02,3.349260623768626766e-02,1.355686232132605716e-02,2.476884787434483447e-03,-8.140251491445035098e-03,-2.610686651427781071e-02,-2.010551178964988320e-02,1.542188989905171441e-02,-1.915025601775087807e-02,1.312767584755903522e-02,7.352570634684588852e-03,-3.885038048707616792e-02,-1.031641008411176078e-03,-4.506653322369505443e-02,2.229265488179488393e-03,-1.002875624205437632e-02,2.132543994728462039e-02,8.885270779776818437e-03,3.477767394406084539e-02,5.900035396401236837e-02,6.156668988127755177e-02,4.636573248876398740e-02,1.350679461987600721e-02,-4.596522197022060580e-02,4.799458360686732067e-02,-3.279976711298646097e-02,-3.417863812166357929e-02,-2.820608279204958949e-02,4.056317775263324626e-02,3.958275505824256774e-02,-8.495369964991273531e-03,-2.417477532853005984e-02,6.123775711110773790e-02,3.007500113483852974e-02,-2.087777815637344506e-02,7.243303539889564026e-03,-4.298151201735961324e-02,-2.373640661987577380e-02,-2.873986117886715222e-02,-2.994217196201317405e-02,-7.150734855733963113e-02,-3.208207192407629138e-02,-3.830428200722976739e-02,1.501567043153381048e-02,-6.935988031016374067e-02,6.495219783683348069e-02,6.059348156096062976e-02,4.775380098126763562e-02,1.340123919925399667e-03,8.454238921188884925e-02,4.403951341945003262e-02,3.831243818461817913e-02,3.315756793451279938e-02,-1.742397260754646737e-03,-4.504448238432288282e-02,1.381573165888390353e-02,-9.064199585445371216e-03,2.563696672170042573e-02,-1.342815797787866652e-02,-7.189986381692024808e-02,2.872435983776798832e-02,3.932630212238915485e-02,6.144418964828821106e-02,1.771689940180888947e-02,9.255021124939855764e-03,9.374044949560553230e-03,-4.275274847213151978e-03,-3.394707620124907260e-02,2.178959290462905568e-02,-1.165635601453780118e-02,3.450121967906531056e-02,1.101260248844021690e-02,4.136170054386963113e-02,4.027829933268758933e-02,3.545581259792086881e-02,-1.090726439003375688e-02,6.106205212715693637e-02,1.050679943723836773e-01,6.574747804726549516e-02,-1.323440753596722037e-02,2.704843166004651175e-02,-7.489520955360308430e-02,-1.609274714705516993e-04,2.859410613444449134e-02,2.189362657091853751e-02,3.082186221757339702e-03,4.540732090066808280e-02,-1.623864039682251098e-02,1.280559432167619784e-02,-3.860853967038684748e-02,-1.387610470355827609e-02,-5.444350105030701728e-03,2.427144414262416561e-02,6.662078613016671376e-03,-3.183658510595369778e-02,-1.111177682947840084e-01,-2.586117628770229215e-02,-1.592208994695867505e-02,-2.103965633495076450e-03,9.566417440235434888e-02,1.029216847125401235e-01,1.059220844749419882e-01,8.584729485073254451e-02,6.911420824241712446e-02,-6.199128051966655735e-03,3.429490770283250695e-02,1.725590008380347914e-02,4.978622028918951690e-03,-8.958184094850542289e-02,3.798431941282526952e-02,-9.825808453426759792e-02,-3.928098800406989305e-02,4.154639481244088578e-02,1.362171040868496302e-02,-2.210793992364673555e-02,-1.577929747697167165e-02,-5.269590616196694749e-02,8.050853273671080765e-03,-3.046165652415408834e-02,4.076082427436067412e-02,-1.093486576796207609e-02,-6.219098932277870861e-02,-6.293231627921275217e-02,-4.351419376487605795e-02,1.729787407564431848e-02,6.916397916820962721e-02,6.202479572242182437e-02,1.257798877605830479e-01,5.065325779307976867e-02,2.858615219346414410e-02,3.207623358324789009e-02,2.016038204200890083e-02,-6.024210336577163344e-02,2.235254812823420437e-03,4.144328688491529487e-03,-3.402664641929618178e-02,-1.123238197773437502e-01,-7.817531877071251523e-02,-6.713603500697296056e-02,-5.403340095470624688e-02,4.095679248648359527e-02,4.837453244839497006e-03,-1.670674527708925980e-02,-1.643993413809159698e-02,5.374705232049924869e-02,-8.024878729116752263e-03,5.531216867910637713e-02,-6.745359471507865468e-02,-5.854397740862700428e-02,-5.206645718861672989e-02,-6.553871315999812430e-02,7.585099815668633859e-03,7.458084433821217905e-03,2.262387389342225899e-02,6.780606165443787969e-02,1.057689649660966263e-01,2.594310873031238293e-02,9.700143446658548996e-02,6.076764317456712777e-02,-2.753489561982753325e-02,-6.234627339000708979e-03,-4.153403199971829329e-02,-6.605562721747642273e-03,-8.769645152272462219e-02,-6.394896887365802973e-02,-8.678912867595119096e-02,-2.749671204569657801e-02,-3.014781289723020979e-02,-6.684083238889113043e-02,5.870165582174557972e-02,-2.274706705091248879e-02,5.261478139736598669e-02,-2.765793400551090631e-02,2.932372127427781971e-02,1.930938899917022250e-02,-2.781763212346551051e-02,-9.228256370765790251e-02,-1.039329613740924418e-01,-2.195659011544215389e-02,3.354621271539925433e-03,1.640455747381394658e-02,6.887382016039242383e-02,1.069000196860667717e-01,4.976504810970920623e-02,1.047734184564659832e-01,8.111510363987799177e-02,2.898153363726142448e-02,-3.708790994121610035e-02,4.219220040845648133e-03,3.798000300197149071e-02,-1.717579821002139170e-02,4.191758377221242726e-02,-8.648436338864903816e-03,-3.623801878971572021e-02,-2.300148303401776048e-02,-6.194660906961051887e-04,-5.048955509383466073e-02,1.264305907863617472e-03,1.948010691560871782e-02,3.433808700646766993e-02,-5.432166130768827789e-02,3.450908408636903929e-02,-1.670154715728178543e-02,-5.577648265737786965e-02,-1.275701321123630036e-02,-4.372892820211936316e-02,-1.153841915249238792e-02,-3.442934802932778784e-04,-6.212699195936306068e-02,3.862304787805959788e-03,4.075533592063818045e-02,9.677103250994691097e-02,5.104732019580541375e-02,7.946564065075734096e-02,-3.480241284488168330e-02,-3.889723191055676627e-02,-1.716560853013077148e-02,5.839889939099029460e-03,-9.147361633363694511e-02,-7.349928743776147633e-02,-1.014378983554607705e-01,1.117513824431909776e-03,-5.525156332539441634e-02,-1.729645450224555694e-02,6.513039189574477972e-02,2.259461865642424516e-02,1.135956221233312517e-02,2.122231792850170010e-02,1.760629332798933910e-02,7.175969874473465959e-02,-4.928923358339832445e-02,-2.977715249635704345e-02,3.645421089023983315e-03,-1.512420708830466802e-02,-8.824093242271419113e-02,-6.741466672266904769e-02,5.148435865460750105e-02,-3.483163340268980585e-02,5.517141901799408471e-02,7.214193257342675636e-02,5.965862939698720474e-02,-2.468203649499467467e-02,-8.990440596011083085e-02,2.327012632701233250e-02,-5.526073187020765637e-02,-1.858971011027626616e-02,-4.474438050152846486e-02,-5.602785771892031252e-02,-4.844315027060971252e-02,4.032582289585801699e-02,1.952520916583382754e-02,-1.570914341259619165e-02,-2.253338272611642157e-02,-2.068153846458569561e-03,1.663583180486352675e-02,1.137183480775005515e-02,7.640523988293211610e-02,-1.895382550436204919e-02,-1.893898285109948650e-03,1.060165509367769904e-02,1.666164960833565328e-02,-2.745095279775810332e-02,-2.068827809863910822e-02,6.083085970948399167e-03,-8.476730108410120146e-02,-4.115824234758049677e-02,-2.842173607278448283e-02,-2.154575972718460880e-02,8.843329094187873246e-03,2.932285539195391214e-02,2.422783513332103442e-02,-5.550856432544513074e-04,6.253726495558933549e-03,-3.994870794015748655e-02,4.937177782866367332e-05,-2.368949659054301118e-02,2.704453048665473106e-02,-2.734140167235050295e-02,7.613638801089724767e-03,-1.917739900610488865e-02,5.314573343519225085e-02,-3.420286205255932549e-02,2.223973188409857343e-03,6.288996923085020396e-02,-3.052536929858445242e-02,-4.085709605570688602e-02,3.103057033539398379e-02,-1.407959091078944507e-02,1.187180621414297456e-02,1.489921451427348061e-02,-2.010204958651765419e-02,-6.229631022148957725e-02,-2.010226405735911562e-02,-3.789632602425100499e-02,6.469980044703484146e-02,4.381155333801116381e-02,7.948192982377628654e-03,1.667254685182981838e-02,2.613868037745728512e-02,-1.246864002547613988e-02,-4.337789437342062793e-02,-5.191348128186266953e-02,-2.766436348091053793e-02,-3.071182195639473450e-02,2.430701811637051360e-02,4.207509234833341910e-02,-4.362720663330919152e-02,-3.781925923886952229e-02,-9.499712873905394827e-05,4.808935733126723684e-03,-4.591340824115434927e-03,3.151218059705436503e-02,1.776922162531317795e-02,1.257827922594831858e-02,3.944640646298890746e-02,-4.608815087854057496e-02,5.736667120915463214e-02,-1.079792386550949140e-02,-1.939475017187046804e-02,-3.326398768992491761e-02,-5.243324407744345828e-02,-1.345586562836645177e-02,1.544143594580602366e-02,-1.848742499647812454e-02,-6.592365383482017178e-03,-3.594359524322485872e-02,-5.160583954482250886e-03,-1.243920773993076462e-01,1.478766604319873071e-02,-1.340577709948060671e-02,-1.353181642512867218e-02,5.664310120589083342e-02,-2.509748960490279859e-02,1.313896437077264993e-02,6.084205030364993327e-02,1.905775125655174290e-02,-1.231152681752077996e-02,-2.507395278123560403e-02,3.236018608450634548e-02,-1.399635493363369024e-02,1.292081812231359907e-02,3.758846329718380785e-02,5.524009506290309020e-03,4.996498309761591636e-03,4.578544016216104517e-02,2.581079303507265166e-02,2.089182786322575994e-02,2.916173441308832909e-02,4.247098191344001600e-02,3.513763418472443112e-02,-4.177028707269905133e-02,-1.553896489167332778e-02,4.580522306592894194e-02,-4.455539813134691551e-02,-3.462196015127904508e-02,-3.013555406594654873e-02,-9.097066654656036852e-03,4.051556884856442886e-02,1.068525982626006565e-01,-2.331926893830373743e-02,-6.754529001690517953e-02,-2.919821307990595229e-03,1.568093031976470000e-02,6.613274705790915531e-02,-1.123922993355362318e-02,-6.667441169604697987e-03,2.797441281992675902e-02,2.531122952866296733e-04,2.048782575978092685e-02,5.063529854055652361e-03,-1.466366415397348834e-02,-1.879141520248347325e-02,-1.285549409667906262e-02,1.233398978787602837e-02,2.829187613836589218e-02,5.706784856876670475e-02,2.221714985446749183e-02,1.719962119240139517e-02,-1.086913705141076200e-02,-2.727073768623489158e-02,6.649143156354872519e-02,-2.058063393760353049e-02,-5.496673404716598266e-02,-7.744738566770094368e-02,3.966413619855196221e-02,3.887737663896666945e-02,9.003721644550824466e-02,4.039437405577624846e-02,2.439806310731483519e-02,3.128270016408338239e-02,-3.177033706764748749e-02,3.195711218281462301e-03,1.214141712838943607e-02,4.815311966333940888e-03,5.668969555697042639e-02,-1.807351633278763900e-02,-1.887436448067239536e-02,2.668726022911426833e-03,9.311895222843872416e-03,-6.187833126885938784e-02,-3.870378503546711979e-02,-1.215389807807733258e-02,-7.012147861601655818e-02,-5.366686535137866164e-03,-2.549778312548062545e-02,3.327041542980505723e-02,7.507121854255756691e-03,5.143910219113948662e-02,4.028462427877493174e-02,3.715908215920193935e-02,-2.876225615809558170e-02,3.303574737228185537e-02,-1.435847239105069936e-02,-8.493271071164336513e-04,9.879796249682841827e-03,3.181251195504052748e-02,-3.579332485162313449e-02,-5.485301167812819262e-02,3.693407702289526473e-02,6.396808758186037745e-03,-9.140538980982182557e-04,-6.368225212232137000e-02,-4.866528687584488651e-03,9.300700324416748960e-03,4.687470293771933867e-03,-4.202262974837237680e-02,-1.533643227702120512e-02,-9.646213371002514136e-03,7.660629640066429942e-03,-1.481075327475715395e-02,8.590587845146184162e-03,3.687889646893838941e-02,-1.110196887358365081e-01,-4.048071580328516800e-02,-5.102592522545011146e-03,-1.252450308919190666e-02,6.544678606355898605e-04,9.472232730213558591e-03,1.406007208606975187e-02,8.813570068904182098e-02,-1.049800851767657660e-02,2.008040296577898523e-02,1.759551647483847264e-02,-4.362106759833837138e-02,9.779714376798132741e-03,7.157269184109876781e-02,-5.145466405343149252e-02,-4.114487091289597415e-02,5.003564362639514873e-02,-4.787124404316746296e-02,-4.788603310261801971e-02,-1.002151775870161084e-02,-5.486429792998907991e-03,1.539289040441471114e-02,-9.468470154588581877e-02,-6.665022291980096658e-02,5.809249429470132904e-03,1.684517139261781926e-02,1.980625478889788682e-02,6.093693710954432158e-02,-4.001946556803587934e-02,2.391418416110208979e-03,3.316511730527406387e-02,-3.420678328329187362e-02,-2.003085881089919709e-02,-1.884922574799255054e-02,2.201474550627731397e-02,-1.265330513740724888e-02,2.402770593610584551e-03,-8.273746794670478952e-03,-2.601574258424874456e-02,-1.606873994981453807e-02,-1.798785220166936386e-02,2.148505801588889569e-02,-7.265966525824717193e-02,-8.712559000103442790e-04,1.668618104359694682e-02,-5.330719589757038079e-02,3.042967207816665506e-02,4.045980428028562309e-02,2.028138611559540672e-02,-1.787187864599603521e-02,-1.428157149517888906e-02,4.460565395842528563e-02,4.201128594062135402e-02,1.253923269188248965e-02,2.017761316081071940e-02,-2.566385976356113166e-02,-1.079941350746983358e-01,1.110121301430426824e-02,-2.093418564552644578e-02,-2.333863567879413889e-02,3.616491151004031651e-02,2.157589345708686018e-02,-3.326979565573789932e-02,-2.958056733000439392e-02,9.868323630181139935e-03,8.814553378078808510e-02,-4.687537512756603797e-02,1.136837950716830699e-02,6.159882491474542171e-02,3.986612300083719473e-02,-9.070731749338431862e-03,2.855600756143686358e-02,2.270708076460908886e-02,3.882105246073239754e-03,5.029095298854494717e-02,-7.348670671406356582e-03,7.265384218469713405e-03,5.285800191132766779e-02,-4.603378659447651677e-02,-2.094502719289549272e-02,-2.880700923991840259e-02,2.143493997539371206e-03,1.139137147059906575e-02,5.738333350968691585e-03,-4.280005113389854371e-02,-3.059761223446684844e-02,9.453707484827498023e-03,-1.499926915489709599e-02,-1.151434335981059258e-02,-2.508154759476868487e-02,3.582660680631264555e-02,5.861159317143833231e-02,-1.887786043789504292e-02,-2.018539351138951693e-02,-3.927375309585983548e-02,-1.451832671400030746e-03,4.852448092566550436e-02,1.314374274494510553e-02,-1.911477682357053121e-02,4.414418864830236752e-03,2.055258652672037681e-02,1.415960064934071450e-02,4.285623267656248070e-02,-3.421671292453215552e-02,-1.353803427165091921e-03,5.437757083242732159e-02,-4.345838149589401761e-02,-1.335459531509300933e-02,-4.972454921046856602e-02,3.741193478916496340e-02,-5.830262826459529230e-02,2.240149517445554073e-02,-2.885953208109879459e-02,5.028667589287377782e-02,1.464682601828879056e-02,1.236561601872798906e-02,-5.563359687144206478e-03,-4.061778047048405366e-03,-4.891386955671294529e-02,-3.627001198485930306e-02,4.529736600168129262e-02,3.635178341251743550e-02,3.252981802225482933e-03,-1.177173828089135045e-02,-3.714278517871152929e-02,-5.526817042152994477e-03,8.368883009409393975e-03,3.824731308215572473e-02,4.349239925052963279e-02,-2.995734456361146339e-02,-7.347305362668836903e-05,5.813012876177017785e-02,-2.731075109414207031e-02,-3.468513300415470429e-02,2.877712069123303934e-02,-1.829226319997017194e-02,-1.991414873714049058e-02,-2.750989789937951721e-02,-7.270177454069184919e-02,1.174914954774495916e-02,2.044086876043232567e-02,8.915382874666331892e-02,4.515115298489683071e-02,3.956198759558449823e-02,-2.215500796055913657e-02,3.927896206767815535e-02,7.102237047588892682e-02,3.778640684044734521e-02,4.915218290462197714e-02,4.617191862445606775e-03,-6.981042600099261752e-03,-3.928666943977830034e-02,-7.546818920232228889e-02,-2.006141559502330196e-01,-6.823493575912867315e-02,-7.782036059115368665e-02,5.970414857986246909e-02,3.292419719087173041e-02,-3.618377356833379216e-02,-4.132526081325003930e-02,6.194214341646226557e-02,3.891860524790786979e-02,-4.606607702059786064e-02,6.447753517380118427e-02,2.484608811354581392e-02,6.173918859649518004e-02,-7.660194234593051266e-02,-3.995163033976990158e-02,-4.431551758746110625e-02,-9.824097878997123390e-02,-6.869557936632046669e-02,-4.561079304860073819e-02,-3.306587710425692994e-02,-4.724815028898727426e-02,1.217300261780402543e-01,1.126026983184945651e-01,1.530142269014529988e-01,2.092413090887108584e-01,-1.241588936977856134e-02,-2.438703211753983080e-01,-2.956333351912441287e-01,-2.838258007300673014e-01,-1.073547240806162900e-01,-2.139100742107522251e-03,-3.083089349854029049e-02,8.910979791796350136e-03,3.264694048351126331e-03,-2.349349450056376076e-02,-4.814897402860655179e-02,2.395726271486303682e-02,1.999764294328784664e-02,-3.906049875769478097e-02,-4.532541093594254222e-02,-2.533935070835939898e-02,-4.634661617282639229e-02,-5.725887625327851643e-02,-1.085368381702774970e-01,-1.752000101164735146e-01,-1.593394171948374349e-01,-1.730127888768105970e-01,-3.556084734097715583e-02,1.437079732675645982e-02,5.974090812396071898e-02,2.057147302578903603e-01,4.357628750656383221e-01,4.493490089362373596e-01,2.788492047281780906e-01,-1.270404516707585290e-03,-2.344695011019077013e-01,-2.723367639602451984e-01,-2.070535762413387437e-01,-2.247715112593317022e-01,3.255155908597005820e-02,-7.524691139435366050e-03,-3.926240007554109013e-02,-4.223468426321940611e-02,9.415572488701232784e-03,7.432247582866100336e-03,2.792585222030518743e-03,-5.718346880471937566e-02,-1.365294619716943270e-01,-6.077114527872272409e-02,-1.159746816832319116e-01,-7.107901567726787606e-02,-1.194021426592034585e-01,-5.520023654426600701e-02,-1.388399464999280908e-01,-2.409489557500032741e-01,-1.724200703197331930e-01,-7.272077731724778393e-02,8.391578468349356057e-02,1.368022904636289894e-01,5.046022778397672992e-01,6.986261015882653247e-01,4.198038971617661930e-01,1.251722099933856303e-01,-5.843353542928696881e-02,-8.055599585877457058e-02,-1.938053715734121552e-01,-1.289902792402931042e-01,-5.170088544181482976e-02,-6.652520953422899098e-03,-7.238856013061520378e-02,-4.315041511332522867e-02,1.924978679410029037e-02,2.702875470139266822e-02,-5.941331556963152377e-02,-9.514792139410543914e-02,-2.081259211902540193e-02,-7.636108835915948745e-02,-1.779567588756057750e-02,-1.213450976756516725e-01,8.164389364733676616e-04,-1.599376610835961388e-01,-1.796709208187426965e-01,-1.511722284773519831e-01,-6.687458732972070830e-02,-1.001921576434904593e-01,-8.453715686998158896e-02,4.105027796765986503e-02,4.801645588923876828e-01,8.563380072793586040e-01,7.453129667304834172e-01,1.179401096459141707e-01,-9.109746147405875863e-03,5.209455885922355430e-03,1.964403631095448018e-03,-1.756389522872489894e-01,-1.791588154620586404e-01,1.280671507087195564e-02,8.042388914790371546e-02,3.365997554233849526e-02,1.040102374534692536e-02,5.491814320382035382e-03,-4.966408216247787666e-02,-6.483852077509719147e-02,-4.629739030625642376e-02,-1.357736764870269286e-01,-6.548584593824503808e-02,8.282064585630230513e-02,-3.060086093164224221e-03,1.088142259789412654e-02,-7.293098525682829847e-02,-1.390476232579485882e-01,-1.655367712418073234e-01,-1.634814707689161983e-01,-1.933985842350792739e-01,-1.023236987104374218e-01,2.635609667750829499e-01,8.650988042406185796e-01,1.119689991931406281e+00,2.451953019579843351e-01,-2.133998219285979381e-01,-9.092158524482728266e-02,-1.006600863551806169e-01,-1.474748471994634658e-01,-1.131981380035201878e-01,-4.239990183047721850e-02,2.443921248695327467e-02,-4.409647108152907335e-02,-1.526056395000957924e-02,4.245585037921589117e-02,-1.039364532708387558e-02,-3.897888530545991215e-02,-4.449648368342760257e-02,4.558681384945300480e-02,4.678811602127812275e-02,1.114999554510162083e-01,-1.193207505392109707e-02,1.493731916433584279e-02,-7.737821278000531211e-02,-1.952414329172235397e-01,-2.330125108442464010e-01,-1.650537219354320517e-01,-2.671288184572255253e-01,-2.742213796457779185e-01,-2.058856211763928079e-01,7.562066753241030170e-01,1.367429353235413148e+00,6.244194976898733568e-02,-3.493712712239908647e-01,-6.778408325172463611e-02,-1.260235426802968073e-01,-2.114593296756005214e-01,-5.910793046264961603e-02,-9.374114555961082090e-03,1.887642033093453464e-02,1.051706950818763302e-02,5.738017115067425844e-02,1.529415965378117838e-02,1.478165167488902643e-02,-3.359665369148231301e-02,6.487444049527735235e-02,2.066300676719426965e-01,1.740475698965520679e-01,7.271882338849895711e-02,1.478535087912408730e-01,1.805760466985713020e-01,1.422309652116057754e-01,8.050642414135548985e-03,-1.310281553580585623e-01,-2.771058808110727356e-01,-4.104905772888618465e-01,-4.759990746267328543e-01,-2.633650182849193166e-01,8.574949054644158686e-01,1.516053071546165087e+00,8.604162943090894189e-02,-2.857656782386874816e-01,-2.155433189900517882e-02,1.551908465360745878e-02,-1.376761590980735694e-01,-4.226572972997561656e-02,-4.790374219543488271e-02,-4.065793646446945464e-02,-3.103101695072745317e-02,5.416328747525908996e-03,4.172513628973792410e-02,-7.335108281868306379e-02,-4.025911829007399259e-03,1.098423856204012450e-01,2.018114709501713788e-01,1.492926808246677894e-01,2.451619132123339928e-01,2.374858868530213274e-01,2.323594310005132058e-01,1.765502184037166800e-01,8.061553283369052303e-02,1.591803224881478381e-03,-2.144232539977082852e-01,-2.711866642511139847e-01,-4.588981341252534318e-01,-3.521790039775736791e-01,9.871178500274616630e-01,1.437623124729524360e+00,1.160156225095333171e-01,-5.546649639299238571e-02,1.769743136398257422e-01,2.309017563873906886e-01,1.175901218961390160e-01,-2.905951823555546348e-02,-3.379459563998011423e-02,-9.882149347244139487e-03,2.149038489200945021e-02,4.890325169699915459e-02,7.872293460849857233e-03,-3.635014475465501299e-02,1.210154875106159850e-02,1.331276952692551363e-01,1.076328409884797915e-01,1.574142571938556001e-01,9.113988676288058144e-02,1.081357607294221312e-01,1.625429105177801925e-01,6.298624309647318786e-02,8.259600757767118773e-02,-5.449634130612168725e-02,-3.159653794296294477e-02,-2.597217541905780802e-01,-5.554693473561838069e-01,-2.834388196214153721e-01,1.168441373879928191e+00,1.054149523715318670e+00,7.965327995819393436e-02,8.782459548343137662e-03,2.746957341877178660e-01,3.329485313366867261e-01,1.069012418992211083e-01,-8.046968644639389268e-02,1.182162750368168785e-01,-2.870570219415748484e-02,-2.527963240259402042e-02,1.272551402397859716e-02,2.918351100409018466e-04,-1.983615223254340740e-02,4.602692687012633482e-02,2.005812373264598616e-02,3.424910019162457492e-02,3.443120866265209773e-02,1.521118171444059072e-02,2.342579323848245111e-03,7.999391409282337329e-02,1.704606733984095623e-01,9.397262803218365060e-03,-5.281845933316320352e-02,7.471097321969367988e-02,-2.640485227710316352e-01,-6.473404938489710769e-01,-7.327383608580070873e-02,9.741931786113708913e-01,5.669289107782962134e-01,-1.311365863719246398e-02,-1.012001915521785617e-01,-4.075878941229199581e-02,1.095397045390385932e-01,-2.013397441427098797e-02,-2.215425134003101426e-01,5.733130501272062397e-03,2.472159055354101326e-02,4.009696581211032521e-03,3.301463693426829465e-02,3.146719853584614007e-02,5.862002080936357801e-02,-1.260069765969783033e-02,-8.253791330740538335e-02,-8.239331654246079273e-02,1.061043963282531574e-02,-3.596638486838597826e-02,-8.233722950428042087e-02,8.988941157925950387e-02,2.190555146003100029e-01,1.545423224018582960e-02,3.465339045770432502e-02,3.253837530782343473e-02,-2.352241109288463472e-01,-3.150578502975002193e-01,7.978053606301370448e-02,7.176616979197349977e-01,3.092354653408327381e-01,-6.774922300752801718e-02,-2.049707019605958580e-01,-1.912550350390224974e-01,-6.136637923589790405e-02,-1.375780270667158467e-01,-1.147942508729912076e-01,-2.439956933460956170e-02,-7.457040267888534468e-02,3.728364423320727761e-02,1.331052078482453105e-02,-2.144092873632210197e-02,-1.503419502036596606e-02,-1.022894350769746885e-01,-1.065181765359686367e-01,-2.112356631260551773e-02,1.153402409042363075e-01,7.376570324652793886e-02,-5.677843392321377941e-02,2.452972911286839183e-02,2.059556775106746451e-01,1.669382644901337143e-01,-2.194965246305371001e-02,-5.954803018023728522e-02,-1.877198192394819443e-01,-7.508506352452005810e-03,3.427124497339215092e-01,4.456980409077965777e-01,1.633467622600028035e-01,1.634703611739214135e-01,2.768966728772703084e-03,-1.721519539305878532e-01,1.558820554744833444e-03,-1.795344712740805093e-01,4.448607931484811762e-02,-1.870155589370730426e-02,-1.828056636470222832e-02,6.807741115115958919e-02,1.427141601271612013e-02,-1.789895028150023312e-02,6.579374168906972076e-02,-8.482359219671647965e-02,-1.052155682651785412e-01,1.354902350144809309e-01,2.668931801311779511e-02,-1.013250783312301118e-01,-1.235292207225604788e-01,-6.625704129474631332e-02,1.016877646059370921e-01,1.960390239020675662e-01,4.700879388137010201e-02,2.356532123699341813e-02,-1.499694618605036389e-01,1.081114693189190873e-01,3.248821885321140357e-01,1.577092113552925057e-01,1.709599077090271646e-01,2.066949734475130585e-01,-9.423790564430454663e-04,6.948063020154758573e-02,-1.557001524108003743e-02,-8.972276749787623518e-02,1.524357477872050233e-02,2.567260971605828807e-02,-4.325454580604973925e-02,-9.868588566783394189e-02,-2.668250250879848282e-02,-3.089869553186649215e-02,2.390563799767478001e-02,-4.580657341833675733e-02,-1.384355599064899800e-01,3.210033059771918041e-03,-7.587116718926785464e-02,-5.146726763970348867e-02,-2.091650151618424380e-01,-7.018918805269930283e-02,-2.930445255886057841e-03,9.401443104188551836e-02,-1.086060191599301367e-01,-1.337022036454540708e-01,-1.037019392366785586e-01,7.681311215713844398e-02,1.217147684381107015e-01,-9.741496912520059004e-02,5.774402779601711666e-02,1.180597097687499514e-01,8.252239445910247717e-02,1.905971375171083282e-01,4.933283097135534451e-02,2.042071359210865036e-02,1.393484665774653020e-01,-2.032781727825005557e-03,5.101457966444488540e-02,1.485280178282738853e-02,9.004396638013658846e-03,-4.130716795903530830e-02,-6.397565025409251982e-02,-1.142930903541183457e-01,-6.191437542435915264e-02,-1.058641656946409659e-01,-1.285919605715638847e-01,-1.020941614020486055e-01,-9.054572168131634624e-02,-3.212699194227168487e-02,5.438840758624949312e-02,2.920471109643812957e-02,3.368979905666160540e-02,-3.513256607263026687e-02,3.230825512142453115e-03,3.993484426387542557e-02,3.138104985229477062e-02,-8.408010587940607794e-02,2.304259691367167157e-02,-3.247574653108474541e-02,1.019823167531876823e-01,1.367266551161711585e-01,4.212841884471894838e-02,1.329308025766376584e-02,1.098446417128192687e-01,-1.071592186936929335e-02,6.322038181220723807e-02,6.383254586317456056e-03,-1.346737146314250406e-02,-6.138088178884397450e-02,5.051089974940600746e-02,-3.666529075541288124e-02,-1.611377843491182404e-02,-1.531177643720827708e-01,1.978856612851331940e-03,-3.422440790060618521e-02,-1.803131139764566904e-01,3.419622338010794987e-02,4.486967103782790733e-02,4.730257678145725203e-02,6.163085351629107866e-02,1.803673198333397010e-02,-7.387670444924471225e-03,1.778292624164080349e-01,4.988153819616068102e-02,-1.067507778003975788e-03,-2.597591415364441589e-02,-1.971554936274514183e-02,8.449334094021107577e-02,9.721281079218388466e-02,2.071559408360489421e-02,1.523585215131058879e-01,1.375730261447382086e-01,6.612712159093399669e-03,9.374195361082719377e-03,1.647677365249305276e-02,1.166636011347220274e-02,-4.934448476690610902e-02,-3.646087893948164738e-02,8.812762557954991263e-03,-8.104229893018123632e-02,3.788535829003206179e-02,1.419055277815115812e-01,1.114035289092676073e-01,-7.547744749281118382e-02,-9.932893625403520221e-02,-2.856316581723016695e-02,2.285297517306044551e-02,-6.127431194719518311e-03,-4.874142473078193344e-02,-6.901495914771967055e-02,1.014576848733975654e-02,-9.206888721898323635e-02,3.534435229780995280e-02,3.097560668935857645e-02,4.531131331626819803e-02,5.935461469059105655e-02,-5.189790730208659886e-02,3.731361162233570034e-02,1.170428922087844020e-01,-1.994520387523399454e-02,1.267677638814428999e-02,5.704223838941890889e-02,4.123473538474959482e-02,-3.757929698899518250e-02,-1.610317282045226365e-03,-2.489096026622936164e-02,-1.029766650005613793e-01,-6.199640754550896776e-02,1.108963990841749792e-01,1.456712820758464255e-01,1.002009429025552678e-01,4.665668172386595869e-03,-2.166358179246254123e-02,5.797546370388392822e-02,8.149202579649135469e-02,3.655811302058007556e-02,-1.081052049496217075e-02,3.412343255189637797e-02,6.394044677433552426e-02,1.389826412476142248e-01,5.325621135047446664e-02,9.055929487290698132e-02,1.236365839390618504e-02,-1.507684307704220197e-03,-8.284486928739030753e-03,9.760861698140176068e-02,4.009265743057623121e-02,1.442171808370580621e-02,2.099509259724101655e-04,-4.001889472535059833e-02,3.738181541816040093e-02,1.860895595912942166e-02,2.840335421177760805e-02,-7.234159645922629001e-02,-1.773769838138810895e-01,-2.936671274857116654e-02,-1.370785094085603430e-02,9.510697028018563759e-02,3.181375354960215562e-02,8.596320491247644302e-02,3.733375699404056780e-02,7.406892406665024908e-02,1.657384133963565320e-01,8.052998481747922210e-02,3.248892740336544599e-02,1.127237917233735176e-02,1.398770265528497814e-01,5.099545199578408433e-02,8.771967674123290482e-02,8.387642404839623644e-02,-2.269590148105092575e-02,-5.476484954360054738e-03,6.867224122465707958e-02,6.560724381576620544e-03,1.297407737841663189e-01,3.131365179179897845e-02,-1.145774252350638921e-02,-7.653535479695786070e-03,3.999830711167411644e-03,3.206896360230461224e-03,-9.477605127096014326e-03,4.222661108952433656e-02,-9.233499048677351606e-02,-1.841343103920536628e-01,-1.288697221055987996e-01,7.441919880723447955e-02,8.977236645083999655e-03,-2.156928277058291904e-02,2.959192853040940735e-02,1.664710591459357680e-01,4.420839590734516183e-02,-5.176026806603411384e-02,-1.350199245653669056e-01,-4.288264996884142560e-02,9.217918089642965218e-03,9.175761303139277902e-02,6.126809875932157090e-02,-1.055729745456127078e-02,2.939086513800379455e-03,3.347742190098654258e-02,1.142777691145868968e-01,1.311456903211837000e-01,1.248425276679574758e-01,-4.061169365390511488e-02,4.231223673365631238e-02,4.606251880085804329e-02,1.694875155533803746e-02,-4.667481794556648661e-02,-2.670253133311220259e-02,2.671802666086197948e-03,-5.824221731111064310e-02,-2.232483612774661119e-01,-9.428129016774200455e-02,-4.415655608257722242e-02,-4.074918305086287773e-02,-4.133553704999477080e-02,5.903126340373696795e-02,1.097518070475616836e-01,1.648944895429319824e-01,1.627801491429067826e-02,-1.284272317748499405e-02,-4.104623897189303011e-02,4.617710038628664720e-02,-5.937982233555846173e-03,-7.479834695975076664e-02,6.728711901785744409e-02,8.857913037985380711e-02,1.253310818516136238e-01,2.121432607831337802e-01,1.258573106174908363e-01,5.003055762588629052e-02,2.186299157623845801e-02,1.501482185183319711e-02,-3.117648668116627247e-02,5.969271838530812446e-03,-3.738279919404529500e-02,-4.741594452360360645e-02,6.925650617488025851e-02,-7.702131640598815394e-03,3.533863829146530883e-02,2.577430633213748101e-02,-1.460379376628337944e-01,-1.552130594042976965e-02,-5.326420339024425660e-02,6.295894759571915578e-02,1.244354872494215780e-01,1.665522698065396434e-01,9.926434099619541040e-02,1.410957775496772017e-02,1.494886484988386388e-02,6.824005829274128708e-03,-4.011780553480644856e-02,-3.679716016230125120e-02,4.889606436862996286e-02,8.535275488203228345e-02,1.087250033632071455e-01,9.694624119737092760e-02,-2.642708121712772015e-02,-3.061466983461600885e-03,-4.617709280856322623e-02,-2.170405912736471724e-03,-3.876563490461023415e-02,-3.592782722273160645e-02,-5.404127454273302024e-03,-6.264659283014369084e-02,5.139611925696934563e-02,-2.985613755403227734e-04,-1.791974756837238711e-02,-4.706675561307400307e-02,-5.034579685465425530e-02,-1.415755843452879380e-02,4.027358753896503885e-02,2.757886348686490810e-02,1.440084942629121616e-02,1.893519457938247844e-02,3.543350086444615153e-03,-1.541855016120558322e-02,2.829379823332886165e-02,2.479380039582385759e-02,-1.336547343078513597e-02,-1.394379031052211081e-02,-1.695967782150299349e-02,2.090250447045686674e-02,6.386811085666513343e-02,2.923206792463330095e-02,3.910353723654858005e-02,1.253256668837214038e-01,4.948497701184879222e-02,4.790700878709250495e-03,3.123818967122642468e-02,3.765400397182303016e-02,-3.413933371317151577e-02,5.056457890849831022e-02,2.993329651359093874e-02,4.290494453946389064e-02,-1.981574783981858087e-02,-3.097098619469248310e-04,-2.535873667314230209e-02,-9.776342466037752157e-03,-2.136104980644303042e-02,4.879956427143426062e-03,3.801637531089601535e-02,1.535356713319407105e-03,3.681053615840238630e-02,-3.726046823259833440e-02,-1.263219227224389278e-02,4.279063996850839338e-03,1.727121674606565960e-02,-2.195804123250783349e-02,3.315366209602211428e-02,-5.583032503054213141e-02,6.998660683386961033e-03,2.305463006889193686e-02,-1.343820730121225888e-02,-4.122585175850209532e-02,-3.947837186150442330e-03,4.197720611096470572e-03,-3.764416945341163279e-02,-1.068559208378913605e-02,-7.105815012937053039e-03,-1.111405739800045284e-01,3.928754202409037895e-03,-7.184343817246606478e-02,-6.101650489690522289e-02,2.083118411156715567e-03,1.466128787199682398e-02,6.363292247227082116e-03,6.591769112860239310e-02,-1.592937021044386198e-02,3.663488565932897928e-02,4.958607013988058226e-02,1.706836488115413830e-02,7.745540746141245381e-02,1.622352502374806854e-02,-4.573014083507803001e-02,-5.594325713484026019e-03,-2.469160480364437915e-02,2.813223206486403088e-02,4.948306155654136340e-02,-2.241786517204430451e-02,-3.606568706535685787e-02,-1.295439248935121765e-04,-2.722862999954437854e-02,-3.864044119172301700e-02,-4.884567945304886527e-02,2.694940684048924978e-02,-2.913913606822834262e-02,-2.239881375328121524e-02,6.134319958446909915e-02,-3.443814977206863248e-02,-3.178094832399155217e-02,2.970836336472518907e-02,4.567802407310168900e-02,-1.251361862819116121e-02,5.305601634596072286e-02,2.959688792077647124e-02,7.979925442815971950e-03,6.381824979236197515e-02,-6.688731292318948404e-03,4.823643568293931733e-03,-5.254386312450080865e-02,-9.371375966711199519e-04,