-2.441623942954565807e-01,2.734743669209386066e-02,8.309629704363712399e-01,-2.738174366448660746e-01,2.576667554999037546e-01,-5.293324083292475501e-01,1.404677261285835477e-01,-1.014218177757672867e+00,-4.611946774758433620e-01,-3.324579133613482229e-01,-3.923943713779385889e-01,-1.280416768843079256e-01,1.027829394212476322e+00,-2.886087386314423187e-01,-1.789381284151761731e-01,6.101427745450067608e-01,2.218320578653825981e-01,1.546127178146839143e-01,-5.009141816683720938e-01,1.816199783120673872e-01,-3.449904054892986016e-01,-1.690078971949407760e-01,2.705910293625182206e-01,-3.572631819425246130e-02,-1.436916027818237573e+00,1.473421715689297695e+00,-2.223249450021333729e-01,-1.248699939705739448e+00,-2.101806932325235230e-02,8.243761760532510863e-01,1.092985127769266623e-01,-7.408013405023049225e-02,-1.792589830959123165e-01,1.103507522947472008e+00,4.940009272636594617e-01,-8.108712022637165617e-01,1.409554979432504185e+00,-9.418021518378791868e-01,8.791294178502075951e-01,-3.330208036951888897e-03,-7.176753338640880220e-02,9.505700860206926783e-02,-6.764891282560401287e-01,2.138168082180576413e+00,-2.827949230291560423e-01,-8.588675766149023172e-01,6.442634971796559751e-02,-2.660358253032572493e-02,-6.249511746896477815e-01,1.178413958270369960e-01,-2.411167872125972722e-01,-6.890322012986010991e-01,5.554873787907392835e-01,-5.653011674254631441e-02,-1.755694582986316310e-01,-5.739583119936422090e-02,-2.967146026496145783e-01,-2.004038710052019438e-03,-1.880512276246077974e-01,-1.541178978699320190e-01,-1.361049360837079392e-01,3.715259633605239031e-01,1.020253199281044187e+00,7.728816834469116603e-01,-2.813237543889259284e-01,-1.265962467907063294e-01,7.583280662644903414e-01,1.519003480781890181e+00,-1.428307577385306004e+00,1.631645543520896968e+00,1.838666912868986425e-01,-7.513698381645298463e-01,-3.593173609350238107e-01,-5.096594951148069041e-01,-1.171003882422354259e-01,-1.095334746454564717e-01,1.867649156368643426e-01,2.474219464212192299e-01,1.329240709215158966e-01,-3.048285019451641431e-01,7.810322483551677131e-01,-4.689579680249230109e-01,2.718906157521619113e-02,-5.644116734448453160e-02,2.922957873209515445e-02,-2.613376647277372844e-01,-2.031563777564924234e+00,-4.254832368010442734e-01,5.986025579074193415e-01,-2.327949625723366445e-01,-1.485277002849428873e-01,3.279508383178585396e-01,6.685665226696100305e-01,-3.701405166448348133e-02,-5.163924392606935587e-01,-1.647474004620476939e-01,-1.099977096791014963e-01,-1.630699138654876645e-01,3.972011872291074108e-01,1.969353234961464250e-01,2.696480044060828307e-01,-4.803857799905033449e-02,-1.149897774438637610e+00,8.292553641094871919e-01,5.545420548589700127e-01,2.036622923499325707e-02,7.913203521656319017e-01,-2.128525351625979167e-01,-1.462211396516222006e+00,-3.589894435018368135e-01,-1.290613977106795096e-01,-4.539672748358718479e-01,2.114394888299075403e-01,1.780902036336786953e-01,-3.730294381571031548e-01,5.471450294972996647e-03,-1.752883949761429583e-01,-4.161033471838759823e-01,-1.459894245197183693e+00,-2.291394712780417398e-01,1.321599848906706232e+00,-4.407999613279339202e-01,-7.713264208553316514e-02,-1.834139293282943950e-01,-5.237152508719618987e-02,2.172830435193191245e-01,-2.323345634895363776e-01,2.257050671659512064e-02,1.399221697450805935e-01,-4.526028513890990035e-01,3.262188331495031179e-01,-1.610379002078803357e-01,-2.068934437800198811e+00,5.319339211479687801e-01,-1.294053749530755248e-01,-8.675747731484603070e-03,-1.897966989048008590e-01,5.006946822125746266e-01,9.306265527250850988e-01,1.045619716369766916e+00,2.338313152463832090e+00,-6.231327587127347689e-01,-3.375858323253149162e-01,-3.664283570546243013e-02,1.120363572081190806e-01,-9.397063617965378812e-02,1.168886425086224090e+00,-4.769700869690790546e-02,-6.410591147116798116e-02,5.314193382533688448e-01,8.624579323181063018e-01,-4.399160319767879690e-01,1.450859199825777157e+00,9.541623547109395753e-01,1.206875169166597567e-01,1.881726693598531341e-01,-1.666757508247787012e-01,1.976665487491404138e-01,-1.475518064289210451e-01,2.980678046551563654e-01,-6.237121173731724477e-01,-2.064776422670025202e-01,1.068639136000543166e+00,-1.399418923667199444e-01,-2.469319021866865915e-01,7.175823370193419592e-02,-4.952244362074578396e-03,-1.264549943647993169e-01,2.584846187577045651e-01,1.505786108063427720e-01,-9.988532524860563866e-01,-1.661661134931934902e-01,3.336256531530933933e-01,3.642869716978465178e-01,-9.841419200458793870e-02,-8.172855774685627850e-01,-1.702178643359802956e-02,-1.842655680439216626e-01,-1.821924257647368206e-01,-1.191189451494833573e+00,6.310745154922301481e-01,4.911779010279696545e-01,1.785563224929349185e-02,3.144615549235228041e-02,-2.211335252302616183e+00,-2.088507220048779978e+00,1.649336678455862182e-01,5.030199823229414280e-01,-2.464609237603281600e-01,-1.200249024803656805e-01,-3.125989835553075746e-01,-1.643952897286055315e+00,-1.961507282130509067e-01,-6.227095991377514794e-01,-2.057810668966539649e-02,-1.608364464894956325e-01,-6.021330747853429477e-01,-1.824439310705696871e+00,-1.101693373073410059e-01,9.353755512631677094e-02,-3.465982300531075255e-01,-4.956120049504642022e-01,-1.171085377488152446e+00,-3.781509227417432228e-01,7.037036015510249320e-02,-8.038440931778839671e-01,2.520981883398270007e-01,-1.193190586232683481e+00,-2.200011171898252071e-01,-2.345671116489382313e-01,-3.287819350752874681e-01,-3.514891999169864056e-01,-1.167406335629857406e+00,-4.774801689826425055e-01,9.507762492883033989e-01,2.284799894419837218e-01,-6.014946669558154380e-01,-2.100155634498219182e-01,-8.156787886331622051e-02,-5.758773707707027789e-01,3.118825073302836648e-01,-2.772049175072019978e-01,5.686305661007318851e-02,-3.603779347678296996e-01,-2.473461877400465747e-01,4.910894969627985218e-01,-2.681025470728534144e-01,5.806300622461582073e-01,8.653670443360717002e-01,4.460757731288909622e-01,1.599280481437950208e-01,1.485369293994209250e-01,-3.960529562671731285e-01,5.269687977605408413e-01,2.055674060928444069e-01,3.374510192172123779e-01,6.489295821054956726e-01,9.245467235684907692e-01,-1.100112841676169850e+00,8.725849883727009038e-02,-1.904782538914575607e-01,-5.081279605503460223e-02,7.460887199182746343e-01,7.189487340389829617e-01,-3.825936561334978836e-01,-8.885547488852724163e-01,-5.441804394449701876e-01,9.370017619182643420e-01,-5.136384926896159220e-01,7.478305060712221453e-01,-2.416908955761741251e-01,-6.423212680370361527e-01,5.353944095374423284e-01,-3.306699137840323210e-01,-1.499627616296455579e-01,-2.538577965599076447e-01,-1.297658063223944280e-01,6.619582121015680221e-01,-3.432445630422893412e-01,-2.634156636370404425e-01,-2.489861203436049830e-01,6.809102278686365306e-01,1.893877085835508289e+00,2.553822178781147145e-01,-3.237870334784219151e-01,-5.357161809549666476e-01,8.643389803049743580e-01,2.132778126674373276e+00,-5.979042268084122647e-01,1.061101410462648831e+00,3.951390847528656325e-01,-6.249926273324349912e-01,-3.188524460769290303e-01,5.554731419878832233e-01,-1.801084325590634472e-01,-3.420952203715840190e-01,-2.132473933803887695e-02,-3.230108648460970344e-01,-1.792337803487754205e-02,3.258288986507362206e-01,1.898538011030910244e+00,-2.235739676117184105e-01,8.124473792502792113e-01,5.617210810312006641e-02,-5.390685438226936466e-01,-3.534791351531590409e-01,8.104905956252675958e-01,2.817812905113436517e-01,7.643155140871184944e-03,-2.536382476325622082e-01,-3.186397048834557766e-01,3.552065093426686748e-01,-1.072794123197626792e+00,4.507192504337341754e-01,6.977127761318022703e-01,6.012339607191782287e-01,-3.545180519864983837e-01,1.250691994571072885e-01,-2.912482502088875602e-01,2.934806020064716359e-01,1.872714876668321315e-01,-1.084482122364755496e-01,8.451091700471266566e-02,8.414821318283512985e-01,-6.653856516560047174e-01,-9.792469601217085318e-01,-6.567185691101374845e-01,-2.318617722495093514e-01,8.496187432835965447e-01,4.488092954609338436e-01,-3.489565298988543951e-01,-5.064396858296790205e-01,4.343709626431146442e-01,2.598613419904995947e-01,-2.919226225667859165e-01,-1.855088962480628545e-01,-3.198455430086923346e-01,-2.395377893102722533e-01,1.148993242759485112e-01,-2.709373973761811105e-01,-1.006808778694122219e+00,-9.053093399364627869e-01,-3.015428181430824250e-01,-2.674789682908895183e-01,-2.101742729851112657e-01,1.889577346247664491e-01,8.377953710818761834e-01,-3.381450933994150088e-01,4.857540291958530876e-01,1.251481459384263584e+00,-1.326532092451968292e-01,-1.983741858099527799e-01,-1.196288428420139605e+00,2.337936808536256739e-01,-1.892236920187508609e-01,-2.646257840352410073e-01,-5.586464357417804116e-01,1.361581330076619967e+00,1.440193487366287828e+00,8.603315892265901432e-01,-2.477615046604706883e+00,-1.290452617989867656e+00,4.007355046229485462e-01,8.327411443559670778e-02,4.420617749723056156e-02,-2.244173453699868925e-01,-1.506525922308012744e+00,-2.781992872655710269e-01,-2.545852045357464011e-01,1.633590365375925946e-01,9.469828804300844949e-01,1.062427872159701497e-01,-3.208657537034892981e-01,1.046842899585010089e+00,1.400841503192656878e-01,1.160078938739147192e-01,2.736624245758912874e-02,1.390194866932114470e+00,-5.171915058255226877e-02,1.241045586039964399e-01,-9.520600584353546836e-01,-3.138068611463536994e-01,-4.273179194229535516e-01,-3.986189744884331976e-01,-3.754864724683052990e-01,-2.242116828206465462e-01,-8.646875635918486180e-01,2.980056639526870374e-02,3.410311450064053562e-01,-2.713912497310811744e+00,2.779416096884859577e+00,-3.223531177406539494e-01,-5.083409931070620447e-01,2.443785490453868614e-01,-1.712515792861866448e-01,-2.355497359342856589e-01,2.330727662231827160e-02,-3.715495553924000327e-01,-3.319178068316375185e-01,-3.235065699065665101e-01,9.482782648234436285e-02,4.730277936448741283e-01,-6.540907881851484307e-01,-1.564920615196426779e-01,-1.404942964108887526e+00,1.781360895199975314e+00,4.041925759184245570e-01,1.128308116780273540e+00,-2.964282573744272398e-01,-2.715419461644711929e-01,-3.764292515647253978e-01,2.989157379007501558e-01,4.215765529588549887e-01,-7.594400120808062482e-01,-6.425722965754711302e-02,-3.373101331739631337e-01,-2.427408403817592208e-01,-1.137140509535489841e+00,-3.950864680641817950e-01,-7.463314660932119926e-01,1.647180983253699327e-01,8.088708498606823893e-02,-5.944697481158797148e-01,-2.873221618938372468e-01,-1.019138240871435785e+00,-5.127195440839685814e-01,-1.930588181372341894e-01,7.416141263412133755e-01,-7.211180434011017493e-01,1.858452121681853364e-01,2.127514406843768469e-01,-2.628152071730925354e-01,-1.427689323249009989e+00,-2.163653177415791051e-01,2.636692683868955833e-01,-1.026972445188230498e+00,3.411686792494638132e-01,-1.690603992907850628e-01,-2.324051982032795116e-01,4.314922426127016375e-01,-2.562646306225297432e-01,-2.846746721682585357e-01,1.373060389655856306e-01,-3.972050897010405701e-01,1.298138142447568200e+00,-4.801407990608887455e-01,-1.082523067741763823e-01,4.542837856406894415e-01,2.893912926279912368e-01,-1.065380455743740185e-01,3.726027678590438375e-01,1.574187130042025984e-01,-1.242986769553958704e-01,-1.327269197630144504e+00,6.640270269444377149e-01,-1.239034796958843998e+00,-5.775129484175831607e-01,-9.534907290618239717e-01,-1.364168426577972104e+00,8.119268142755365902e-01,6.025556251140343766e-01,-1.218918415063868499e-01,5.788357797550800488e-01,4.195503936974103176e-01,-2.089071995316488795e-01,-3.802200235190327793e-01,-5.779093020971842742e-01,-1.292287274966079647e+00,-5.955886801241860873e-01,1.632919833299109336e-01,-1.222160945752934491e-01,8.788261871165454764e-01,-8.276916631279768177e-02,-1.658196063481177651e-01,-2.204321602945323311e-01,-3.553145652611589544e-01,4.259444282900323731e-01,-5.594749020376430515e-01,-2.160228716683261496e-01,-2.425397148175448547e-01,-7.678633604852852512e-02,5.436770259608725286e-01,-1.722668218528063733e+00,-1.639272156172200401e-01,-5.761487334169017316e-02,-2.535937254893633752e-01,4.653741412215315343e-01,-3.126251446531785327e-01,-5.774836652273328541e-01,-3.437780063662662644e-01,4.706342550646076123e-02,4.983617794408575219e-01,4.686722655679220195e-01,-8.913256015637253948e-02,5.444411731674305560e-02,-9.875962520134272393e-02,-1.338313394447533389e-01,1.235545127751105365e-01,1.046143287172850572e-01,-6.173709138873006985e-01,-1.973352692218570237e+00,-1.300978166740799358e-01,1.273195401048190734e+00,-8.313677601894106095e-01,-1.103105094403081105e-01,-1.017969328532523088e-01,2.479819360119165095e-01,4.173470203504907605e-01,1.055713696063776547e-01,-6.747944198350581957e-02,3.632189197691871319e-01,2.101379567398390102e-01,1.515402420080749490e-01,-4.109838825918330496e-01,-2.295299489193912135e-01,2.742627818904393999e-01,2.582113524626634266e-02,4.758375613828773332e-02,9.300369004565718634e-02,-7.988314030641709973e-01,4.970899743490799771e-01,-1.931100148420024087e-01,4.932980688076888387e-01,-1.424594376170217613e-01,2.429586454074381119e-01,-5.845886288367731221e-02,-1.104893150205527252e+00,-2.402383135009229786e-02,-1.801114230529753113e-01,2.217630064571022852e-01,-2.060408880356492112e-01,1.846761549055603580e-01,2.323556748798693838e-01,-2.166333992238672068e-01,-4.160265134281770916e-02,7.726823657042805604e-02,-3.275930761961700077e-01,5.939119092097191466e-01,2.428904809828420497e-01,-3.544196724914843721e-01,8.348799108823792836e-02,7.305661788150021874e-01,4.792489544499775600e-02,-2.173484028834045401e-01,-2.790902567724150019e-01,1.011164125043257783e-01,1.831922500376251539e-01,-9.975172989836589288e-02,1.132770243384960462e+00,-1.182184937509519029e+00,4.134269698099722889e-01,-2.756482158647794445e-01,-6.037297554484947204e-01,-1.066797474599937789e+00,-1.702696607919901295e-01,-7.739880723914864813e-01,5.447765193178583099e-01,-2.799903496844926121e+00,8.673410316125498842e-02,1.471565137904345955e-01,-2.254193551684298413e-01,1.876744691333268156e+00,-6.839994318587357125e-02,-5.790017747389534231e-01,-1.160432732573927900e-01,-5.182770540218448185e-02,8.719010600334653471e-02,-4.872360221778668787e-01,-6.392439474692235279e-01,5.894976429686947517e-02,5.215288080528146519e-01,-1.612753138410924769e-01,4.980867251710172638e-01,2.135848027806128702e-01,5.987266091567855497e-01,-8.915237650981957529e-01,-2.335401855665578397e-01,-3.448094920062036439e-01,9.353730084801848976e-01,-3.506888126213674184e-01,1.315690901504750626e-03,-2.604263973152995404e-01,-5.409144660483287126e-01,-1.405490951184523163e-01,-6.412740507771833368e-03,-6.677012303963907047e-02,-2.378472220685080574e-01,-2.356920326078204564e-01,-4.676168081304959284e-02,-8.382794330824608897e-01,5.325265801618053185e-01,-9.329282536772277867e-02,-1.081544392412228550e+00,1.470655826236171859e-01,-1.707127429673923613e-01,-4.821397052202796019e-01,-9.037246311510090946e-01,3.337483696641090763e-02,-1.075734849637510759e-01,2.497696382139839688e+00,-2.623488836416566716e+00,1.710309300233138430e+00,-2.947701429491649816e-01,1.243692518460798174e-01,-7.072585391703527513e-01,-5.765453155510814609e-01,-4.703671023638282822e-01,1.679042468692794055e+00,1.602693336947632052e-01,-1.461942362084457103e-01,-1.714764550367886276e-01,-1.366233091537046640e+00,-2.058573893185580359e-02,1.106181858431335652e+00,-4.058751469282484425e-01,1.038158875475203059e-02,-9.876069289550365449e-02,3.005464211023513646e-02,-3.710681585544250982e-01,-7.693574830213682769e-02,-6.498642782566353693e-02,1.059859509839237990e-01,1.436933806538857938e+00,-3.143495162658361819e-01,1.436123701032626376e-01,5.386748343352408819e-01,-1.757573494171095208e-01,4.538560097986076292e-01,1.710142201043293175e+00,1.099578666978386909e-01,-7.710984207243337663e-02,-3.344260046614813131e-01,-5.011565245048497097e-01,-3.343549255707123358e-01,9.387220781388991853e-01,-7.533714069897143872e-01,-3.150129979407303299e-02,7.375519730715485167e-02,1.034349120751552886e-01,-1.625030423807931168e+00,5.883369550941408566e-01,-4.352165328888811802e-01,-1.237123177246231796e-02,-2.130063099432925322e-01,9.879710653706157142e-02,-1.135988847844233290e-01,-2.642266216010427660e-01,-7.371720821559753223e-02,-1.734023343418419905e-01,4.188586823548881566e-01,1.220435962277597848e-03,1.030135559206124540e-01,-4.367680225059570320e-01,1.733632388544565361e-01,3.194148352155991577e-01,1.732828998960129541e+00,8.319922921662827875e-01,1.109252288294645394e+00,5.830200234882964433e-02,-3.468425183905285980e-01,2.523088698216470749e-01,-1.018335610338069186e-01,8.099831334644359560e-01,9.785367034192868907e-01,-4.365974152743896664e-01,-3.779165789289757882e-01,1.079592392952525431e-01,7.911910547053421089e-03,-1.081384030362029652e-01,-1.086707505841904148e-01,-4.082131126518870334e-01,-3.286575591174122346e-01,6.202600531740350975e-01,-2.257904338823752410e-01,-2.433631412931467064e-01,-2.577186200131347249e-01,-3.123814603336359519e-01,9.554690741182865210e-01,-2.388890558273785436e-01,-2.922048266095911284e-01,-2.267363102813667597e-01,-1.779747012650666704e+00,8.974160578945481470e-01,1.921738214491195418e+00,-3.325554793086828997e-01,-1.361671162225918108e-01,4.027569090872823998e-01,-9.073630487022307234e-01,-1.392606578520451999e+00,-1.348623993411204758e+00,5.916708181994873028e-02,-1.481566610250425742e-01,-6.119282010702096208e-01,-1.109508216577717588e-01,-2.362672601235231984e-01,-1.781721159600174464e-01,-2.175923099590070020e+00,-6.197407831655272759e-01,-7.877424551008339604e-01,4.420686839461787643e-01,2.205211850297706389e-01,-1.004858941993464150e+00,-1.537077249946493529e+00,1.686855428838789084e-01,-1.724028582741839177e-01,-2.432943028462464796e-01,1.705204774592151418e-01,5.456494373051039987e-02,-6.012393302534846384e-01,-3.551977104926542506e-01,-1.216217307602176639e-01,3.219898844147768835e-01,-1.736537404023603681e-01,-3.122050124793309678e-01,5.470584520717128862e-01,-2.415357337891483047e-01,-3.662375587865744353e-01,4.290402980102810820e-02,-3.884048573672083116e-01,1.104565397729800474e-01,-4.398194941526938906e-01,-2.761419973954961637e-01,-3.544503846472843445e-02,-4.052699605577396724e-01,8.137892111641045201e-01,-4.707831742906012362e-01,2.086333221538632099e+00,-2.566377262988864261e-01,-2.023917730963263606e-02,-5.557243669570405276e-01,-1.701803589870669597e-01,-3.725701049195784265e-01,-9.753164651130035168e-01,-1.066228980290262252e+00,-2.163354099767193506e-01,-4.007005692057192814e-01,6.768039323486703396e-02,-8.427537532534977449e-02,-1.446734641192808923e-01,-2.651863122587867494e-01,5.710740224779805585e-01,-1.224921569737121185e+00,-8.823280917998588269e-02,-2.275163377577376356e-01,-1.495529836999142104e-01,-7.522814804683480849e-01,2.888261626465740139e-01,-3.069785649657875148e-01,1.502784580496201450e+00,7.097691528258230909e-01,-1.446517832939450687e-01,-3.829213958714993149e-01,-2.513266191570632802e-01,5.360703353371238933e-01,-1.374482318656242708e-01,9.567651718859482290e-01,-7.967457182050964315e-01,5.680566864014545692e-01,-8.306415537861460141e-01,6.380952788497870065e-01,-9.924784521212729471e-01,-8.925087608590690502e-01,1.730994169134704830e+00,-1.430203349691450410e-01,-6.925626611642575394e-04,-2.025333677233087659e-01,3.480607879274043581e-01,-5.897366649272165473e-01,1.606866033177652420e-01,-4.021313152076988473e-02,-1.240278509371552929e+00,2.056828646393411494e-02,-6.279724468256766556e-01,-1.220019340624274307e-01,3.113682302896002285e-02,1.973024038496331567e-01,-8.139022814084140300e-02,-1.941436739621916763e-01,-5.746612704540615679e-01,1.263034244467529411e-02,-3.603491289850453416e-01,-2.784773507953396954e-01,1.104168417297971994e+00,-3.821869142756154081e-01,-2.269527019230167530e-01,-1.279148444877700463e-01,5.103397712414310394e-01,-1.959881293524984303e-02,-1.068522451093654624e+00,8.885098140013248935e-01,8.934653766963033261e-01,-3.344544135286107722e-01,-2.488942031206474448e-01,-6.638432971795858728e-02,-2.469652596280271228e-01,-1.099740299831241663e-01,-5.187390660769505280e-01,-2.457209188435715563e-01,2.939636930645725954e-01,-8.512538563451785834e-01,3.683585257758823506e-01,2.947633953625690140e-01,1.169593012276008009e-02,-1.208387828889521814e-01,-6.833626789903372023e-01,9.249369653401895430e-01,4.447454146135643160e-02,5.161610855265967857e-01,-3.704522633842899926e-01,-3.204254967116260122e-01,-9.022898197441211465e-01,2.383223794443566634e-01,-6.823354280289457563e-01,3.166712514139024236e-03,-1.473662844935017813e-01,-1.302719707736394172e-01,-4.119947527748163418e-01,-7.713225661891629503e-01,-2.459073777556467777e-01,-1.251434637598992927e-02,-3.598824966007156401e-01,-3.595123664818248854e-01,3.023298014804501679e-02,-2.824784271261981949e-01,1.240127996350760986e+00,-2.749399117929349212e-01,4.139170777888773745e-01,-1.118779433472091522e+00,-5.357000505729108131e-01,-6.323946491384059287e-01,-5.390384711912291071e-02,-1.108451909909737576e-01,1.061537539224876259e+00,-2.286161500566061544e-01,4.602772157553362553e-01,4.567145137760562079e-01,5.561734811736068762e-01,-4.047824957264806733e-01,-4.186308054496393760e-01,-2.409106346019347644e-01,-1.491126951302017001e-01,-2.836552833657032813e-01,7.083757138030404021e-02,-3.142754226637536341e-01,-2.302958992373170810e-01,-8.233348315406582296e-01,-4.233202324141894790e-01,3.193318521690325928e-01,2.780727157327781418e-01,2.680823713276815901e-01,3.874859679245984956e-01,2.370610561476029776e-01,-6.141572120770578957e-02,7.332984597985938713e-01,6.215182428554953953e-01,2.919445984462443189e-01,-1.151691729237188877e+00,-1.595881877989225650e+00,-1.772762607973021209e+00,1.348303218842342721e-01,3.320458979956354972e-01,-1.706884672766816047e-01,9.309491399383511556e-01,4.917617142998825797e-01,-2.229115413320177097e-01,-6.604137898524151673e-01,-4.217762184381962376e-01,6.586957215951302347e-01,-7.331843061536208461e-02,8.046216708582510924e-01,1.772010838071689520e-01,8.611097868417676438e-01,1.940351775314634875e-01,-2.830638813012545385e-01,-3.130308786236767338e-01,-4.031098565621342167e-01,-9.781359992792208746e-02,-1.168414835506758065e+00,-2.202675849751069559e-01,-3.143348205639153181e-01,-2.339926617505677375e-01,5.747664487878140216e-01,-2.004514150405791728e+00,-4.325145142026363687e-01,-2.570481215637385186e-01,-1.740235194772056238e-01,1.099891659370133334e+00,4.211841991256075057e-01,8.894763868966221176e-01,-5.451760487155327302e-03,6.073230509464897509e-01,3.880962886353122587e-01,-4.940691302882957991e-01,-9.194369782376959899e-01,-3.637769912221821555e-01,-3.104087623123922279e-01,-1.474763782890849084e+00,8.209117879436328424e-02,1.357414681918744370e-01,-1.833001475314341155e-01,2.206925393503321065e+00,2.460778725088251240e-01,7.973093809949218791e-01,-2.753332030087748961e-01,-3.697298322851878122e-02,-3.858303666182158476e-01,1.359567762746353992e-01,6.070909443299677966e-01,-1.233248827061197983e-01,-9.319594514814946717e-02,-4.326176978557945696e-01,1.933676009992023159e+00,-8.263266407935662139e-01,-7.107930400530704240e-01,1.024535984010023354e-01,3.669575590743391902e-01,6.825465335858238447e-02,1.228768212600699766e-01,-2.501707712394909966e-01,5.196663681460355066e-01,6.496064196395776591e-01,-1.942673931042167290e-01,4.280937620247708963e-01,2.320622411872247659e-01,-8.736784870673332259e-02,5.427853671421556392e-01,-1.333538995967779583e-01,-2.848322161582578782e-01,-3.394583155542885700e-01,5.936104959448949003e-01,-4.208426541591756553e-01,7.789592243118195203e-01,3.397214092218626275e-02,4.718585189986447825e-01,-2.004144097752957043e-01,2.453694788657690140e-01,-2.080565740094832694e-01,4.336849777105997727e-01,-3.980317679329904018e-02,-3.977664007511769184e-01,1.092424026813181293e+00,-1.368641505007071046e-01,-6.483575139691590827e-01,-2.413240420783372142e-01,-3.490943085329803464e-01,-1.167379496490488000e+00,3.200903390242111901e-01,-3.774309106635869715e-01,-5.351033770637637632e-01,-6.013947650409342538e-01,-3.943347329108434773e-02,-2.455605034659228414e-01,9.484242537508028592e-01,1.609989580969554412e-01,-3.116013446696925260e-01,6.642819021431416214e-04,-5.371543572495638408e-01,-1.954373158302444569e-01,9.931223170128667954e-01,5.605279863365195681e-01,-1.913988715394238094e+00,1.504572592173943013e+00,-7.890666860267833149e-01,-1.707786516594581722e-02,7.656496905816660703e-02,-2.972310269533814386e-01,1.690665119831092911e+00,-4.325670252447931796e-01,4.864068213700565302e-01,-2.267621349957403554e-01,8.951114803325733726e-01,1.489176180694921090e-04,-4.739698539146950940e-01,7.774652205049025211e-01,-9.623797804582088222e-01,1.195913677670976671e-01,-2.176404929299302626e-01,3.357683000198938839e-01,-6.652527487364195968e-01,1.893064870430122004e-01,-1.903355255991834583e-01,-1.767638366851549125e-01,6.392415291556102774e-01,-3.095489607018777067e-01,-2.229212231569038249e-01,-1.768066169821472244e-01,8.940363958439339065e-01,2.663668929572442501e-01,4.544363257442507464e-02,-1.186675301982887731e+00,-6.561206064066728016e-01,-2.627624593233559014e-01,4.282495681622661143e-01,-1.644370701943977109e-01,-2.296038544557706396e-01,-6.004654232119140955e-01,4.316709527406171198e-01,-3.760300121771418258e-01,-3.474256371282924971e-01,-1.586822368072472678e+00,1.170793170397211647e+00,1.189117706044123368e+00,-5.121789101290887825e-01,-3.919599782926370679e-01,-1.827525431954479807e-01,1.206067241306987725e+00,-6.366010701499649760e-02,-2.471506255924752704e+00,-4.943819551276670832e-01,-1.816398662209034454e-01,8.281629086515698290e-01,-2.732252851783362191e-01,3.415029628177506105e-01,1.250264841292098250e+00,2.789076122306698505e-02,-2.880450055782806107e-01,-7.473629962911828573e-01,2.470333025590395193e-01,-1.418223019353612724e-01,-3.142807544675902398e-01,-2.875644232109048071e-02,-1.214884804038756927e-01,1.280496264333680356e-01,1.060749932361533948e-01,6.859134627987299726e-02,-2.346735879915497897e-02,-2.831238491473387353e-01,-3.569337943338190544e-01,5.676624956945016676e-01,-2.488887641910597637e-02,-7.909171473909618055e-02,2.771175461730773434e-02,4.891946726018979730e-01,-1.413325524474446926e-01,-1.513004779313908976e-01,9.730691372643390791e-02,-3.463355111804586328e-01,8.152980278065137532e-02,-8.643448836834091709e-02,7.483249732760971495e-02,-8.701734082139992443e-01,8.068011781177783850e-03,4.733925182852229130e-02,-1.942231685719201725e-02,4.858093701049284174e-01,5.122497883646395106e-02,-2.553808869122378700e-01,3.058865543312619950e-01,1.021654386504625978e-01,8.233898305799980388e-02,2.416893342693717250e-01,-2.909971661098106899e-02,2.547579817564475657e-02,-6.423349005248158994e-01,4.173761535933821487e-01,1.046031829169939871e-02,-1.215456298876090163e-01,-1.053514098588557379e+00,-2.857924134218904899e-01,-2.696049539231442083e-01,1.162638307712869079e-01,-2.384502393891303404e-02,-1.199480669407335443e+00,1.015089929955719089e-01,-1.020746080365429881e-01,-2.226271901381568219e-01,-5.357108773465277807e-01,2.487494192560470718e-01,3.370671394009591149e-01,1.079133090594074640e-01,-6.432440699112312865e-02,1.042747826514008463e-01,1.586031575607927888e-02,-5.549571347865213389e-02,-1.546180833316750103e-01,-6.075445863036457728e-02,-4.893168281273256592e-02,-1.917942344903382224e-01,-2.459321626091568944e-02,-3.563840849560911614e-03,-6.261487414208088444e-03,2.479531163464084031e-01,3.096682684179805634e-01,-9.704303003202806310e-02,-1.014671448837779905e-01,1.483936064329972049e-01,-3.678828079992623734e-01,8.827548094682374780e-01,-1.071157109043458233e-01,2.314862154591522669e-01,-2.427159444648807063e-01,-1.832549537616383895e-01,-9.614579511386098232e-03,3.444165333742774671e-01,-6.793011188517986132e-02,-1.885428089131035989e-01,-4.526995273718357748e-01,4.500477993963677981e-02,8.579372377981278608e-02,-1.608109141315231805e-01,1.167343447803063927e-01,-1.695886136733983363e-01,1.299251840600317565e-01,-6.584461597115939258e-01,-2.475948120733146521e-03,-9.325178182655391446e-02,-5.152240799095270801e-02,-1.699732519253700058e+00,-5.790424255365117512e-02,-4.708387960795133026e-02,-1.248550549467661447e-01,2.821194011270931890e-02,-9.237006982550209633e-02,5.454523672401380141e-01,-5.297708680436383766e-01,-8.565726956217682708e-02,-4.518689085362962987e-01,-1.107258916885612947e-02,-1.655387992238564476e-01,5.522744361587397788e-02,2.692430210760841103e-01,-6.252644189559636301e-02,-4.105942048295386226e-01,3.811362733054456386e-01,-3.091101077261651509e-01,-3.228487811844664157e-01,-4.028974950286214884e-01,6.059162669200740536e-02,-4.718401221859472305e-01,7.576030046526568973e-02,-3.127935080598764905e-02,3.196367874244943619e-01,-4.711838587987934868e-01,-1.802170325183496680e-01,-7.308567404151099234e-02,4.585802635491278978e-02,-4.752056137210630693e-02,-2.330908152378940446e-01,-6.243206067031590450e-02,1.613297404125675072e-01,5.499800390124649496e-01,-9.535219462683405811e-02,-1.751351319432300213e-01,-1.258554596812649085e-01,-1.943156716517860649e-01,5.238182271916631827e-02,-4.056254850464663386e-02,5.119037453108485521e-03,1.118862868016264472e-01,-3.248437016807713129e-01,7.521848233375538761e-02,4.642241603839202674e-02,7.599993292174199722e-01,-2.977824101993934922e-02,-1.323964906675595965e-01,1.444499552278172803e-02,4.904497687404964501e-01,2.255681897423813254e-01,-5.656483592592937565e-02,-8.149411964121321406e-01,7.453311579640576889e-01,4.785951103785299893e-02,-3.720759152250388557e-01,-4.610113772673143234e-02,-2.139314584727363897e-02,-2.569223146559526313e-02,4.184145477144221581e-01,-1.752807110553938341e-01,1.161042147945376274e-01,-8.004893997894936275e-01,2.662960622221788309e-01,-9.697336545189159940e-02,1.567188437276237634e-01,-1.847786941935260219e-01,1.269980798403270716e-01,-6.801537175995300832e-02,1.059582873427524358e-01,5.058545126699223182e-01,5.950089949969018105e-02,-8.081931392095760558e-02,4.074036316147382208e-02,-3.541208240430395587e-02,-4.367626462239813934e-02,-8.120066367801784257e-02,4.507310700188929542e-02,-4.954478536888308471e-02,8.490592733223803479e-02,1.219274392497766840e-01,1.306321049317630822e-01,-2.831853918841396034e-01,-2.425784324142210291e-01,-2.204639797998159817e-02,5.084760594854795812e-01,-2.564352426751265734e-01,-1.203773927814786454e-01,2.968582851748334528e-02,1.836115045288027880e-01,-4.780370440149413203e-02,-6.767603277801489958e-02,-6.097116029713858243e-01,2.997782428263905397e-01,1.947068817561902754e-01,-7.811365757065674709e-02,-1.427661468789075128e-01,4.395132988708287392e-01,8.234197614307613156e-02,3.566039700205892587e-02,-5.356664453577563156e-01,-8.710865734903315560e-02,3.601537787018375264e-02,1.321821837592079274e-01,1.527748550396767768e-01,4.569676915406289397e-01,4.501635533860615657e-01,-2.881336822775865114e-01,-4.134094107517333888e-02,-7.402359611525658467e-01,8.435588981910789597e-02,-7.177479872247076453e-02,-1.450536340685987802e-01,-1.091614345463974844e-01,-7.657035274349711929e-02,4.571154145922369794e-01,2.298324098234296939e-02,4.541549448790873078e-01,-4.632935025046970856e-01,1.114986489238390527e-01,-1.329623927513564341e-01,7.884242167716538907e-02,-5.473894449399042267e-02,-1.159647350678291722e-01,-2.348440473484270374e-01,1.214136570588346120e-01,-6.653259021691985964e-02,3.770415442339710155e-01,8.677478526255858471e-01,3.443698910404674463e-01,7.073029569843573838e-02,-5.928667634434152678e-01,9.668293900950034048e-02,-5.913510727707471659e-01,-9.123006107932651876e-02,-8.624035167568551430e-02,-1.014553991952329287e-01,-5.492176433739737185e-01,-5.681836959135108112e-01,-1.285996490504847933e-01,4.480679589216248204e-01,-3.063960671270374303e-01,7.200525718402886466e-02,1.389934354342125256e-01,1.231512727495890913e-01,-1.819814866945376475e-01,1.862228903861955828e-03,9.584655176872428073e-02,-1.361740479304320850e+00,1.635861144488929719e+00,-1.639107908218834231e+00,4.773805984011365022e-01,-2.571484187254112763e-01,1.077460208263888997e-01,-4.701005745429757271e-02,2.997105058889251161e-01,6.342932129145082421e-01,-1.902945206323191085e-01,-2.708592269772011618e-01,-4.957918419776397023e-01,-3.646021041144006380e-01,9.020703114279615686e-01,8.832845494131504882e-01,7.052453782484574552e-02,-6.447797028024311317e-01,4.706556294521587192e-01,-3.034305736547887045e-01,-1.139988829483340183e-01,-2.449599313193489558e-01,4.801747865309614893e-02,-8.355682897322923575e-01,-1.111463581994624333e-01,-2.849464658092309421e-01,-1.677348568476076107e-01,2.990047383134832870e-01,5.402993253208299151e-01,-9.158522653709093575e-01,-2.128363020768077873e-01,9.294440606033690933e-02,2.934387417015956734e-01,1.865809879115590153e+00,6.221086656597527575e-01,-9.820954119370135516e-01,-2.838378103816596276e+00,-3.821257126249805736e-01,-1.114751883421571055e+00,4.445985856870093844e-01,-1.320627117777790072e-01,-7.845822276298550224e-02,7.657149404930918557e-01,-3.262288758892470941e-01,3.392230698503477526e-02,-1.246399113502880907e+00,2.840305339738487533e-01,3.141179705086942220e-01,-2.264217922156887552e-01,-6.019287836637373657e-01,-3.613370359832605572e-01,-1.653742452972854771e-01,1.217236500783380609e-01,1.508409049606642682e-01,7.271569674365040425e-01,-2.301982206998542391e-01,-1.833982479158622059e-01,-9.685690369889983220e-01,-1.329360313032580398e-01,2.552970598497917784e-02,2.022400499082899206e-02,3.483863636034865707e-01,-1.641703336726619555e-01,4.556042729525228846e-02,-3.453742194820104694e-01,-4.664792999886202551e-02,1.071761497086271830e-01,-2.297299839876326133e-01,-2.711551522784232948e-01,5.679705728733875914e-01,1.392741729538691242e-01,4.327522981613530773e-01,-5.637052822758747972e-01,-2.925758193164038068e-01,1.214738407383089414e-01,2.424232339249730861e-01,-5.362079644094532027e-02,1.024157491116808316e+00,6.131224825715456683e-01,2.358781772027782053e-01,-1.910085247766963798e-02,-1.280798474766099149e-01,-1.233393301852384327e-01,-8.667260936727760878e-02,3.513056336143213221e-01,-1.737789985554526739e-01,-2.153313874213090562e-01,1.455988912748224229e-01,-1.106482335847375209e+00,-1.623386778041819856e-01,-1.423617599508713860e-01,1.978951935815635721e-01,3.382454205461875585e-01,-2.396430649104040744e-01,1.142116286893799654e-01,-1.071647167384815136e+00,-3.946080604863732022e-01,-7.559967561003297365e-02,-8.682100297060715288e-01,6.693321975134973456e-02,-5.111444520646334783e-02,3.599922358909718456e-02,-9.468559099214836350e-02,4.375709084341246058e-01,-3.055431188535137621e-01,3.799728541668423443e-01,-1.150244778929197409e+00,-1.205485586402515845e-02,-2.348757291082589349e-01,-1.830303087527560268e-01,-6.798857076655458187e-02,-1.283586829776960092e-01,2.977776700506833962e-01,-9.921364006856060735e-02,1.263956390117669248e-01,7.381562915408071412e-02,1.497647042675572138e+00,1.053526928233481166e-02,-5.851439458554315021e-01,1.209187599849330885e+00,-1.019786109571830385e-01,-8.087263456323639382e-03,-2.436285012535328032e-01,1.495392910462272906e-01,6.349139203899409889e-01,2.137938311613064510e-02,-6.065931415629133988e-02,-1.564948810819841440e-01,-7.819045590366448251e-02,-5.682992925850958998e-02,-1.725800456658746207e-01,-6.337421682725576100e-02,-4.748780660865491998e-01,-2.800957087876027596e-01,-5.542122407265173134e-01,9.718887586182569649e-01,2.499853010351167915e-01,5.912724216544706056e-03,8.388150050976719285e-01,-2.866097639820904264e-01,-8.316484398298129577e-02,9.405808415694534297e-01,-2.324425149071065733e-01,-8.606270627134800233e-02,9.650354663332640082e-02,-2.139960149917891352e-01,-9.930786486770333266e-01,-1.095091489167176579e+00,-1.025510690131793967e-01,-1.324409699363839898e-01,-7.058508970121881720e-01,1.612097384060874050e-01,-1.406530317372290118e-01,-8.127545653362266975e-02,-1.849410055762840399e-01,-1.615587735551520798e-01,-2.802038823688116076e-01,-2.459300242757729849e-01,3.237687855740097875e-01,5.803018731227735927e-01,-7.345694985868087001e-02,-1.030971714414234547e-01,-2.023557231636234632e-01,3.669276167695771917e-01,-2.505348645502757932e-01,-2.438823174792265902e-01,-2.184507543188668466e-01,-5.731000505092697685e-03,-3.364771839940358666e-01,-4.446129445299722843e-02,1.218405352165862106e-02,-3.075174062077369874e-01,3.336429341524101422e-01,-4.501609261703236053e-01,6.074601793902464353e-01,-1.564075897390281300e-01,-1.538527401810360629e-01,-1.575068019849268086e-01,8.587691456788334454e-01,-4.126377432656488237e-02,1.734904988566447759e-01,1.140906043859048813e+00,1.858532107178836879e-01,-2.110292441024289312e-01,4.677147785652784745e-02,1.448667674402129568e-01,-4.264837118391580084e-01,-1.938215729264466669e-01,8.360041580807442418e-02,-6.578331346181232053e-02,4.146610923863053300e-01,1.678329997700378773e-01,-1.641184788740442657e-01,1.230501426627620853e+00,-1.857897960841193088e-02,-1.195934231992258789e+00,-2.959272800728161013e-01,1.163496521755742405e-02,1.010413406069441272e-01,7.525317339753556656e-01,-1.288228652586437262e+00,-5.373971887498197875e-01,6.179321274145550547e-01,-4.919408286346597103e-01,1.980358032783639255e-01,-3.539354619208157082e-01,-1.628738050327630102e-03,2.993866534891901909e-01,1.319745865126753959e+00,-1.776974612839976153e+00,-5.771540498890640608e-02,4.622451873755254598e-02,-6.723752488064594912e-01,3.843344131124326046e-01,1.315311564356305363e+00,7.907288922143568266e-02,-2.548696068204132081e-01,-3.351033456847088976e-01,-2.050324619240727342e-01,-7.894635062049037977e-02,-1.397932992234016680e-01,-1.101954623770532299e-01,8.730170914231594193e-02,-7.057336344737672462e-01,-4.680923649589079777e-02,-6.559539937138891830e-02,-6.635330822244084326e-02,5.447456037637760096e-01,7.803108841970430865e-01,-2.049103918062021024e-01,-1.319715246189284430e-01,-1.121469600897472343e-02,-1.591684797056710954e+00,1.822860696169692707e+00,5.450910596697809973e-01,-8.104836921254551241e-01,-2.208632091240165518e-01,-1.890162903537215833e-01,-4.607740788338828275e-01,-3.462841329531390899e-01,-6.461255628346890267e-02,-1.485253435495594576e-01,6.390997684825695524e-01,9.018242719037061761e-03,1.007545142083997591e-01,5.184513646357584715e-01,2.483630361440971601e-01,2.947121217865145137e-01,1.161265997391784655e-01,-1.817114920467302608e-02,-3.343388139183136026e-03,-1.700491748018699914e-02,-9.171754073310285360e-01,7.524150760458388210e-02,1.180004959166949391e-01,3.500046048328786519e-02,6.700680508722454964e-02,1.457621908331179661e+00,5.338299895842754106e-01,3.204891801355013170e-01,-2.930830818264432147e-01,2.190637329403446187e-01,3.434942550502567693e-02,9.685066018026576573e-02,5.770776345678720748e-02,8.820825204173876610e-02,9.972231060255380697e-02,1.203984188891424334e-02,-1.793644260600869345e+00,1.253847707084051022e+00,-2.135536542595328768e-01,-2.413532071976534632e-01,1.114912307620866266e-01,1.115243543739646501e-02,-1.446886115297215447e+00,7.276544554103685503e-01,-4.967479409479076680e-02,-9.467303459474570027e-02,2.065112172202222540e-01,6.340399501802772286e-02,-2.419971603799063453e-01,5.602743096518040394e-03,4.606624655197804480e-02,-6.990063434988187385e-01,1.071819555358300535e+00,-4.472731320131165256e-02,-1.674982233712549728e+00,-1.339453114003317902e+00,-6.427512709201784746e-01,-1.009153941107773372e-01,-3.886097482690115817e-02,-4.284974406577742312e-01,8.218954167010594780e-01,2.363571462603423490e-01,9.123115841167793727e-01,1.195343790195363409e+00,4.899728716541911638e-02,1.634081841473415952e-01,-6.603268313095934650e-01,4.171066163372219027e-01,-8.289463603103332245e-02,-5.746204795632521567e-02,-2.545854983670890054e-02,4.229040475788955478e-01,5.721347662798866862e-01,-6.815320005868229503e-01,1.364044437187032166e+00,1.784546112063213064e-01,-2.390560875547706465e-01,7.097344429650366548e-02,-6.774152861203951159e-02,-2.705057826401036092e-01,-1.045454875643496484e+00,1.111510013021044241e-02,1.439568812071718718e-01,4.277319838198196944e-01,-2.148815991868010256e-01,-6.798875528221184350e-01,-1.126693513434257499e+00,3.986912437557372235e-01,1.144356476821395685e-01,7.034334425931942913e-02,-6.783435241893851289e-03,6.456096280541044896e-01,-3.531653596578102072e-01,2.717908036947040695e-02,-1.061699051360141866e+00,-1.142718399443836130e-01,-4.684589770973133227e-01,-7.206019924783385600e-02,-6.205827991183018172e-02,-2.629403919330522768e-02,1.416469485560728214e-01,5.950758804302146154e-02,-4.441776828458492421e-01,-1.105883450234656229e-01,-1.319063200184558970e-01,-1.427697398231999037e-01,4.280418274690130920e-01,2.468017009692497765e-01,-5.079648463942387782e-02,-3.637389001653423826e-01,3.032186648771373338e-01,-6.266529356121594563e-02,1.424423789104354299e-01,-8.467159136897420835e-01,1.890228261942810128e-01,6.436468241842074889e-01,6.748729322038905278e-03,-1.140790710839517386e-01,-4.540712072900825458e-01,-1.563976315540828832e+00,1.557560896915728688e-01,-1.477437962353917722e-01,-1.319633052958875397e-01,-6.289750540583918803e-02,1.290979753194685387e-01,1.099793908545448673e+00,-6.535228116598515435e-02,-9.681124859043213626e-02,5.322504083903984579e-02,-1.597298441060432950e-01,-4.566023715834790640e-04,-1.453270241355547387e+00,1.258676177237879334e-01,3.549137255769180821e-01,7.985191152062866282e-02,-2.321075191522798190e-02,1.387229398063022194e-02,-3.134429153382359105e-03,-1.270643781254822802e+00,-1.916340742535700969e-01,-5.957159550123574537e-02,-4.525399488652094571e-02,-9.066269821102806992e-02,6.455747558492988536e-02,-7.469216733582459411e-02,3.319984738326257206e-02,-1.961129709844140062e-02,-2.309703932488634242e-03,5.864579573906079091e-01,1.165218176692342095e-01,-1.186615877030937488e-01,-2.597382078991838927e-01,-8.252571455314482163e-02,-4.714779259324279603e-02,-2.908826310270640203e-01,-1.622398861048624311e-02,3.360280396442071049e-02,-2.898365003800367542e-03,-2.093213743348565081e-01,-1.621709015990343561e-01,-1.386144692339263129e-01,2.904914740581179822e-02,-1.714300015062416027e-01,1.540365590532596918e-01,7.913424968674981352e-02,-3.916759081762687805e-02,-1.133942814072036454e-01,7.370913966232908732e-02,-2.320502387611811657e-01,1.214693670072520687e-01,-1.024460346082402218e+00,-7.592331140687383351e-02,8.032465586813600233e-02,1.044679860623831807e-01,2.463883092168295819e-01,1.478610770638925098e-01,3.120408061775161168e-01,1.149008709001507200e-01,-7.167640581234301089e-02,-2.728311384051276822e-01,-2.979793295479939430e-01,6.696567473955419673e-03,-2.371454667615376100e-01,-1.455351086176426834e-01,-1.974515248274353041e-01,-9.931083143394844881e-03,3.135994053437814871e-02,-2.388172617661083602e-02,-5.939713042992998682e-02,3.246144041116120343e-02,-8.662552970701739574e-02,1.767446646025776780e-01,6.908580199475013173e-02,-1.457483237969892376e-01,-6.027180631255830284e-02,-6.515037696169856396e-01,-1.067371498358332893e+00,-2.910816303307232622e-01,-1.371633419051290553e-03,-1.054835654234907716e-01,9.664940897458437763e-02,-6.785711596090804321e-01,3.027217784552568292e-01,4.407015227137471847e-01,1.414573557449448349e-01,7.063179693929395597e-01,-9.114775366699160442e-01,3.048914207528801712e-01,-1.728596809257071654e-01,-2.114873336831438466e-01,1.969137697220766370e-01,-1.435254698367894044e-01,-1.022151940662435338e-01,2.026442527391798809e-01,-8.181551408206841902e-01,-3.161402988099725753e-01,-8.310337205378460768e-01,5.555276301463878408e-01,-1.049224312294083084e-01,-3.486784825702844010e-02,1.220435621450899760e-01,-2.362037437427474407e-01,-5.624932574302270449e-01,-2.339259981635145522e-02,-6.970455262000367982e-03,1.230437384864642089e-02,-2.253615252978260763e-01,2.540044328238999505e-01,-4.060326585406023869e-01,9.076757447071348572e-02,2.268167480690786234e-02,-5.912134637584862129e-02,-1.073946213425574642e-01,1.092260375744170259e-01,-8.386888138022149386e-01,-2.644090862173931189e-02,1.114921383765655333e-01,2.045984129968131116e-01,-1.229139040358384442e-02,4.872177932438918613e-01,-2.380695835232720936e-01,6.430259275028272527e-03,1.032595995247603121e-01,-1.454886078453124232e-01,1.271443250838153773e-02,-3.530905792735650750e-01,-6.785827957194266735e-02,-1.547592044850342741e-01,1.778022809940389692e-02,1.455778315440777182e-01,-1.776095105550643816e-01,-3.149843586634231141e-01,1.642914057723760812e-01,9.880364408840558443e-02,3.508003274887033229e-01,-3.882939792852751482e-01,6.268204912577329813e-02,-2.357536285886974170e-02,-1.062600364329822217e-02,-1.576049071447714056e-01,-3.071919352597784481e-01,-9.566378646921812334e-02,5.190016710864147481e-02,3.836101670090031474e-02,-2.344368705650821949e-01,-2.876938106445961138e-02,-1.396419366656137251e-01,1.762859370063174780e-01,-5.256384324916964917e-02,-2.990494588497764061e-01,-7.738169602322144680e-01,4.052272998681771821e-01,-1.269072862086898790e-01,-2.396548376365714023e-02,-4.348806504339260970e-01,-4.269968539178342071e-01,1.601793260601901830e-02,1.554261188268392657e-01,-1.123636818637858970e-01,-1.130614218812118904e-01,1.367413518236577086e-01,-8.488258407053578605e-03,9.327375315700676683e-01,7.099689795597661224e-01,-1.625354811769092189e-01,7.176498073781385767e-02,-1.264065230263404782e-01,2.311705501812504338e-01,1.924476823329252795e-01,-2.138339610316635775e-01,-5.554998133966685542e-02,3.784532716481479042e-01,3.393609231311953828e-02,4.695071835852718083e-03,4.892385925380418055e-01,-4.689951565340333417e-02,4.683766506746126629e-02,6.422820316530550300e-02,5.861150880137185049e-02,-7.086534769430870295e-02,-3.156995014748657513e-01,6.624947427697773505e-02,5.973518531127621767e-01,-6.372658056033887464e-01,1.420999152109850838e-01,4.145887576705338529e-02,-6.207197943088974545e-01,-8.315857126382034115e-02,9.228112329969385269e-03,5.768112599134016250e-02,-1.891191598940815399e-02,6.621958539739285221e-02,-9.684213676898885403e-02,-1.271061445212116892e-01,-3.341370429923927188e-01,-4.583953654898068053e-01,4.066717476752185895e-02,3.135434658988935780e-02,1.067424117707116149e-01,3.724686128887518266e-01,-6.549770630843977648e-02,1.547794467491002690e-01,9.280861605329809860e-02,9.890733146068905746e-02,-2.155385581326249855e-01,2.871988696809679165e-01,3.380647690064342847e-01,5.857693104113094185e-01,-3.167591196297481204e-02,7.448269766271113645e-02,-8.404295145255576971e-01,2.111943160959022237e-01,-5.968448316823582456e-02,-6.858590036671240175e-02,2.081708224592107581e-01,3.021514856202110466e-01,-1.580803901667432454e-01,1.648360978968314017e-01,-1.084165630419083648e+00,1.101547041250195758e+00,1.975921613702690538e-01,1.086296821053778894e+00,-5.123402363987097363e-01,2.142661070279789914e-01,3.133707835553040111e-01,8.712463118255733829e-02,-5.052256503115403197e-01,1.704733965441053711e-01,-1.115289965432992858e+00,3.641640617797323176e-01,-3.720965592819420742e-01,6.011975456370112214e-01,-6.120713226443729171e-01,-2.820395993940949531e-01,7.893612469025512723e-01,-1.404494226355881281e-01,-2.774867023926358978e-01,2.131519974007047881e-03,-3.677220228194774676e-01,-3.054602960008225843e-01,1.912933282305150084e-01,6.153549520189544042e-02,-4.276287937505924841e-01,2.637387149666478026e-01,6.437000881972725352e-01,-1.366912202482394034e-01,-8.665269706965272878e-02,-5.358439146064396946e-02,4.388961438718381736e-01,1.578797382593025989e-01,-1.062712381617760160e+00,-4.154172734187967508e-01,-2.623171153903126052e-01,-4.121541128941198506e-01,6.870056001561757053e-02,1.460620304167296324e-01,-5.680801791029120862e-01,9.633818759592277514e-02,1.499750233438507663e-01,-2.148801573660688302e-01,-1.283963856941632842e-01,-3.529135177113583710e-01,1.268571779531801891e+00,-3.775116520243257945e-01,3.564425861048708868e-03,-8.732117992972290299e-01,-5.066902417754994836e-01,7.975856232048622423e-04,2.504452158604554279e-01,1.945133229854583562e-02,-5.277619457136842884e-01,-4.543159519825456377e-02,3.328631397213806849e-03,9.561604572273021962e-02,8.201087767818476815e-02,-2.262626841734844518e+00,1.011164849563652268e+00,4.235899663417349026e-01,1.805918377724762824e-01,9.385481600394800228e-02,2.197613537091679670e-01,-9.524182271497605434e-02,1.007626052525591120e+00,1.105179421478881707e+00,-3.949225744523367498e-01,6.143429299132378008e-01,3.687851634268881074e-01,-4.159533735002932109e-01,1.605311261511298271e-01,-1.095804358324238212e-02,5.927528938323127772e-01,-2.379946292544445618e-01,2.893184849092006461e-01,-4.527860581607427437e-01,-2.565891268826915983e+00,-2.738700827155317596e-01,-1.420914396546184288e-01,-4.954915260636060803e-01,-2.184841618122818074e-01,2.252906688375300170e-01,-6.452245756725233372e-01,-1.154693365540971239e+00,4.904002977598034829e-01,7.927794726469208908e-02,2.347236779987048882e-01,-1.943846031876619584e-01,1.317676514185479597e-01,1.507857963522092892e-01,-1.975433511199881975e+00,3.124916740537259097e-01,-3.581355525618155899e-02,2.505455038465259077e-01,1.522507089935909719e-01,-1.700320094522918823e-01,9.963565622042935832e-01,-3.615533847611573232e-02,9.087298836051077577e-02,-1.171514694786833649e-01,4.140906703528003385e-01,6.014923453761856775e-01,3.812016849594157542e-02,1.045221969789467686e-01,1.533262978675678512e-01,-1.765909750110623289e-01,2.345054898423936385e-01,-7.273085740774982710e-01,-1.375309361420375687e-01,8.345064615731309643e-02,1.063133723413240833e-01,4.604223552530583574e-01,-1.847477543756865792e-01,2.518240621637765631e-01,-5.457969179084243283e-01,9.541514046281103500e-02,6.069744890623070960e-02,1.612444903672046737e-01,-1.124505746434292276e-02,7.595367836863624322e-02,1.606823562714481957e-01,5.925411255565835589e-01,8.000263780037899508e-01,-5.658877114580206091e-02,2.530426133321377752e-02,9.144272840276183867e-02,4.974467667138658955e-01,1.214022230975650291e-01,-5.423312642908101333e-01,-3.153335085700830209e-01,1.447593975013123646e-01,7.636916138156202294e-01,1.521031294883473217e+00,3.577712777945026845e-01,-6.295466317456875904e-01,3.869443214278771026e-01,-1.549847136719972207e+00,7.515087260392668000e-02,-4.604829051538165685e-01,-1.048046302851700015e-02,8.659765632037152994e-02,2.451715723627152441e-02,4.995927735206796318e-03,-4.805009397015239658e-01,5.765683323154255913e-01,-1.088076131959717419e+00,-8.476114327596375730e-01,1.325598947347159939e-01,1.039963611133791488e-01,-3.188407407499235097e-02,-1.110691300336248188e+00,-1.176507457007371082e-01,-2.332449542607427373e-01,9.602878814136689423e-02,4.834410148994913725e-02,-5.086052710356639417e-02,-6.004375000727207867e-01,6.077340752089591125e-02,-4.350797876149858356e-01,1.765225916075862933e-01,1.130646145690868826e-01,1.872447629913358835e-01,1.847753058544652216e-01,4.951020076315344048e-02,-3.087805234629005802e-01,-4.512225704947528948e-01,-4.928699599475001580e-01,-2.411339522592354651e-02,1.264965632572314369e-01,4.050658658458754918e-02,3.002482978572860173e-01,1.971433266168854281e+00,2.982349798891066328e-01,1.724755835024182893e-01,-1.742172285079550909e+00,-5.680551034761425200e-01,2.395351502028517099e-01,-7.544163234506987559e-01,-2.308150665816106062e-01,2.374325347474692816e-01,-7.694458167724524400e-02,4.846596537204200805e-01,-2.798724683727965915e-02,5.101382053122733851e-01,4.726499965683495508e-01,6.824100226203502761e-02,1.309688456132793055e+00,4.945634534660315884e-01,-2.057544667162290342e+00,2.389792883925188627e-01,8.236171997128106936e-02,1.292443059687245488e-01,-2.052163810664310084e+00,2.397210613772872145e-01,3.213390978244316104e-02,3.676659438823356441e-01,-8.013332127388804460e-02,-2.523872262369474817e-01,4.638936840544198303e-01,-1.869215647732548058e-01,1.395842687176990893e+00,-4.004455222880059506e-01,1.297197357946963669e-01,-7.888461245392892618e-01,-9.118061148255891812e-02,-3.161017886417638034e-01,-1.842164067308630915e-01,-1.174191319026425817e-01,6.622257981662537096e-01,-1.571210483156721127e-01,-5.748787172010483108e-03,7.875805220606271195e-01,2.319043398375285059e-01,-3.271558588580895099e-01,-2.892175574201045346e-02,2.922392416957748928e-02,5.229179222421066475e-01,-1.666482918927619516e-01,-7.220008493908511293e-02,-6.450256407345067444e-02,1.185479544690319686e+00,-1.843773211119160704e-01,-1.543006167597382461e-01,-4.666990108330825587e-02,-2.062135957832379914e-03,4.831075012913173261e-02,-9.219355483635895965e-01,-3.919397425850241756e-01,-1.073767121924250612e-01,9.627875088363992973e-01,-9.284062772534739105e-01,-1.083796384136718194e+00,9.188015079705551535e-01,1.058690335013232342e-01,-8.016986048936204368e-01,-3.588379053400745367e-01,6.780226958532254988e-01,4.885895159355738149e-02,7.951013140302652937e-01,4.584438252499998812e-01,4.484221265567390341e-02,6.623828145020732583e-01,-2.227992872158795212e-01,1.414992198091166165e-01,-7.463605926760161768e-01,1.385274112283755021e-01,-3.469852976546024537e-01,-7.496240909972025079e-01,4.325796774152626534e-01,-1.037733024868400800e-01,-1.186603018273242743e-01,-1.471276983999875443e-01,-1.419784362829827340e-01,-7.388127611379916582e-01,-1.971019523390506734e-01,-1.379837714241742008e-01,-9.765270841392334478e-02,2.691154108987571514e-02,-6.950144788703032095e-01,-3.294087711165125665e-01,-1.428493643289578119e-01,3.217376433304667271e-01,-2.070688719140631129e+00,-2.406552166402003978e-01,-9.897497797788747942e-01,8.807069850670230515e-01,-7.210182537601194340e-03,1.094826787826127301e+00,1.742168301090145019e-02,8.102066130031512214e-01,-2.022662673764238084e-01,-1.723105172014463282e-01,1.788900031011407821e-01,-9.777093183035745483e-02,-6.995686326786790428e-03,4.930482488298011390e-01,6.835034675697653217e-01,2.700205656427327461e-01,5.345774187602276850e-01,3.203927696973252193e-03,1.787237178483226316e-02,-1.836138263814513505e-01,3.123427165067355626e-01,-2.459903504760153348e-01,2.269378234361168201e-01,-6.826112174613890859e-02,-3.039382711060287234e-01,-6.786718442554334763e-01,-5.111588686574485285e-01,-9.578421836547790225e-01,6.255319876592112527e-01,2.757449665786696480e-01,7.819164160900339278e-01,-8.277609472952808523e-02,3.836581290509985531e-01,1.074275418083007472e-01,1.014154268133100611e+00,2.255829122740367898e-01,-7.452391438778305233e-01,7.585578314795908030e-03,5.814022904849982520e-01,5.899984019001337510e-01,-4.659633066946090585e-01,-1.101474389197048681e-01,-1.436547711058880628e-01,6.032953450095114301e-01,-2.587690354808987458e-01,-5.197303870209768473e-01,-2.046083590591588341e-01,-8.648096165488969311e-02,-2.193999447467243624e-01,-6.509403630944098351e-01,2.395400152613889888e-01,-1.259359631879606756e+00,2.019087334626460672e-01,-4.382409183476783550e-03,-9.971564715672450729e-01,6.524099439893943364e-01,1.999829977277672866e-01,-4.957142558637871177e-02,-9.452416492469516499e-03,-1.993124077916560710e-01,3.719718228793481574e-01,1.466285007622644965e-01,-1.953639803192374069e+00,1.811624650541559245e-01,6.250249964253427361e-03,7.419069152650506482e-02,4.400742437875392321e-01,-5.547336460846155060e-01,-9.130146912097429623e-02,2.495620598691211389e-01,-4.730416499377012585e-01,6.939633135235797612e-01,4.497454296158537312e-01,-1.326868869411989449e+00,8.657216298670451504e-01,-2.982412999119720132e-01,3.808313393086363297e-01,9.803538896001212644e-02,-1.087090037133430220e-01,-2.118918003251046567e-01,-5.147917468283400577e-01,-9.735336789026570459e-02,-1.040380683364695684e-02,7.026623860911175301e-01,6.462206789707033439e-01,-2.274561350311822550e-01,-5.556848523365734982e-01,-4.785506321789051998e-01,7.388875127165498435e-01,7.023926962046114775e-02,-1.182683749884099432e-02,-2.129911123727078748e-01,-5.811292240519393415e-01,7.913224389989970131e-02,-1.196850842555361227e+00,-1.817330307162885183e-01,2.040742270996837304e-01,-8.689483178516280160e-02,-2.056595183641757862e-01,-1.472604069107986968e-01,4.065954887633110304e-01,-6.317288780385181823e-01,-8.128422193659525785e-01,-1.086656776307499905e+00,-6.500461506640446974e-01,-7.434604097318550653e-02,-4.134568583817903042e-01,4.381796548565218274e-01,-1.804982593014169689e-01,-1.213042874369564539e-01,3.551638443382402338e-02,-2.750094665758242175e-03,-1.656944076302616087e-01,6.955203196921285747e-01,-5.902663290596400492e-01,6.558141383454852980e-01,-4.459052613147309052e-01,-2.705985564456401815e-01,1.463627505744763413e+00,-6.607659637507766748e-01,-7.227450471721078712e-03,1.665940040010695788e-01,-1.236310242850841012e-01,-1.382336760853360678e-02,6.350418731076235002e-01,6.369300772216855977e-01,2.440695641564754464e-02,-4.765025841987005628e-02,3.393778802544708539e-02,-2.004575176541370241e-01,-5.493725023603274193e-01,7.258777766508767160e-01,5.418133749329063359e-02,7.857043199438465964e-01,2.068362124262287660e-01,7.631577187812167706e-02,3.222725984469179683e-01,1.990017313596001702e-01,2.041078334266772099e-01,-2.157074932782205023e-01,1.982123491491470380e-01,1.624822171034862317e-01,8.432004923707862032e-01,1.566608693371976668e-01,8.532165459316268241e-02,2.102290478194217827e-01,-3.094408244210298392e-02,9.536209241600142328e-02,5.465262699801127777e-01,9.063373483643359929e-01,1.316868461851530281e-01,-3.984522191363523147e-01,-5.148771226361856246e-02,-2.002659073808182588e-01,-4.671531285494278651e-01,1.266154911418264639e-01,2.247379205142005509e-01,1.001471601141498691e-02,3.870856314777202933e-01,-8.965395863483860070e-03,7.657911278398195354e-02,-4.241962269323357737e-01,-6.719659010733826099e-01,1.582945228799681470e-01,-7.557023808334183412e-01,-8.077193274739429274e-01,1.255672878708739282e-01,1.969339096453388005e-01,2.884578555366089647e-01,3.930829423177889526e-02,1.476609153519706230e-01,-2.993680075775592697e-01,-3.768247965720306764e-02,-4.245867246412740603e-01,-1.741957377146266861e+00,-4.098332136129957670e-02,3.165799830140847981e-01,-5.828560709966886799e-01,7.253098621329973940e-03,1.609595576927068741e-02,-2.858301481959201196e-01,3.360855242051070668e-01,2.920529443636086242e-01,4.872499713392928200e-01,1.682054160202256857e-02,1.460936436961856322e-01,-5.634475723900825850e-01,-1.316922774951106989e-01,-2.747774588759649785e-04,-5.533143226467671094e-02,-4.743391828908953278e-01,5.044969554971954345e-02,-1.501567691034084648e-02,4.587147558150068277e-02,4.938221182523035158e-02,6.599256088470805137e-01,-6.575266038667445523e-01,4.885941797998981651e-01,1.234168913761409248e-01,2.484025084674784944e-01,-3.439597226724248058e-01,3.672369517173470349e-02,-2.425473757849182788e-01,-4.347137992628825054e-01,-1.595885444509204942e-01,4.656141877490796444e-01,6.126061982372862369e-01,-4.704284110830801446e-01,-3.260076531494435215e-02,7.198041527333619294e-02,-5.018159284433777456e-01,2.864296482172796685e-02,-4.690451803743147380e-02,1.925627282951085373e-01,-1.862183960966250496e+00,5.456945977267900760e-01,-1.321578855857492574e+00,1.695739066383410154e-01,-3.310336137342972940e-02,1.755569502113440150e-01,4.051927709428733704e-01,5.120233034366662439e-01,2.045146955014681966e-01,1.488894130156528661e-01,1.059738990758871680e-01,5.165450469494509145e-01,-2.186366274591644288e-01,1.223125927377178290e-01,4.499874529734893547e-01,2.781811477094738860e-01,9.083788725709257203e-03,1.522259580898251419e-01,4.425652521296627451e-02,-1.167195566688855601e+00,-5.777779707382394436e-01,-1.057956200668531792e-02,3.445989409737748588e-01,3.314706453062951086e-01,4.684087067491855827e-02,1.195115834731251603e+00,9.075586102429090696e-01,1.051161649946137366e-01,3.265714123532499902e-01,1.313067571337551698e-01,2.153477169650336309e-01,-3.703255718453062895e-01,2.727579908799792618e-01,1.137763186966210538e-01,2.356018153571960150e-01,-4.156844501947695170e-01,-6.256073400213953140e-02,-2.136294989042498704e-01,7.773952913310898383e-02,-3.619012331578856378e-01,4.247425402830400931e-01,4.335990461644726457e-01,1.311907620545140207e-01,9.993854469772929516e-02,1.790143096918003218e-01,1.129393653342346260e-01,1.417235069995162987e-02,7.095941872139185924e-02,-9.966526455788057293e-01,7.551081944803735846e-01,-4.657894976542198417e-02,1.781087517586915289e-02,8.497719292814287506e-01,3.918876842270014316e-01,-9.347062122273651005e-03,4.594593975903062399e-01,-6.414004373170364426e-01,-3.345573711538820105e-01,2.522891391542161355e-01,2.209705572145106434e-01,-4.691621845416745762e-01,3.317868454342533524e-01,1.042081958489169624e+00,-4.842881337569186762e-02,1.531764272646762015e-01,-1.832073194226025922e-02,-3.371721542786703107e-01,4.591726966330461068e-01,4.097824792245776671e-01,1.535820477985060106e-01,-7.209480981587519655e-02,3.010144758864162218e-01,3.517657375659632990e-01,2.165622158996842461e-03,3.539289154361807688e-01,-8.620303849031536736e-02,-2.773978145233062589e-02,1.745576177892931291e-01,-1.694746399858379826e+00,1.599894983317089181e-01,-1.582510636789810299e+00,6.279856768556606184e-02,2.032641595133142243e-01,3.022186338165371716e-02,6.098601630504630472e-02,9.098272437909335486e-02,-1.808279255138316999e-01,2.451922467234573799e-01,-1.436080093847361405e-01,2.924348507066462100e-01,4.001172675070706064e-01,8.405601107421410700e-02,7.064562927725955011e-02,7.480426253647780299e-02,-2.178320614325543469e-02,-1.824960252989856202e-01,-4.541761085667878617e-01,1.087020682164375335e-01,1.771519491181425265e-01,1.607294981795624744e-01,-1.609768578182323440e+00,-1.309468249118136973e-01,-2.423524139744840100e-01,2.652111871710116989e-02,-5.230745764240449791e-01,3.161757190607816237e-01,-2.425452405925496435e-01,-1.484905588848183910e+00,-7.659441207249063910e-02,9.174286703846801228e-02,-3.043560185563406462e-01,-9.898438703981150555e-01,4.841291873628007503e-01,-1.080559999620142486e+00,-4.326203478822794601e-02,1.257559936914509069e-01,-3.394903449421565050e-02,5.986311011178127028e-01,1.350521933897850906e-03,-5.541988128956595316e-01,-7.431020153556448793e-02,-1.885634245581235824e-01,8.217684374562486986e-04,-1.720527867344227302e-01,-1.146894671855213654e-01,1.381825607402476785e-01,-2.316894496565431172e-01,-3.903623042302313828e-01,-2.682108568193529163e-01,9.834405695932019187e-02,-3.367067836655041613e-01,-1.857407794154494474e-01,-9.547491832265078138e-01,-1.706651624256021738e-01,2.792319689246990366e-01,-3.979520459822535328e-01,4.349596071193789215e-01,1.429793564378323001e-01,-7.117302653693839687e-02,-1.330201716678620361e-01,-7.603234808946064682e-02,-3.117099277624210685e-01,1.075719239281124479e-01,-1.853810901947177403e-01,-1.319873066751003354e-01,-3.476854597592917151e-01,-2.795329495400594166e-01,4.645235792946924569e-01,1.123686857562804058e-02,-5.469547162450347777e-01,3.490255343457011605e-01,9.807888635457456816e-02,-2.660384067565004229e-01,5.241679020497885810e-01,-5.922906466424523314e-02,-3.172378864300745005e-01,5.178147178741898671e-01,3.064592356188061695e-01,1.626009213357156036e-01,1.735643727145426973e-01,-2.528819702664967251e-01,1.553488879025392844e-01,-2.996514050537449000e-02,-7.820265477382961627e-01,-1.376903777287273312e-01,-5.041643089530978283e-01,-7.550606053168172904e-01,-1.547827939753175855e-02,-6.074217525408963647e-01,-2.525312556321540058e-01,-1.703939559305263918e-01,7.011906859923041635e-01,1.341187748723372819e-01,-1.531353441101999113e-01,-8.768347616557212176e-02,-3.115391960753722267e-01,9.427150563767006108e-02,2.630662743380906554e-01,-2.298756391695798151e-01,-3.488853539950609317e-01,-1.774832180980269181e-01,8.999521315722412707e-02,7.669705755879905329e-01,2.014104472810539503e-01,-2.961296313908480804e-01,6.527373504027186857e-02,-8.406638865475635214e-02,-4.852182592806159045e-01,1.008033832606541336e-01,5.681878054283769908e-01,-9.180916325128267441e-02,-9.853733700792242090e-01,4.698701269034828015e-02,6.465349905791895058e-01,-1.854883909244309792e-01,-9.735490774323637964e-02,3.720492824493717432e-01,-4.208023992280168213e-01,-1.278017777679835432e-01,-9.537741574588375348e-01,2.763326201942783444e-01,-3.808376163952701399e-01,-2.105070470583116776e-02,-1.873140312068800883e-01,8.155954660659721356e-02,-2.541155332944872169e-01,1.413208690554601299e+00,-3.400893673803805362e-01,1.969542893471914469e-01,-1.455478982388518083e-01,-9.206654169966392576e-02,-8.536943703450035337e-02,-3.778084508988343027e-01,-5.676225508511331119e-01,9.209233447974870534e-01,-2.400230748861500896e+00,-6.484615308921783949e-01,-3.936189221152310291e-01,4.649350295538299399e-02,1.359838444109550404e-01,1.011273024618587923e+00,-2.005256348431745383e-01,-7.551150739052660266e-02,-2.128530336482215901e+00,8.374686579379443385e-01,-4.334676711394704895e-01,-6.837725923015466334e-01,-1.484669812006277900e-01,1.038779910065013468e+00,8.985749986249914889e-02,-2.658279931354677328e-01,-8.850299979133363637e-01,1.141447371768181396e-01,-4.714587645457498088e-01,-5.422845193825662907e-03,-1.080708607145393074e-01,1.652828782894703030e-01,-7.558293678245883718e-02,5.288998598836792686e-01,-1.381003280423375584e-02,-1.212187490693782843e+00,-5.825003789044309599e-01,3.701002108643829946e-01,-8.563104015811923153e-02,-2.408782734319464547e-01,-3.258939258514101933e-01,-8.166962830458392164e-02,2.306758521761266209e-02,4.814218571591180607e-01,-3.192036917454941225e-01,-1.024411757991463556e-01,-1.678721602399394497e-01,1.912391700698575225e-01,-1.911572549251215336e-01,-9.647578645302729017e-02,-2.104968134784654110e-01,1.984021031438489013e-02,4.205636172326606692e-01,6.865251037975357573e-02,-5.366242447853641559e-03,9.781465674325147130e-01,-3.193708020992493957e-01,-6.140271342156321532e-01,2.598574580248616539e-02,-2.425187341882686313e-03,-2.022656238660437700e-01,-6.684258891888697485e-02,-2.149679227487054367e-01,9.762572268234770423e-02,8.444654908252401393e-01,3.284118496040417945e-01,2.320711721364550895e-01,-1.626064480119532862e-01,3.838104683413478546e-01,1.160968011211634510e+00,-4.940604215094449719e-02,1.240301033754366150e-01,-1.916263666567293189e+00,2.920041358218111727e-01,6.353327573293977154e-03,-2.948172617989445188e-01,-2.297304160011635898e-02,-1.239137372297047568e+00,-1.232575462887154777e-01,-2.329894129701929467e-02,-5.055096875153822777e-01,-2.390397572929456038e-01,1.104814948060879876e-01,-3.908895329637209759e-01,-1.475458868018981073e+00,1.580054125807335841e-01,-1.785988208919705444e-01,1.114888104934036450e-01,-4.298538648304776194e-02,-1.887409729605293573e-01,-2.550958901856172356e-01,-1.441995468856359652e-01,-2.000666871246438439e-01,-8.146783708612033437e-02,-9.407573811803690012e-01,3.772233576214952810e-01,-3.256138894654934252e-02,1.252930840056023232e-01,-1.852563182616287774e-01,1.320796983248131440e+00,-6.923554159252975904e-02,1.676979613271759595e-01,3.564282534549362454e-03,1.440519430192922501e-01,2.759918522673851776e-03,-4.138084122373228979e-01,2.977668803299146072e-01,4.073009615160896324e-01,-1.332231594943491249e-01,-1.166732743238118111e-02,-2.169924390660870617e-01,-5.969559782076604426e-01,8.040036467342527304e-01,-1.160740319139171028e-01,-4.775477152830044647e-02,9.372013002119277195e-03,3.565714735128097668e-02,8.793712934807690340e-02,-1.120761728393553647e-01,-1.541343605815380435e+00,2.238598277041598250e-01,6.142670951134984736e-02,-4.105734797290045979e-01,3.652344083801617458e-01,6.145496503534095961e-02,-9.817615578546864952e-02,-7.826147342591760481e-02,-1.298720820257462494e+00,-1.480730481596631010e-01,6.523747596191732390e-01,-2.305631545309916874e-01,-5.366888072026995138e-01,4.633252820467040900e-01,6.514981040948637503e-01,7.168152318922059729e-01,-6.417234752740315074e-01,-2.150902804516973410e-01,-1.094026401271214373e-02,8.733740816065052592e-02,5.745570078816679693e-01,-1.351366758947367241e+00,-5.548476286287267606e-02,-4.933036025704903155e-02,-7.240039346573151624e-01,-2.223802170674260559e+00,-1.142651871693658866e-01,-4.039799736232102534e-02,-5.023323012509092050e-02,-2.812213132364116408e-01,-3.513469144578234005e-01,6.285381554949746874e-02,1.501078872564812983e+00,1.072400590533935105e+00,1.014626217284036347e+00,-7.303266890357668073e-01,3.083658782047958846e-01,1.112935518380388789e-01,-3.924713180902570375e-01,-1.854068337564917845e+00,-4.602783313941470958e-03,1.005887434724979990e+00,4.003186687146686462e-01,6.185049851580896041e-01,-1.858202278990599421e+00,-1.276224340654143752e-01,-2.206414092325176268e-01,-1.082507516320470708e+00,-9.397569457154265615e-01,2.059408434922615008e-02,-1.317652228618774735e-01,-1.128136181339890222e-02,-1.393482862595892269e-01,2.042976158834458378e+00,-3.686074291433108496e-02,-5.564432250609992886e-02,-1.652654098825016155e-02,-1.414752370007524185e+00,-1.128770713142231708e-01,1.932716667418898082e-01,2.584287721558413495e-03,5.148729235445592689e-01,-1.598303502051129588e+00,-9.405455570315717218e-01,6.095603498385304686e-01,-1.042692876817947534e+00,-4.417975441765698008e-02,1.522554506151288400e+00,4.435683535514429177e-01,-5.721754495169721899e-01,-1.623173457452657398e-01,-1.143202697571862603e-01,-6.403818351396778352e-01,2.139480145848679515e-01,3.271736977526494283e-01,-1.150177898524460951e-01,8.411074936183731143e-01,1.010035554775220668e+00,-1.519891923233220032e-01,-4.939597333045597088e-02,3.872409785257422410e-01,-2.097893619142656429e-01,-7.417071052052848223e-01,2.387318447818241596e-01,8.386555295753812811e-02,-1.259263118595744246e-01,-1.949826589081074812e-01,-1.253002621117624171e+00,1.596550187701532009e-01,-5.504536588532958907e-01,-2.454576326555356625e-01,-8.204779639817283421e-02,8.199224656709394043e-01,-3.533793145494562582e-02,-1.071554318015280477e-01,2.329006891734590745e-01,2.303057240243820969e-01,-1.970537349688970472e-02,2.009588515457620517e+00,1.570281983784935775e-01,2.414636568171270592e-01,-1.426440433218165937e+00,-3.091429432282310000e-02,-1.660115750991404404e-01,-1.317200255882133186e+00,-2.014395983222860009e-01,-1.081443092225948949e-01,2.944809902393711321e-01,-6.843717159580851028e-01,5.528642055269176181e-01,-2.132307782458806034e-02,1.148862060352388859e-01,4.256064251343237848e-01,-2.354519809702603980e-02,5.045213525536933474e-01,1.212523086124068783e-01,1.157984366383714603e+00,-5.379635676399198152e-01,8.270226432131519978e-01,-6.260837145317064978e-02,-4.717388977700121000e-02,1.556573718779411308e+00,-1.653598116941041793e-02,2.640898551411185666e-02,1.520734614550208752e+00,-1.440924270544147845e+00,2.561074366595345042e-01,-1.105998948242186558e-02,2.445910970756540515e+00,3.342621042276319732e-01,2.420776200999953578e-03,6.386362804627891965e-01,-4.805997254767608445e-02,1.132414277230872762e-01,2.259003006832012717e-01,-6.693994814900086077e-01,7.035890950335458305e-01,-6.824769579554864629e-01,-3.841860380015280074e-01,1.085266221909198109e-01,1.108483795084612838e-01,3.147361082440418983e-02,-2.460566657911391064e-01,1.760408926100430760e-01,8.978522467457884515e-01,-3.311254001949089365e-01,5.952333752606563388e-01,-4.412773190969407344e-02,-1.344107393532036232e+00,7.592447069784296065e-01,-1.749893647774274585e+00,3.331340474987307121e-01,2.428115190357951481e-01,-6.139416096156389280e-01,-1.305458361616659069e+00,9.526358707595519726e-02,-1.810591019829393300e+00,-1.071264703862558759e-01,1.056361870396395952e+00,-1.290176762039996206e-01,-2.248361611348205225e-01,-2.149879906639124982e-01,1.093435904441003165e-01,-4.177760364173711133e-02,-1.990427146015985860e-01,1.127262286359827614e+00,4.057142941185520324e-01,-8.416412178086063456e-02,-5.401652756625678897e-01,2.649624500151037329e-02,-1.350552361061675699e-01,-3.503835528461127224e-01,-2.040107160138406317e-01,-2.066851445942654297e-01,-1.916935918850270759e-01,-5.655470813092288163e-01,7.302920077258814313e-01,4.321958275286078011e-01,3.423159513979163737e-01,-1.920266484786868622e-01,1.059769729884252887e-01,-1.966272386318484333e+00,1.101251556138908502e-02,1.379221417682783835e-01,-2.654685891446559309e-01,-1.485606845652281092e-02,8.988181440036655534e-01,-1.720524415593914336e+00,-7.035407941226233808e-01,-1.180874109944022587e-01,1.229790803196484095e-01,-1.911738811625925683e-01,-1.900618547411612735e-01,1.709450672865358900e+00,1.291527998295520507e-01,1.767094561551228737e-01,-1.220023440667816622e-01,-2.654751061639926135e-01,4.133034827572416581e-01,-5.459291701351112192e-01,7.579092714038739853e-01,1.301636167199498040e+00,-4.964924410900856816e-02,-2.786630445837325887e-01,-1.642636192386556893e+00,-9.545265014092085831e-02,-6.104412196947141267e-02,-5.084050564518319826e-01,-1.019566856714362535e+00,-5.113562347674667219e-01,5.325700680315944568e-01,-7.715117231833801270e-01,-9.093563088157624250e-03,-3.292687808325850396e-01,1.601623762616666835e-01,-2.398872578218825269e-01,5.220459161862176511e-01,-5.234360318174512416e-01,1.146424759273432376e-01,-6.243449785392599649e-01,-1.302874723910509847e+00,-3.957753019647380355e-01,-3.083047055766660605e-01,-1.161323231020181979e+00,7.256555758862148764e-02,-2.050113435320096919e-02,-2.903211012353809628e-01,-7.503597783464698023e-02,-4.797501190169787266e-01,-8.182618428444217162e-01,-2.657395885674541658e-01,-1.882912716852278789e+00,3.506393245529355607e-01,1.165338863859591401e+00,-2.701314807305197796e+00,-3.024957823700369364e-01,-3.834674745534811247e-01,-3.883127644601471751e-01,-6.838120890384322137e-02,1.426422881135513077e+00,-4.434373165868490951e-01,-6.730504963382050176e-01,6.126308787259817645e-01,-1.803897973027915436e+00,-1.772565013503895059e+00,2.551467986272811794e-01,5.460910709570390015e-02,9.873396690572965040e-02,3.650934786610433580e-01,-2.384545201095096545e-01,-3.967638197630110053e-01,-4.312729519370034903e-01,-2.899104530759480727e-02,1.744974551948539565e+00,-4.570231197481743335e-01,-3.714239770482851144e-01,-5.259259976744318221e-01,2.787994133975523758e-01,1.804877463499090506e+00,-1.760455518646413475e+00,-4.199208992672457952e-01,-1.176639081251601160e-01,2.162867342219948752e-01,-1.943837282113875631e+00,-4.919507426667065197e-01,-1.672240984092898897e+00,3.389912204523449352e-02,4.638483353082122340e-01,-7.332018768652730500e-01,-6.293640302829272004e-01,-3.867013152863462699e-01,-8.936047929044671490e-02,1.640373694901638757e+00,-1.609535322029770066e-01,1.135536653362945042e-01,-5.544208807888396651e-01,-1.330689926807778090e+00,-1.095351437195511535e+00,-1.246799489283433038e-01,-2.555381015306255055e-01,-1.120653411598881849e-01,-4.205089516232368707e-01,6.724518798518092089e-01,-1.152282511103024376e-01,8.748226180626921256e-01,-5.098699745319245080e-01,-2.551122788400272956e-01,1.927818099408089569e+00,2.117479840055928597e-01,-6.581041472843294216e-01,-4.263386392908932732e-01,7.295472139027914249e-02,3.835192270694541827e-01,2.548480942014954773e-02,-2.395030980095595174e-01,8.936292951583865718e-02,-2.705776544129967487e-01,-3.946546217080457164e-01,2.433162472738030768e-01,-4.629212605614914100e-01,7.779634433688268347e-01,-9.289340846363647319e-01,-2.941999882998807880e+00,-4.070141192454624357e-01,-7.675881152188529510e-01,2.713503638040827282e-01,-4.103799316872430158e-01,1.056678121313541441e+00,1.553320414965227991e-01,-6.494519481159184426e-01,-1.730356729011422456e-01,-1.498200740079791704e-01,-4.094142002625519167e-02,1.823716693162971691e-01,-3.574646373635116392e-01,-4.044220472850782455e-01,2.126963672276758477e-01,-1.433566083542572756e+00,-3.938900319296338437e-01,-4.834308061619025931e-01,-5.622130864782899362e-01,-6.405516929897937528e-01,1.117257147990895039e+00,-5.009634179161125411e-01,1.752168666740822611e-01,-1.105124954845045915e+00,1.699898984705883742e-01,-3.751475410423907864e-01,-1.674112970160600566e+00,-1.251628770140464031e+00,-3.535827732904154308e-01,-9.933083226773251617e-01,8.893598203457268869e-02,1.153296157464777316e+00,-1.607099124961913539e+00,-7.577697607633446797e-01,-8.244771857492367850e-01,-1.495893067699799017e+00,-1.374441907720718614e+00,-4.699390532804780807e-01,-8.214983329577803250e-02,-4.196275485776672087e-01,1.156972094539995721e+00,-8.418299540462843567e-01,-4.184505883493028211e-01,-5.654637981235688393e-01,7.127880985716935625e-01,-1.504373043448153369e-01,-1.193671349086145250e+00,-4.164080826942125890e-01,-7.332978345903654604e-01,-7.028543544111470753e-02,-4.877385453105694824e-01,-5.586358800058512930e-01,3.223595631168492681e-01,-1.463827331592232883e-01,-6.709490281105975340e-01,-4.821269286542215760e-01,4.785237786212071520e-01,-3.509992201225375918e-01,-4.275039606787521262e-01,-1.450104993278776844e-01,5.627493759057412837e-02,-2.887696321094471164e-01,-2.237070790729817071e-01,1.703482952528735161e+00,-3.438664417150579800e-01,-1.178600119513430050e-01,-1.073549025515919020e+00,-1.738646032965764643e-01,-3.832663016634502151e-01,-5.164690000141005655e-01,-3.411112824288596856e-01,-4.331552795601900131e-03,-1.558436931903185996e-01,-1.260167039030619218e+00,1.338914848010444913e+00,1.513598874849161335e+00,-6.410281816196999882e-01,1.643735367523386781e-01,-5.167233904796763033e-01,1.859248655137247241e-01,-6.703089851021490908e-01,5.519491038656646614e-02,-7.335602927597565381e-01,-2.808924200008230954e-01,-5.437989315920687128e-01,-1.949044849683896352e+00,1.371106156134955789e-01,-4.637753837689188030e-01,-4.359904218738395176e-01,-2.152676550001370870e-01,-2.259609849990879271e-01,-1.767404172425943942e+00,-5.100101776003161946e-01,3.513057590214189729e-01,-8.509399418320057196e-02,1.639000226869883614e-01,-6.161802972524472732e-01,-1.381767154859274427e-01,-2.023980799201270109e-01,1.725127252290911961e-01,-1.083285637509648014e+00,-7.633181015661175683e-01,-1.903443257293417901e-01,-2.296767995399469631e-01,-2.384374132344661279e-01,-2.008876542765444251e-01,6.728425287623224227e-02,-2.764762622266253578e-01,7.315292280458905727e-02,-9.886905258537638241e-01,-6.406088047473847136e-02,-1.544572730299581309e+00,-2.722236018602101626e-01,2.096540565290757052e-01,-5.316089217762560715e-01,-1.944872278510590136e-01,-2.600741221183432983e-01,-5.070145929631141024e-02,-3.680772038572938110e-01,3.723417124536467226e-01,-9.887060900441467515e-02,2.677741019536546974e-01,2.278953976055199671e-01,5.692185748000513218e-02,1.051899833566177778e-01,4.564965001914298402e-03,-2.176785964914317584e-01,-2.743578833180709164e+00,-1.183546048489141578e+00,7.994145888222653484e-01,5.177610518680481055e-01,1.255619242761573329e+00,8.132335164072562739e-01,1.324073692589625151e-01,-1.833703560300622981e-01,-1.976709942827496458e-01,-1.833851706433494932e+00,8.427145880853489368e-01,-1.478231480502067430e-01,2.101715610140108659e+00,-9.382434404500900049e-01,5.455025032280862163e-02,5.891167710517958289e-01,1.443961388385917033e-01,-3.801072885035670645e-01,-2.954029438290234344e-01,1.312857488932704375e-01,-1.202469271342187090e-01,-1.291620632198584862e-01,-2.458115485039698289e-01,3.647904696290885096e-01,5.637662462178236744e-01,1.804275005570961724e-02,-1.663324960302629552e-01,-6.776521863155644809e-02,8.932077426228287598e-01,9.977846483739716277e-02,1.064935070595784516e+00,-1.219296871185101827e-01,-2.409649533625080053e-02,2.804709273009433068e-01,8.539076893295356463e-01,-2.918117868403328208e-01,7.362759745448768101e-01,1.761385222103770687e-01,-8.849290891391073943e-01,-4.186009041776350137e-01,1.224721691249632816e+00,-1.530471485572548196e-01,-2.810714785176269825e-01,-3.921007471929877641e-01,-2.571631880857196961e-01,-1.457775769680000888e-01,1.075464636591703660e-01,3.054728938316170761e-01,-9.058156942638990738e-01,-2.237481572029675903e-01,-1.993067223101698537e-01,-1.846957684349653239e-01,-9.820418227846902659e-02,-3.026359127790069214e-01,2.202754733096781159e+00,-5.724708540442882132e-01,-2.452149776708135720e-01,-8.616353969161098802e-02,2.279815541657024269e-01,1.154401955901888543e+00,6.511386442666570185e-01,-8.133686377290337832e-01,-5.037734772374601322e-01,-4.580341430865369490e-01,-1.657887480217129228e-01,-2.859869474462856109e-01,-2.691609899835179509e-01,-6.788748268841299227e-01,-4.895264106098530521e-02,-2.163440488891998081e-01,1.134040096133101194e+00,1.516711362879104297e-01,-7.503297032795033239e-01,-6.298063858144864469e-01,-2.666582418229373475e-01,-7.557442128019477012e-01,-3.865834831370486002e-01,-1.702015253936750849e-01,1.608727871057711589e-01,-4.386686399689970761e-01,-6.125002972259225853e-01,-1.094833599758952836e-01,-1.372685066682972910e-01,2.845092803815948285e-02,1.465922067577455801e+00,-2.200574843859436081e-01,-3.346384155756727541e-01,3.987633216727449192e-01,-5.746907584502546351e-01,-5.811008278300938690e-01,-2.153809527919014477e-01,-6.973016894543992983e-02,3.594419759466684350e-01,-4.143694521648355056e-01,3.164255815055647472e-03,1.122850231492194872e+00,-3.918346239151185850e-01,-4.542649943277216051e-02,-1.081962281087556731e-02,-1.535812935148555824e-01,-4.579456638915287980e-01,-4.515107203399142816e-02,-7.358345577281112382e-01,-1.281996372486137847e+00,-1.674359199534435794e+00,-4.051666721075037336e-01,-1.394057391307533367e+00,1.470368254792977281e+00,4.072298968612464432e-01,9.816526049898370854e-01,-2.285872769453405340e-01,-2.186446388654160744e-01,-1.566322288507509819e-01,1.188283883506479066e+00,-3.687327529135887016e-01,5.921081402478797773e-02,-1.674407396131741388e+00,-5.031175048416782758e-01,-2.772583637434930526e-01,4.501747575015436209e-01,4.990243489321669057e-01,1.022939458166646665e+00,1.611875598300541446e-01,-2.867931342296213271e-01,2.070787372302998752e-01,-2.616850013348626103e-01,1.536066258477681579e-01,7.438489828416978977e-02,-1.723653605058709237e-01,6.062997538123843233e-01,-2.458308483991530624e-01,2.752853098816194777e-01,3.615863872424429637e-02,-4.939643662135296820e-01,-4.235543265035831006e-01,4.666023225431522592e-01,6.826269915970087920e-01,2.514665131463414971e-01,-1.993957366905319828e-01,2.454077617055893390e-01,-1.370510955901806105e-01,-2.034006361033203203e-01,3.084906611247133501e-01,-1.408048297210155175e-01,-1.504762402506735486e-01,-2.631243846911938133e-01,-1.547236682173195321e-01,-4.797090833674622634e-01,2.994714701927971359e-02,2.538249719728063458e-01,-1.440092810785273403e-01,9.741957858672973813e-01,1.581994003538343074e+00,7.124192273951163168e-02,5.324020956818331651e-02,1.527345677039215199e-01,-1.592847790813114450e-01,-9.104079360500154372e-02,-8.222545082317098686e-01,3.874902395169502189e-01,1.455709231856995300e-01,-1.038873439205212773e-01,-3.485528860583533284e-01,-1.013133192686924700e+00,3.147061094162773021e-02,-5.325557017774864427e-02,4.295749913621590976e-02,-1.900553826812612368e-01,7.994897742192008314e-03,7.633761217439865021e-01,-2.137953036227015213e-01,4.061914860319865150e-01,2.451785606405179063e-01,-2.099116700925278134e-01,6.982674263108168411e-02,-3.482790410190512165e-01,-8.939675923445546124e-02,-9.285409408717976154e-02,-2.461545689096829304e-01,-4.911923422172398968e-01,-2.259944975597840966e-01,6.850523694848953404e-01,-1.570843446315130176e+00,5.781596819233604245e-01,9.761175585220141504e-02,-2.665141228306974197e-01,6.212148718119793189e-01,-2.153324856159614664e-01,-1.266630465329417476e-01,-3.939903286079130679e-02,-9.919580175576121761e-02,-1.241167736412176925e+00,-3.094903907271324695e-01,-2.736872203685983829e-01,5.174848837655104949e-01,-1.359651651198436895e-01,-5.462029643138940904e-02,1.140190536848726677e-01,1.618413571007999360e-02,-2.974853044128445978e-01,-1.869526468717646051e-01,5.282173329796937544e-01,-1.408673711870606970e+00,1.315783499880402774e+00,1.223477080531649941e+00,2.196057393187602180e+00,-4.189947668192520180e-02,-1.341205721726132505e-01,1.485304881890157913e-02,4.404004498816664614e-03,1.718777619128502021e-01,-1.893303137996518448e-01,1.018303932057816608e-01,6.428167509615496655e-01,-9.007561426550249328e-02,-3.602250891406776900e-01,3.246749391337967056e-02,-4.271839383493695741e-01,7.050788288477481958e-01,6.318585150003176443e-01,-1.586934312028628891e-01,-3.235382909062779755e-02,-1.536516641272644701e-01,-1.872471831969093614e-01,-1.111104679696359288e+00,-1.856871255998892023e-01,-1.508537982590030524e-01,-2.319911783479332024e-01,1.778916899185499501e-01,1.672941992068958938e-01,-3.705130980816718766e-01,-2.499440427279627508e-01,2.965440253760823763e-01,5.030304378918529773e-01,-1.663658566857253218e+00,-2.950736496467714076e-01,-8.425382210379002146e-01,5.110356294048669090e-01,6.276558813875879883e-01,-3.069560679692646676e-01,-5.334288129933401068e-01,-1.485063644834458407e-01,-1.770442578381351828e-01,3.767596925381987982e-01,-2.131500889723964287e-01,1.401305221306236581e-01,-8.813006299108014363e-02,6.053374273314668930e-01,1.187916002439736829e+00,-4.279316335007639083e-01,-6.334928410401994281e-01,-9.892486174889150718e-02,-1.134580101793957879e-01,-1.749378355087087208e-02,2.450671244194173870e-01,-1.274871319956998761e+00,-1.700156726679270258e-01,-2.372111990037415741e-01,-1.713366172568723034e+00,1.462375651635986762e-01,-8.350145010717794497e-03,-1.018854662836390784e-01,7.814079931161263537e-02,-4.892829116019847130e-02,-2.520631046819744869e-02,-2.656593296976154095e-01,5.326734539795928425e-02,3.850799415407876181e-01,-7.882218449387597137e-02,2.047710187411198174e-02,4.803817381788349355e-02,-2.394525879978267602e-01,-1.426821151170154067e+00,-6.475922522633715817e-01,-2.849536229513235375e-01,-4.931710668075972026e-01,-2.455919466677160656e+00,-1.954208316416854441e-01,8.682573353571386710e-01,-1.902326636418488759e-01,-1.344197927223459432e-01,-3.416045902642135257e-01,1.790512089882134728e-02,-2.452367836856526040e-01,5.983898792019858304e-01,4.757324876262432611e-01,-1.179716262736578286e-01,2.721310255781287379e-01,-8.394714301732926209e-01,-1.174218045278692779e+00,-1.375081950779319107e-01,-1.652282220584652683e-01,2.913545116557208492e-01,-2.230199804995497193e+00,-1.733160039988635714e-01,2.377276143468205205e-01,-1.270805492426333894e+00,-2.651404404450745100e-01,-9.288433868927513382e-02,1.908326926218677777e-01,6.643392034128976775e-02,-1.963283264546800688e-01,-6.307538730480778399e-01,6.378700319928119755e-02,2.577931058839167955e-01,-7.844120343197406031e-01,5.169397565170572584e-01,1.022603905153763038e-01,-6.020775675720596576e-01,-5.404284279863897922e-01,-7.993652120704917985e-02,-7.595925717448877117e-03,-1.350757608304017088e-01,3.210459078801711774e-01,-4.926017769900561949e-02,-2.304748219224425354e-01,-3.852259803028599411e-02,8.650818799700301653e-01,-4.591023075520458407e-01,7.762838732159360253e-03,4.108022526905217853e-01,-1.390966502817220229e-01,-2.215321457074234113e-01,-1.954578758223287083e-01,-1.084879864523153742e-01,4.740041552114939161e-01,7.215429100820862363e-02,1.421067703142446237e-01,-2.674338294622065071e-01,7.688772478141392419e-01,-2.756006939902486685e-01,3.757906755785329900e-02,-1.190311172184418120e-01,1.999648264100103434e-01,-1.041264694799150931e-01,4.499340451564068921e-01,1.163165787489560010e+00,-7.590982429836747036e-02,-2.851409927350849749e-01,-2.393717113508277428e-01,8.618933666099320989e-02,-1.070623949249363827e-01,1.506607575550896749e+00,-2.271880785725610696e-01,-8.960150890313670069e-02,9.869633827197556164e-02,-5.938248636623103538e-01,1.003458337016031265e+00,-1.820514951144028171e+00,-5.457739036379460722e-03,-1.934474758192888943e-01,-3.862160051201371513e-01,1.202558367827909702e+00,-1.355675550655438821e-01,1.487231029397398652e-01,-2.144191792715745559e-01,-1.694267461862663249e-01,-1.039288023009646400e+00,-1.845980663200594632e-02,3.659311467429521292e-01,6.761020474242042388e-02,-1.921379611975470858e-01,-1.395292850181957256e-01,-4.708408346101116693e-01,-8.377297551508494644e-01,-8.270195549715257666e-02,-1.728841661210494263e-01,-4.431369451102410983e-01,-6.056241499374512838e-01,-1.556301600674317553e+00,-3.317960091836347769e-01,-1.081766618460221901e-01,-1.616455533795841948e-01,3.697466743497424546e-01,-1.195438818640722767e+00,-1.428729210465985167e-01,-5.121658101574328992e-01,-5.581844688429881129e-01,-4.032404831259184808e-01,4.293094490912378602e-01,-3.498863770288481723e-01,1.158942091274324376e-01,-1.691353052267231094e+00,-9.387666472820124786e-02,-1.788741619596114982e-02,1.976060476649253023e-04,4.809118343231023052e-01,-8.186413023167945502e-01,-3.363834095017464443e-01,2.483743007864774865e-01,-1.731067610179181371e-01,-3.169408126633276312e-01,1.194257912763917906e+00,-3.216195854718126856e-01,-2.764925251245324289e-01,6.677200960893285853e-01,2.155694543623809800e-01,2.308165151200438914e-01,-1.407139807432029356e-02,-2.087174243331945955e-01,2.154561356395980454e+00,-3.586855716075535994e-01,-7.010088673601878595e-01,1.454605611739649529e+00,1.327595369044442863e+00,5.744413957924001529e-02,2.000555136334289941e-01,3.934941961055548471e-02,1.058337340224692752e-01,6.506678535658284579e-01,1.186643808303761011e-01,-4.429433026369635762e-01,-9.500587300513417821e-01,3.736666627649101735e-01,2.863330196849444564e-01,-6.927524398396465166e-01,-7.309989521277833191e-01,-1.176842354501281274e-01,2.757677168871454088e-01,1.243279253463603629e-01,-3.328971459666471011e-01,-3.287383381931081594e-01,-3.341319814535015364e-01,-3.908240343604838518e-01,1.138756845239442095e+00,-4.588121462821967422e-01,-1.938924917734920483e-01,-3.679650371176497736e-01,6.757859319939023557e-01,-1.107024677982241689e+00,5.468863538103665295e-02,-3.794410099221838251e-01,4.217997135119591623e-01,1.544882191680233996e+00,-4.403416861030110541e-01,-3.611717636960150024e-01,1.133077862517716250e+00,2.018429826209662548e-01,2.112606474332917816e+00,-3.322446176354292846e-01,8.267587527285863436e-01,-3.492686195752568445e-01,3.093423848185123878e-02,3.281862059881187621e-01,-1.395890162986196115e-01,1.948347886084343394e-01,1.029690753003185688e-01,1.204256632581710784e+00,-4.643335222259875050e-01,4.298852870918388747e-01,-4.089492010880346751e-01,-9.322719231988897681e-02,-3.654496484622760666e-01,7.893339312501557181e-01,3.634502392108557856e-01,2.530397091661505393e-01,-1.957526404944414933e-01,-3.376120362415181431e-01,-8.086505398532982669e-01,-9.163599207482091558e-01,6.477887243190604272e-01,1.712717928157030112e-01,7.942826207816692241e-01,-2.734967302158657354e-01,-7.558924295582921705e-03,-2.101440462774789575e-01,8.387984909781888432e-02,5.660524790027221531e-01,-1.452271238081792037e-01,6.253380012071922955e-01,8.237538294206693257e-01,-5.898509758614024490e-01,-1.842296538762371982e+00,-4.692558244910366438e-01,-3.557267561859051574e-01,1.139156932285215973e+00,-2.409784481595784456e-01,-4.648094074816556120e-01,-3.057294484529790232e-02,-8.486426383575412791e-01,-2.104287182602016804e-01,-4.041960771044089684e-01,3.746742309839006801e-01,-2.573269892703746176e-01,1.123140964150468823e+00,-2.084804905088402313e-02,-2.071129065080124787e-01,8.283470644220810586e-01,-1.567665884689258382e+00,-2.117033004850492339e-01,-3.822285440457677264e-01,-3.680862189775866988e-01,9.301655469769940510e-01,-1.134241390560186247e+00,5.272699148890612475e-02,4.209369346678937251e-01,-3.261975985146420287e-01,9.491651138551110423e-02,-2.304473468265843539e-01,2.711641548560090320e-01,-2.433179568087088726e-02,-2.333761286715994587e-01,2.592319755031118333e-01,-2.611662055306160912e-01,6.267720012963505782e-01,6.866486321522754510e-01,7.127456895081164812e-02,1.891607545882559194e+00,9.611030324404632452e-01,-4.081208788054327963e-01,-4.806089372941560467e-02,7.820277924872087727e-02,-4.112110654590838688e-01,-1.618186419180559776e-01,-2.137206121374030376e-01,2.112615885655239334e-01,6.592663121628944412e-01,8.202275973653984087e-01,-3.117937781060735603e-01,1.963384894207327536e+00,3.637588849204464458e-01,5.605126785007582546e-01,2.533321558843381616e-01,-2.421658576241257910e-01,6.888398896504330793e-01,-2.480475316526385143e-01,-7.769191714734709729e-03,-6.884691403427608547e-01,-4.164120555211259789e-01,4.756101257513091207e-01,-4.520625631620037166e-01,-3.172509109126598337e-01,-2.456181669905735665e-01,-5.493711252079692686e-01,-1.164631499677663662e+00,-2.641357742989533519e-01,-7.878442591307875942e-01,-2.258376122352618864e+00,-3.394167753115258646e-01,-1.405282542627638853e-01,2.214264837677035469e-01,-3.660404018219914346e-01,-7.094490335621628230e-01,3.197560241228302735e-01,-4.642800330378988316e-01,-2.994506148781549137e-02,1.126509220950639101e+00,1.583095555111554698e-01,-2.450155768371278797e-01,-4.095968135726087422e-01,-6.748930689111932724e-01,1.747848165624481087e+00,1.797296659692567022e+00,6.385423955441622834e-02,6.052686420112299848e-01,-4.434851510551819365e-01,-3.659760833255133461e-01,4.539462254639164973e-01,-1.500252548485458526e+00,7.836777524951200891e-02,-1.143916094661773242e+00,8.246572373037061587e-02,-2.935131106901353037e-01,-9.358617310397139288e-01,6.062329450876898784e-01,-1.200441447145903784e-01,-4.760173316403938648e-02,-4.059269466212153121e-01,-4.645166022422536622e-01,5.142875845525535228e-01,-2.052796748372755220e-01,1.637693760093527295e+00,-6.484375691773138772e-01,-2.280885460636180584e-01,4.060159879956736217e-01,-4.058820038899748628e-01,-5.123145388784381415e-01,4.127116195115142494e-01,-1.137507626584730730e-01,-7.063278457908211960e-01,-3.976456365106894458e-02,-2.976141833194583253e+00,2.227442978496387005e-01,-1.995138740171702729e-01,8.685491551303146096e-01,-1.805873393053586753e-02,3.818922060204797408e-01,1.841860978038276642e-01,-3.207697267781089295e-02,2.094941742960473030e-01,-8.962242440247959741e-02,-3.243461592033586860e-01,-8.478281696769158771e-01,-1.899702418694829420e-01,-6.052847646150876226e-01,-8.139995943666656908e-01,5.301042967657205729e-01,7.144131486744884629e-01,1.515797178178194919e-02,9.511692787678306671e-02,-5.069391533579211684e-01,-5.150415087024647065e-02,6.950250259158508026e-01,-1.232654105176658188e+00,-1.129464078672694605e+00,4.878780828428999072e-01,-8.950381204784707556e-02,2.101223830085519745e-02,2.750512746801476727e-01,2.352016288186011272e-01,4.867297039216562093e-01,-1.378683353513118215e-01,-1.274260687155164273e-01,7.968504173283331715e-01,-1.648141088152954015e-01,-1.300440921865339439e+00,-1.442062705912434240e+00,4.796362119998111018e-01,-8.556927045915190266e-01,5.721201519146098535e-01,-6.987754581689142874e-02,-2.403831326996079543e-02,-1.979062892120669603e-01,-6.800495410819627773e-02,-1.660828932041376049e+00,-6.120469541789790024e-02,-2.364593947171882704e-01,-1.317308311537077892e-01,1.375461457674183263e+00,6.314577936230150179e-01,-9.510962001428848733e-01,-1.091208532276516929e-01,-4.118016823315852615e-01,8.878088042031320182e-01,2.755420286781676276e-01,-1.810674976638278477e-01,-1.822680458052924557e+00,1.004637439653648823e+00,-1.007549592996717092e+00,1.014802790223817697e+00,-1.345126315292772268e-01,-1.451695198470059900e-01,-1.719897871609972206e-01,6.932932227751628096e-01,-9.623285572110761021e-02,3.944678605509865377e-01,8.060620766849339036e-01,-4.576339197071588316e-01,4.014596947861539533e-01,6.181407108100923642e-01,1.316398826579245340e-01,-2.242589370650268088e-01,-2.337120000181467927e-01,8.420684148039838668e-01,5.989302863266646737e-01,1.300798675982244718e-02,-8.520990552121014694e-02,-2.746413062051270004e-01,-1.198989626757929861e+00,-5.736994025596912072e-01,3.652747089296088517e-02,1.427092869644586814e+00,2.456110436862102286e-01,8.845784773155480618e-01,1.621437302905708588e-01,-3.605007649717348328e-01,4.676828261105929474e-02,2.036516158609581240e+00,-2.080939085730772742e-01,-4.186858965048772530e-01,4.774637642365440193e-01,-7.078132653963616905e-01,2.572018621257872797e-02,1.252148389470814638e-01,-9.647093245907972792e-02,2.166782640120416270e-01,4.538047900472625407e-01,-4.225216796841912981e-02,-3.087424883102231343e-02,3.110593684989070296e-01,-5.743151108056013809e-01,-1.768366506964787477e-01,3.188356907153961917e-01,-3.128982933258564469e-01,-7.068781735166031199e-02,8.417161483706760150e-02,2.941714925009666359e-01,6.998432750543085445e-01,1.057575030429628998e-01,-9.012260814592708280e-02,-3.123136471466054220e-01,-3.301061617702284456e-01,4.602210467062038957e-01,4.643841277661466815e-01,-3.357981786614650521e-01,2.876154234634064610e-01,-5.334660879938577516e-01,-4.904577376538116762e-01,-2.089062487274931657e-01,9.699635197637365147e-01,-5.072492228309852941e-02,-1.572370469864485532e-01,2.815112768271317845e-01,-8.447291346067479223e-01,4.940439016005915285e-01,-2.300970495009756478e-01,-3.283012913251046050e-01,-1.261088276150387655e+00,-1.811567871515886718e+00,-8.711926976645896215e-01,-1.417184407200019480e-01,-5.340517464065416831e-02,-6.516823606605479102e-02,-2.722364298935175397e-01,7.606710891990544621e-01,-1.271810696069540503e-01,-2.571193679366172713e-01,-2.289588375623564431e+00,8.345359237989925794e-02,-3.641209702872517662e-01,-2.501660653731352824e+00,-7.680144326889883910e-01,-8.622765734812949320e-03,-8.237470843509113461e-02,3.544760803472619681e-01,-2.235609761008330310e+00,1.096322674952064230e-01,9.976168647910461651e-01,-3.386565217989365162e-02,1.099624322991271441e+00,-1.274970719402673258e-01,-3.657882397018833998e-01,-1.311764516889155942e-02,2.023396823417206170e-01,-2.925429661911246315e-01,4.187860776975237398e-01,1.999667715543623492e-01,4.387681485284922744e-01,-1.182810637089905664e-01,-2.484200407049995396e-02,-5.260838573318993294e-01,-8.297373448121152240e-02,-2.206331263994654623e+00,-4.555397619729920251e-03,-2.030391862176002815e-01,1.513784238443433017e-01,-3.944672168448318805e-01,2.679855586809739010e-01,-4.470585032427536465e-01,1.448643739267136132e-01,2.747778661427232594e-01,-1.009885941417624222e+00,1.359542660455475005e-01,-1.085170822927656875e-01,6.512175662814715382e-01,-3.567470622389921076e-01,-2.377028954526348992e-01,1.067020554153172096e+00,-1.738012195392785841e+00,1.973297369893798558e+00,5.300648446350735288e-01,-2.408998982508275821e-01,-1.384307295828773043e-01,-6.260927710119633671e-01,9.587135798433799039e-01,-8.915907046529694679e-02,-2.864117005341504374e-01,-1.373240770876930361e-01,1.583262656374769817e-01,1.071125341481365262e-01,-4.774853452294555017e-02,-1.069130433660336749e-01,-4.019851355080978489e-02,-4.661885474045597277e-01,1.072850922597381906e+00,2.681735853568291694e-01,-1.356511933691177674e-01,1.502478301802929739e-01,3.344266587960909726e-02,7.272274154932959478e-01,-2.820984589040815421e-02,4.984032016230729445e-01,-3.522298459073757160e-01,2.084826477247778975e-01,1.404076335399356834e+00,-5.961037307745290503e-01,-4.497665411257254497e-01,6.102362004939570345e-02,-2.610696186675577624e-02,-9.835689717911842989e-01,5.784065127954213237e-02,2.113870307941342550e-02,-1.930067062154928459e-01,-2.062541334259643949e-02,-4.264629069998145394e-01,2.931582944668893465e-01,-9.480256289914233692e-02,1.149311536722737559e+00,-8.138377266123586473e-02,-1.632188704131946888e-01,-7.327888719830354392e-01,4.623761882315807203e-01,1.890474471266753165e-01,-2.126979436236532406e-01,-8.857767632971790261e-01,8.417080443110258603e-02,2.311645581677775063e-01,7.878553785579114899e-02,2.987082903548821111e-01,-6.579339820867585731e-01,4.112437356911548964e-02,-2.666484790401086116e-02,3.952634249790327181e-01,1.459928012209210091e-01,-4.494965187777112403e-01,-5.264057037854620313e-01,9.700753308327438040e-02,-1.537626086880658216e-01,-4.387437981406711596e-01,-1.429748858416111379e-01,1.756366221131732408e-01,-1.464978484249375157e-01,5.431785091549608951e-02,1.212295690878933407e-01,-1.239252967379139925e+00,7.396918070305640025e-02,2.160953694614638904e-02,4.989046750176494988e-02,-1.724007862326969009e+00,1.302421745221010174e-01,-3.207558344253110816e-01,-1.390715393544070810e-01,-6.002672068522623139e-01,-5.067992193048139749e-01,-9.702643375118733537e-01,2.448504295048831991e-01,4.284692688942493000e-01,1.343539433055462584e-01,-7.271362189671300991e-01,-9.407479680773807029e-01,2.877307763839415666e-01,-4.426741375462629746e-02,-2.313198925874632161e-01,-7.725919766233609876e-01,-2.344001971676799023e-01,-5.860331551650383997e-01,-1.402105277144014839e-01,1.251645650221637984e+00,-3.624676475785894025e-01,5.262877876636279373e-01,7.937045360194133412e-03,-2.082254904923976080e-01,1.159300882543960326e-01,1.340931320303403312e-02,-8.490891986691496696e-01,2.582153574125307851e-03,-1.335941460074231146e-01,5.064223504348278615e-01,-2.373897974088628182e-01,4.110926157862282437e-01,-1.302474421032670193e+00,-5.856895539806303841e-01,-7.591756781283720557e-01,-4.784268905814366701e-01,-2.313385178642875795e-01,-2.492814249471438787e-02,2.831780119575201815e-01,-1.395416693603079183e+00,-1.455087258009157003e-01,2.195785159161116051e-01,-7.862260131878526792e-01,7.910200745787955567e-02,-4.524929362423946722e-01,8.985039020624174810e-01,-4.432031383853392292e-02,8.622791826925724212e-02,-4.116392364302323137e-01,